<?xml version="1.0"?>
<opencv_storage>
<opencv_ml_svm>
  <format>3</format>
  <svmType>C_SVC</svmType>
  <kernel>
    <type>RBF</type>
    <gamma>0.50625000000000009</gamma></kernel>
  <C>312.5</C>
  <term_criteria><epsilon>1.1920928955078125e-07</epsilon>
    <iterations>1000</iterations></term_criteria>
  <var_count>12</var_count>
  <class_count>6</class_count>
  <class_labels type_id="opencv-matrix">
    <rows>6</rows>
    <cols>1</cols>
    <dt>i</dt>
    <data>
      0 1 2 3 4 5</data></class_labels>
  <sv_total>262</sv_total>
  <support_vectors>
    <_>
      0.707829297 0.452454805 0.387384325 0.0356750898 0.457207024
      0.707858562 0.321781337 1.69791508 1.48752773 0.0181141905
      0.989233315 0.316227734</_>
    <_>
      0.525413752 0.35483858 0.239537373 0.096168153 0.492132336
      0.529177129 0.405932575 1.59579754 1.66203272 0.0148946987
      0.988829672 0.206347272</_>
    <_>
      0.790475249 0.563340485 0.459958196 0.0397884995 0.400500119
      0.790500641 0.244766936 1.70100164 1.4653362 0.0216095448
      0.986473262 0.342017412</_>
    <_>
      0.483969837 0.515474081 0.181875557 0.225536227 0.762404084
      0.529720664 0.473289162 1.48723936 1.38621128 0.102538839
      0.92110461 0.1297144</_>
    <_>
      0.800480604 0.619532645 0.50710547 0.11047291 0.339125663
      0.80062288 0.744699776 1.70950055 1.42949724 0.00779988803
      0.994732559 0.338969469</_>
    <_>
      0.679724634 0.44391045 0.428751498 0.240600422 0.412287891
      0.688742757 1.43173039 1.78968489 1.45324457 0.0218429696
      0.989428103 0.361920118</_>
    <_>
      0.789889693 0.646064997 0.547576308 0.0573869981 0.295598626
      0.789965928 0.394973397 1.39785826 1.5104214 0.0259761363
      0.984023988 0.344344348</_>
    <_>
      0.39219594 0.41946131 0.210524529 0.203117251 0.618047893
      0.442498416 0.250521481 1.02082705 1.31703973 0.0380833596
      0.967487693 0.254692972</_>
    <_>
      0.672032893 0.480116487 0.420063168 0.0537153669 0.402127087
      0.672105849 0.523713648 1.68651581 1.53916025 0.0190707073
      0.990421057 0.326339066</_>
    <_>
      0.691308856 0.498723865 0.384300292 0.0810687467 0.419006974
      0.693643153 0.419017166 1.41023231 1.34251523 0.00999839883
      0.990596354 0.279447734</_>
    <_>
      0.759753108 0.627658188 0.490225166 0.0636660084 0.372034371
      0.759846509 0.357048988 1.84587276 1.54562616 0.0177418329
      0.990832031 0.38796705</_>
    <_>
      0.59973675 0.445806056 0.438885242 0.415700734 0.315009058
      0.60780102 1.6499424 1.50781369 1.70312262 0.0179860666 0.9920578
      0.292211205</_>
    <_>
      0.599035919 0.432291508 0.425422668 0.197182134 0.344469666
      0.599158227 1.3426913 1.59682453 1.58732259 0.0181241985
      0.991454661 0.295889825</_>
    <_>
      0.69170779 0.461798787 0.410278946 0.0677374527 0.438897818
      0.691741407 0.61437887 1.8744036 1.61753428 0.0222905986
      0.990014076 0.298889697</_>
    <_>
      0.303340077 0.385280907 0.329078674 0.312139153 0.695023239
      0.4979738 0.768766284 1.49487877 1.85834813 0.0605933703
      0.94599092 0.258653939</_>
    <_>
      0.858295798 0.68233788 0.469354451 0.0589296781 0.416745067
      0.858316541 0.224251345 1.84961545 1.48688495 0.0176901817
      0.987601519 0.416794211</_>
    <_>
      0.736961484 0.619076014 0.345742971 0.133177221 0.500243664
      0.762814343 0.262403518 1.40687478 1.44355524 0.00777706597
      0.993623853 0.297473431</_>
    <_>
      0.528067172 0.350958914 0.157229841 0.119800411 0.541991889
      0.528712749 0.701211751 1.63331938 2.04978967 0.00600016024
      0.996359646 0.440771222</_>
    <_>
      0.864063144 0.737642944 0.549526215 0.0657199994 0.333837688
      0.864092767 0.358152777 1.71624088 1.49595833 0.016064221
      0.989025474 0.421912938</_>
    <_>
      0.597932458 0.454701185 0.381588966 0.242263228 0.330663055
      0.597933888 1.35771537 1.46942008 1.78822708 0.00849735737
      0.995726585 0.249725148</_>
    <_>
      0.397458136 0.511882782 0.118992753 0.226878494 0.82645911
      0.512217999 0.148416638 0.92696625 1.27656102 0.0444270484
      0.960738182 0.162366018</_>
    <_>
      0.5370453 0.572669625 0.293475509 0.181890965 0.496776849
      0.57497704 0.220627204 1.00261593 1.37882054 0.0269314535
      0.979659557 0.192303658</_>
    <_>
      0.716077685 0.552871227 0.53471756 0.117843971 0.312133998
      0.716127336 1.06061542 1.77231026 1.61795998 0.0207114834
      0.991716444 0.40533784</_>
    <_>
      0.671615899 0.736101806 0.365777791 0.237632319 0.529547572
      0.743802547 0.55623287 1.81112731 1.48142993 0.031720452
      0.979587555 0.244245872</_>
    <_>
      0.352960259 0.474016875 0.238213882 0.265944868 0.634383202
      0.490248919 0.33806473 1.13701522 1.37886798 0.285695076
      0.769214809 0.121404566</_>
    <_>
      0.757717907 0.56411618 0.508694649 0.145244732 0.338149935
      0.766732395 1.08219194 1.51792562 1.47072721 0.0174511522
      0.990119219 0.326581568</_>
    <_>
      0.712043345 0.463007867 0.385049015 0.0361922681 0.455122441
      0.712083757 0.234935731 1.72320402 1.4588573 0.022258969
      0.986753702 0.28713426</_>
    <_>
      0.692011595 0.564522207 0.446697742 0.0959119424 0.383247286
      0.692488372 0.308214128 1.72374117 1.60991347 0.0240302682
      0.989047885 0.303552836</_>
    <_>
      0.804441452 0.624661028 0.614426255 0.176079094 0.250396341
      0.805141985 1.24789321 1.60799956 1.52250516 0.0189193618
      0.991237223 0.479421198</_>
    <_>
      0.694017053 0.468534678 0.405760199 0.188714951 0.435270756
      0.712892711 0.980636239 1.59912956 1.52063906 0.0111511052
      0.992409706 0.237832993</_>
    <_>
      0.745627165 0.606127083 0.482904792 0.124934785 0.359230816
      0.746223748 0.672252119 1.88899112 1.49024189 0.00977258198
      0.994680166 0.327147663</_>
    <_>
      0.766315758 0.674206495 0.633275867 0.0327344425 0.186235666
      0.766317248 0.156192288 1.12479544 1.51676595 0.0410450026
      0.977702975 0.362443447</_>
    <_>
      0.76749301 0.738290608 0.666345835 0.148455545 0.136517495
      0.77217412 0.768579066 0.984068573 1.57678986 0.0212876368
      0.987411439 0.39338398</_>
    <_>
      0.771488488 0.570987284 0.514572918 0.0394443795 0.339123547
      0.771536887 0.393104047 1.62044024 1.46975565 0.0200296286
      0.989569962 0.372395813</_>
    <_>
      0.77451247 0.626818776 0.492857218 0.12870729 0.348015606
      0.786556661 0.753803253 1.60979915 1.55085433 0.0143037317
      0.990493119 0.352217734</_>
    <_>
      0.843169391 0.642402887 0.468274117 0.0563633777 0.414153069
      0.843271315 0.269130856 1.80048454 1.45735931 0.0148546603
      0.989929795 0.372423798</_>
    <_>
      0.804974735 0.585982621 0.470395118 0.0539984815 0.394879043
      0.807278931 0.313514173 1.8797158 1.50672579 0.0153775625
      0.99096477 0.396484643</_>
    <_>
      0.779558778 0.496902674 0.439748794 0.0747205392 0.416459709
      0.779588103 0.776551604 1.54872084 1.41876125 0.0209585205
      0.986775994 0.288038582</_>
    <_>
      0.826754987 0.671599746 0.625266492 0.0484559909 0.244099751
      0.826895356 0.48232013 1.54700518 1.48646879 0.012287396
      0.993473709 0.482607484</_>
    <_>
      0.73844707 0.544205368 0.498083293 0.0463413224 0.351712316
      0.742841363 0.520098805 1.77744234 1.46877718 0.0206318069
      0.990413129 0.389049411</_>
    <_>
      0.404406607 0.428625345 0.16492331 0.184906125 0.676827133
      0.441099107 0.218551025 1.26438189 1.40715349 0.0383664332
      0.972165167 0.203608423</_>
    <_>
      0.673059821 0.448198825 0.421235055 0.133856609 0.429500312
      0.682017446 1.11163867 1.96632147 1.54166472 0.0179696511
      0.992666185 0.373357564</_>
    <_>
      0.491797656 0.623693943 0.471077561 0.323242188 0.590401649
      0.70871377 0.646111667 1.0727874 1.04559112 0.0600228235
      0.909732044 0.243988067</_>
    <_>
      0.523559749 0.522717535 0.322926193 0.327025652 0.536139369
      0.554063737 0.868415475 2.18474317 1.36880791 0.0340578966
      0.97330153 0.266261697</_>
    <_>
      0.831919491 0.737371743 0.604486108 0.0575262867 0.270367593
      0.832008839 0.348327219 1.64241374 1.50882339 0.0172970053
      0.98977375 0.487933815</_>
    <_>
      0.367248684 0.403490156 0.369760484 0.341327071 0.409666836
      0.466481119 0.80993557 1.23407304 1.53211498 0.0309733339
      0.973587334 0.286214232</_>
    <_>
      0.762220263 0.635839701 0.473807424 0.193245441 0.377411753
      0.763980985 0.885627329 1.79951859 1.48429489 0.0159753356
      0.990939558 0.313213229</_>
    <_>
      0.670477808 0.491918027 0.437180728 0.0393524803 0.353879213
      0.670497835 0.218149349 1.3246882 1.43939519 0.0175876841
      0.988973439 0.278251827</_>
    <_>
      0.667527258 0.448994368 0.251392603 0.0719850585 0.538658679
      0.668441832 0.257888198 1.36078894 1.66516626 0.00710722292
      0.993903399 0.291814506</_>
    <_>
      0.850247025 0.65919894 0.408959359 0.0753701404 0.472223192
      0.850265861 0.300410956 1.69245529 1.47264373 0.0151369311
      0.98826009 0.332214803</_>
    <_>
      0.512832105 0.547956705 0.408948958 0.211747974 0.388925105
      0.571159661 0.408609957 1.51492333 1.00103235 0.0300196186
      0.962078035 0.210792825</_>
    <_>
      0.486836284 0.536730886 0.143709287 0.192755938 0.77055198
      0.546663225 0.169331789 1.14979744 1.08354425 0.0134885488
      0.982973218 0.191553548</_>
    <_>
      0.596573651 0.608539104 0.434079796 0.220176652 0.325449467
      0.613295496 0.785378218 1.47235703 1.42842841 0.0160822384
      0.989429951 0.277562886</_>
    <_>
      0.772926807 0.617275119 0.572182238 0.0744362101 0.273850858
      0.773864329 0.745871365 1.52690434 1.48442793 0.0169070307
      0.991356969 0.410191834</_>
    <_>
      0.564192295 0.428184152 0.346866012 0.160949677 0.423987806
      0.581597149 0.803759277 1.40737319 1.55267251 0.0130465245
      0.991301775 0.260787129</_>
    <_>
      0.778215766 0.656270325 0.422974259 0.0800671652 0.438585043
      0.778265476 0.299989998 1.63812482 1.64584625 0.0249395426
      0.987031102 0.309200883</_>
    <_>
      0.800680399 0.63450104 0.57704556 0.0309309009 0.28514725
      0.800722182 0.262445658 1.62787807 1.54021645 0.0193958208
      0.990310073 0.451077849</_>
    <_>
      0.856596291 0.667923391 0.532644868 0.108814858 0.349523872
      0.856880188 0.756258607 1.78198683 1.49002206 0.0127790682
      0.991802633 0.453092545</_>
    <_>
      0.726858497 0.523489177 0.48207283 0.195503935 0.370696157
      0.741426229 0.991211176 1.69541359 1.63476729 0.0108560221
      0.99440676 0.246052742</_>
    <_>
      0.715930283 0.61723727 0.526678741 0.24405238 0.268587828
      0.734852791 1.0467757 1.13823807 1.43529582 0.0174635649
      0.984495997 0.247407213</_>
    <_>
      0.769509435 0.606413662 0.538874686 0.0756735206 0.316276431
      0.769653082 0.696769416 1.68258262 1.50664628 0.0213961396
      0.989166856 0.402048379</_>
    <_>
      0.864276469 0.747170806 0.574646354 0.0587578379 0.308693409
      0.864295304 0.331485003 1.75798953 1.51021886 0.0159977581
      0.989760876 0.442335099</_>
    <_>
      0.668566704 0.572659791 0.535284221 0.0558603704 0.257457912
      0.668684185 0.393208385 1.52300262 1.60723197 0.021261612
      0.990959167 0.342403144</_>
    <_>
      0.67077899 0.598503768 0.490025789 0.103217565 0.289449364
      0.672770917 0.327013165 1.49827743 1.78838456 0.013997037
      0.994014859 0.334921688</_>
    <_>
      0.811781049 0.632522941 0.597647429 0.0789465532 0.260388464
      0.811820269 0.810204685 1.43725169 1.50044727 0.0138472933
      0.99234736 0.406771153</_>
    <_>
      0.789313674 0.731079936 0.60976553 0.0751038566 0.236357272
      0.789325118 0.256372362 1.25836146 1.51425016 0.0161875393
      0.991177917 0.40680486</_>
    <_>
      0.800366402 0.627921581 0.550251842 0.0724944845 0.317708164
      0.800534964 0.660600066 1.73188949 1.4769578 0.019472694
      0.989605546 0.41208452</_>
    <_>
      0.703976572 0.543058813 0.484178841 0.0501230098 0.303238243
      0.71648699 0.428549826 1.44917822 1.66488481 0.0196332484
      0.989794672 0.363523602</_>
    <_>
      0.808505952 0.659958661 0.477659732 0.0911916718 0.368232459
      0.809197247 0.18054311 1.29085481 1.4961772 0.0164109543
      0.987613559 0.291676313</_>
    <_>
      0.216979995 0.261167824 0.161858335 0.283570945 0.675896049
      0.264470011 0.462781906 1.67142689 1.53072858 0.039051488
      0.977748275 0.381387979</_>
    <_>
      0.757266819 0.591995776 0.558707595 0.0483516902 0.275057197
      0.757386148 0.399278015 1.63863397 1.57011425 0.010722694
      0.994899869 0.350376934</_>
    <_>
      0.716494858 0.534581184 0.49625203 0.0638201311 0.332587957
      0.716515899 0.729845226 1.67976797 1.6026634 0.023784833
      0.989677072 0.375112742</_>
    <_>
      0.470344156 0.607626617 0.387682498 0.266749471 0.462233007
      0.624592662 0.332068235 1.05027544 0.736195922 0.0413781218
      0.914022923 0.190890655</_>
    <_>
      0.574259758 0.608602285 0.432164341 0.296123326 0.43045491
      0.613852501 0.699569225 1.7874999 1.60507631 0.0279464293
      0.986144006 0.238673061</_>
    <_>
      0.647259355 0.53702116 0.465508789 0.193686888 0.320893049
      0.649586558 0.879337788 1.48330879 1.50349748 0.0176817738
      0.990802646 0.306717128</_>
    <_>
      0.774564683 0.597292304 0.568149924 0.0941242352 0.280131191
      0.776222587 0.829654932 1.52292097 1.4890604 0.0144418646
      0.992674828 0.411589265</_>
    <_>
      0.771071076 0.579440653 0.517052352 0.0708439648 0.329235435
      0.776598036 0.667106628 1.52797258 1.484128 0.0171696823
      0.99010694 0.339174509</_>
    <_>
      0.637557149 0.475820243 0.442854881 0.0965861306 0.356420785
      0.637582839 0.893417358 1.55452228 1.61649728 0.021748079
      0.989920676 0.320050329</_>
    <_>
      0.786837518 0.617044866 0.561749756 0.0553575866 0.281806618
      0.786932528 0.396555662 1.51375461 1.48760724 0.0104540363
      0.994136393 0.324902922</_>
    <_>
      0.430185497 0.479341567 0.146826312 0.203056574 0.723052025
      0.487170339 0.15054889 0.916706204 1.25433648 0.0249147173
      0.97706306 0.213833287</_>
    <_>
      0.797402263 0.634098768 0.561307311 0.0662770346 0.297248036
      0.797538638 0.601881802 1.67655778 1.5988723 0.0166776106
      0.991730213 0.430566013</_>
    <_>
      0.437687576 0.63027966 0.184350535 0.241158232 0.761398375
      0.631067038 0.157508641 1.32804382 0.909388721 0.0167969242
      0.978097677 0.199230596</_>
    <_>
      0.279136032 0.369714677 0.0618434884 0.212032318 0.765915275
      0.372030467 0.417183369 1.72727823 1.41879463 0.0484493114
      0.958145618 0.240331873</_>
    <_>
      0.732021093 0.536501408 0.359176159 0.0996009633 0.437418729
      0.733543754 0.242777079 1.77955103 1.35009241 0.00703515392
      0.991671622 0.355181068</_>
    <_>
      0.700451136 0.378655672 0.403996199 0.679085732 0.417134345
      0.700496972 1.6049403 1.60054946 1.61031139 0.021125881
      0.986875951 0.289246947</_>
    <_>
      0.700876236 0.543782413 0.469018459 0.0487845019 0.327517033
      0.700939357 0.25508818 1.21780932 1.38597059 0.023617072
      0.983146191 0.290995479</_>
    <_>
      0.563788712 0.433953494 0.468621582 0.5938223 0.297361284
      0.563817084 1.64678597 1.34853911 1.59735096 0.0233892538
      0.989606082 0.336086839</_>
    <_>
      0.828853726 0.620169938 0.434044242 0.0671892688 0.427852392
      0.828853726 0.091602616 1.42015111 1.44253016 0.0148002086
      0.986632705 0.332072049</_>
    <_>
      0.803495944 0.871224284 0.662170053 0.137788206 0.346598715
      0.884301305 0.556752741 2.04533195 0.706658363 0.0204091929
      0.974068522 0.512893438</_>
    <_>
      0.806868792 0.569199383 0.535676956 0.0670775548 0.339335889
      0.806891918 0.780752659 1.82319021 1.48992991 0.0166311655
      0.992179453 0.411091208</_>
    <_>
      0.602838635 0.60050559 0.612373292 0.337183893 0.187401056
      0.672267497 1.1233778 0.685774565 1.38249171 0.00951553509
      0.992027342 0.275846392</_>
    <_>
      0.686182976 0.553591847 0.357488453 0.217088073 0.483266056
      0.708124161 0.855678797 1.63541174 1.51014352 0.0174667686
      0.986940265 0.262160152</_>
    <_>
      0.333596885 0.420250922 0.244760871 0.258227497 0.534934998
      0.423281193 0.512268245 1.78493702 1.49183452 0.0970019251
      0.938975811 0.168425009</_>
    <_>
      0.820353925 0.634467721 0.440712839 0.101985566 0.429360896
      0.82062304 0.550790489 1.83569586 1.49897754 0.0131938662
      0.99133569 0.348548025</_>
    <_>
      0.851266265 0.645537734 0.617155552 0.215918079 0.264941275
      0.851405084 1.36208057 1.45207024 1.49057174 0.0176813733
      0.989643455 0.436639756</_>
    <_>
      0.830168724 0.711441457 0.51438719 0.0741910711 0.364317596
      0.830303371 0.355363607 1.74344659 1.53182864 0.0163941383
      0.989999115 0.394319654</_>
    <_>
      0.341908246 0.379157603 0.158345833 0.201977924 0.634506226
      0.381226242 0.166559711 1.38267756 1.11379445 0.0223963
      0.973751605 0.221605301</_>
    <_>
      0.840735197 0.545414746 0.383710593 0.0811730474 0.494333506
      0.840767503 0.620125771 1.56126142 1.45398688 0.0114005441
      0.989894509 0.395316899</_>
    <_>
      0.263456017 0.535729825 0.203373224 0.316975683 0.769570649
      0.546684444 0.277469367 1.11565006 1.11934459 0.0284344964
      0.966682851 0.205579355</_>
    <_>
      0.725151002 0.652342498 0.589786708 0.342691839 0.237566203
      0.7450822 1.0296092 1.55769396 1.41393805 0.0104292119 0.993763268
      0.309638798</_>
    <_>
      0.805119872 0.6384992 0.492101282 0.0641931519 0.36433503
      0.805142224 0.207402647 1.50218904 1.59125257 0.0227666553
      0.987083018 0.267312586</_>
    <_>
      0.805490971 0.770097017 0.708735108 0.0979296193 0.139357299
      0.808674634 0.391661972 1.25923097 1.65198624 0.0211515054
      0.989628255 0.614652872</_>
    <_>
      0.748627007 0.562982857 0.501192331 0.0430241115 0.355519325
      0.748672545 0.310652643 1.88708508 1.62417531 0.0140550928
      0.994028389 0.388751984</_>
    <_>
      0.793567657 0.506628215 0.44860515 0.0322371908 0.415352941
      0.793587387 0.316485256 1.70403206 1.43818152 0.018859705
      0.989026308 0.311774671</_>
    <_>
      0.815989137 0.748775661 0.643276632 0.0722366124 0.213631704
      0.816022992 0.302830577 1.48292863 1.48960197 0.0172045156
      0.989852965 0.427249402</_>
    <_>
      0.809289575 0.696993709 0.627650023 0.0638419464 0.223598972
      0.809477329 0.390277117 1.42773616 1.50809538 0.0107082799
      0.993950963 0.39386943</_>
    <_>
      0.381673932 0.488037944 0.257100433 0.252540171 0.603079259
      0.492762655 0.547806263 2.03040767 1.54907453 0.0364041477
      0.97967416 0.206576362</_>
    <_>
      0.824793041 0.63931042 0.429932117 0.0771372542 0.439900249
      0.824898303 0.35243997 1.77011538 1.43254626 0.0178699549
      0.986247361 0.462982118</_>
    <_>
      0.75150609 0.577645302 0.542517245 0.126903072 0.305819273
      0.76175046 1.03657329 1.64713943 1.61743295 0.0222753845
      0.989543438 0.409547716</_>
    <_>
      0.615712047 0.515459359 0.421452343 0.110336944 0.281120956
      0.624282002 0.308542937 1.40450287 1.4634558 0.014523943
      0.989034295 0.216048777</_>
    <_>
      0.805394888 0.703864455 0.501247764 0.0776357204 0.359565556
      0.805512726 0.342079103 1.65641403 1.47297144 0.0186815336
      0.987424254 0.357905328</_>
    <_>
      0.788377464 0.616414845 0.511548936 0.075411886 0.320511788
      0.78838551 0.51991564 1.68548954 1.40916228 0.00870755967
      0.993732572 0.311657608</_>
    <_>
      0.805184245 0.61434263 0.508796394 0.179341048 0.345644981
      0.81189549 0.841949582 1.46263397 1.42340934 0.0109921526
      0.991626561 0.263021171</_>
    <_>
      0.537334025 0.56972456 0.465204298 0.376832545 0.395827711
      0.600118279 0.810361028 1.98102641 1.57582998 0.0490298681
      0.970682383 0.321695834</_>
    <_>
      0.757665813 0.596738636 0.537853479 0.0504768752 0.303254902
      0.770174563 0.431300819 1.44911432 1.44595766 0.0189882293
      0.988845408 0.388315439</_>
    <_>
      0.863143384 0.666775703 0.478904933 0.0702157319 0.409834415
      0.863265634 0.383621454 1.81639862 1.46729171 0.0122533636
      0.991249025 0.442798406</_>
    <_>
      0.820961177 0.70271194 0.572764814 0.117808312 0.271974653
      0.821455359 0.745761275 1.34500742 1.50244176 0.0154660475
      0.989129603 0.327046067</_>
    <_>
      0.74225527 0.585040987 0.53628546 0.148830563 0.305155486
      0.758984983 1.11058664 1.57328665 1.51979101 0.0197233353
      0.990050077 0.363235563</_>
    <_>
      0.493847698 0.48611936 0.510080934 0.583679199 0.106341362
      0.51721853 1.09049511 0.542996943 1.93275201 0.0156758483
      0.994207382 0.355666131</_>
    <_>
      0.802168071 0.576397598 0.534798145 0.0763228983 0.332904398
      0.802334905 0.791481018 1.75378156 1.46382368 0.0172573663
      0.991209745 0.401955038</_>
    <_>
      0.253265679 0.294238716 0.126817599 0.19301559 0.450968206
      0.295161426 0.601840198 2.06780434 1.65068924 0.0938076526
      0.94491595 0.431766689</_>
    <_>
      0.828770041 0.704709411 0.592306852 0.106630325 0.27795431
      0.828836381 0.83027488 1.81955922 1.48285449 0.0125792762
      0.992757678 0.427278578</_>
    <_>
      0.680779994 0.579900801 0.454290062 0.0523156263 0.392928809
      0.680789351 0.186514437 1.89803922 1.77977252 0.0189153589
      0.992561042 0.365599871</_>
    <_>
      0.386361271 0.416572243 0.122800604 0.193229169 0.669077218
      0.423980057 0.36973384 1.60626268 1.30471039 0.0519798994
      0.949854076 0.171373978</_>
    <_>
      0.775759935 0.591693342 0.572879612 0.0407748073 0.270467341
      0.775846481 0.34586817 1.67751062 1.53229976 0.0116387736
      0.994528472 0.38477093</_>
    <_>
      0.819499433 0.863099515 0.648784101 0.0985517651 0.317156315
      0.863549173 0.397235036 1.98317206 0.873400033 0.00601857761
      0.992545009 0.53299284</_>
    <_>
      0.813883841 0.699050248 0.574749053 0.136920154 0.266362876
      0.81446296 0.812200844 1.33264744 1.47949195 0.0126337288
      0.990971863 0.339925885</_>
    <_>
      0.750721097 0.681105733 0.540076256 0.0895261988 0.254227072
      0.75100863 0.290639699 1.41409099 1.55447745 0.0193097368
      0.987687826 0.304048926</_>
    <_>
      0.7812078 0.585556984 0.458081812 0.212001756 0.366433769
      0.783886373 1.07100725 1.86658537 1.38006473 0.0106109865
      0.990830779 0.366835952</_>
    <_>
      0.615431905 0.738788068 0.527430713 0.285410017 0.381815135
      0.740986884 0.45800513 1.84227777 1.02354527 0.00987708196
      0.99143672 0.25975439</_>
    <_>
      0.453644753 0.508570611 0.342260957 0.249800593 0.502332807
      0.532604754 0.606898427 1.63990521 1.58522725 0.0592192523
      0.962834239 0.192136943</_>
    <_>
      0.43803364 0.521763861 0.329765201 0.221687987 0.579787791
      0.538796842 0.525752842 1.73525 1.31413245 0.0867909193
      0.939125717 0.198066413</_>
    <_>
      0.358609289 0.405114144 0.157992572 0.203747034 0.615726769
      0.4059816 0.292569429 1.32768619 1.37714624 0.0361767299
      0.971658528 0.238791049</_>
    <_>
      0.764748931 0.519942105 0.376870513 0.0820824057 0.483719975
      0.773428798 0.576250196 1.83127296 1.5354476 0.0146808941
      0.990403771 0.281945735</_>
    <_>
      0.805141926 0.652139008 0.49806571 0.0672241524 0.357061267
      0.805178463 0.287029594 1.69229698 1.51228309 0.0194790997
      0.988065958 0.348112255</_>
    <_>
      0.775901973 0.609182358 0.436351508 0.0755158514 0.422787696
      0.793997109 0.317302912 1.72032714 1.49725091 0.0205393173
      0.98585856 0.330681473</_>
    <_>
      0.727275372 0.534670889 0.482032031 0.0556519926 0.349760443
      0.730291486 0.63123852 1.65193999 1.4750495 0.0209773388
      0.989277184 0.358151555</_>
    <_>
      0.795432389 0.548167884 0.430215597 0.197353423 0.436398387
      0.795799315 1.09738779 1.70257175 1.46248937 0.0113312779
      0.992395103 0.345654279</_>
    <_>
      0.738669693 0.602898061 0.447134405 0.0812751353 0.383212268
      0.748784304 0.323040247 1.67765605 1.70244968 0.0199995991
      0.988889098 0.320570678</_>
    <_>
      0.681811452 0.55876708 0.490126044 0.199762061 0.31802097
      0.696356356 0.94142431 1.26796031 1.38694739 0.0080160955
      0.994331658 0.272679508</_>
    <_>
      0.82038933 0.654987216 0.534614086 0.0538260862 0.33634463
      0.820481479 0.429444939 1.87996972 1.54426873 0.0207291003
      0.988792062 0.434569001</_>
    <_>
      0.736745298 0.623482347 0.575720668 0.0665970221 0.224008039
      0.736774802 0.571077883 1.16676891 1.42241871 0.0217733029
      0.986423612 0.295770377</_>
    <_>
      0.753096461 0.515380979 0.481825709 0.0668205693 0.339450777
      0.753119349 0.7791664 1.82279563 1.73356628 0.016406551
      0.992991209 0.380209148</_>
    <_>
      0.822636604 0.589582682 0.375919282 0.0717398077 0.495667726
      0.822636604 0.0920646414 1.15614104 1.47263098 0.00904868636
      0.991685629 0.365923375</_>
    <_>
      0.770771503 0.637585044 0.557254612 0.0629875064 0.286343843
      0.770836353 0.533127069 1.56082416 1.49799788 0.0201301258
      0.989135563 0.382068664</_>
    <_>
      0.896939874 0.927731037 0.659912944 0.0948686153 0.322054982
      0.927976727 0.384351552 2.07719564 0.501252234 0.00540198572
      0.983932495 0.578889251</_>
    <_>
      0.74346137 0.615452647 0.479323775 0.106415637 0.373333007
      0.783132374 0.593114436 1.8173058 1.56685996 0.0170031227
      0.990015686 0.330890864</_>
    <_>
      0.424847215 0.519030631 0.100353107 0.208240107 0.829037726
      0.521506488 0.10845682 0.863967061 1.07393014 0.0481874608
      0.936609983 0.150305748</_>
    <_>
      0.814497232 0.554086626 0.36396268 0.0601223707 0.508076906
      0.814506769 0.197974816 1.61895847 1.45521665 0.00970131345
      0.992290914 0.302312016</_>
    <_>
      0.761407375 0.620640695 0.519625366 0.0786499307 0.335095614
      0.761626422 0.499439597 1.88078964 1.51972425 0.0133616272
      0.993334174 0.416189522</_>
    <_>
      0.605132818 0.629164159 0.285677642 0.166418985 0.535806298
      0.635866642 0.238131627 1.30613089 1.3171196 0.0310281869
      0.973713934 0.217044726</_>
    <_>
      0.494221598 0.458044708 0.0723206475 0.145270646 0.803911328
      0.501738906 0.260200322 1.43496299 1.56964159 0.0961799324
      0.929949939 0.177640632</_>
    <_>
      0.752888799 0.58078593 0.35867542 0.0936427116 0.479918778
      0.761135757 0.228763804 1.58325756 1.46501076 0.0127558457
      0.988004208 0.362523913</_>
    <_>
      0.793419778 0.616577983 0.444626361 0.209977761 0.411415577
      0.794206679 1.06374931 1.56261408 1.43458784 0.0150276264
      0.989260495 0.268129677</_>
    <_>
      0.655299067 0.540307164 0.513124943 0.197909802 0.289642334
      0.671319723 1.25222647 1.58261836 1.56902647 0.0191051401
      0.991763532 0.381769121</_>
    <_>
      0.719327092 0.551496089 0.4616234 0.168767273 0.35183832
      0.721030772 0.878860474 1.47867632 1.50869906 0.0201269221
      0.988476455 0.286868602</_>
    <_>
      0.787613094 0.654287875 0.537480533 0.149608597 0.283777893
      0.790618598 0.895519137 1.69738877 1.51185012 0.0214177612
      0.984951615 0.313609719</_>
    <_>
      0.404479921 0.498216391 0.115385294 0.219264522 0.832953572
      0.502623558 0.239890486 1.22120357 1.07516539 0.0849647671
      0.901683629 0.138444826</_>
    <_>
      0.785346329 0.626137018 0.52974838 0.0671807453 0.315136611
      0.785520792 0.421759784 1.477283 1.49758458 0.00950912852
      0.994217873 0.304548621</_>
    <_>
      0.694211185 0.559166074 0.485103965 0.0912214592 0.359792888
      0.715481639 0.775019467 1.8098321 1.52887928 0.0201797727
      0.991160929 0.381139904</_>
    <_>
      0.672302723 0.464520186 0.432500899 0.205247417 0.382082611
      0.672329545 1.34192121 1.50979185 1.45452821 0.0210986547
      0.987949908 0.315619498</_>
    <_>
      0.755037487 0.651626647 0.549205065 0.0871693864 0.275120288
      0.755217373 0.556295276 1.29559469 1.44414878 0.0209733341
      0.9866817 0.335939229</_>
    <_>
      0.743712962 0.533258677 0.45150888 0.0482564718 0.394441605
      0.743793666 0.377982527 1.77216554 1.55868435 0.0163408872
      0.991359293 0.304879248</_>
    <_>
      0.558292329 0.402606666 0.416978985 0.642995119 0.374358416
      0.560861349 1.45724297 1.69366515 1.58608043 0.0181826558
      0.99206996 0.270969361</_>
    <_>
      0.467750371 0.534965634 0.356299549 0.266282588 0.412638038
      0.539770901 0.54146862 1.30391729 1.46221447 0.0144250477
      0.991014481 0.188894898</_>
    <_>
      0.869062483 0.741790235 0.507251799 0.0686598718 0.378286779
      0.869081438 0.299250841 1.83770812 1.5348798 0.0164586008
      0.988945484 0.442688197</_>
    <_>
      0.678228974 0.704726815 0.418178439 0.163140297 0.435193211
      0.742777824 0.430222899 1.58083582 0.612873197 0.0117536839
      0.958975077 0.270736158</_>
    <_>
      0.679768145 0.617253482 0.59418571 0.0711306185 0.183103785
      0.680242896 0.673717558 1.2635349 1.80469954 0.0183632281
      0.993126154 0.466938764</_>
    <_>
      0.680146992 0.615459621 0.430844456 0.164835662 0.35117203
      0.681456506 0.72643286 1.2656312 1.40327775 0.0104536358
      0.992495954 0.258072972</_>
    <_>
      0.666418076 0.650396407 0.397390753 0.220680535 0.488068342
      0.70777297 0.758707881 1.67068267 1.05237627 0.0158492159
      0.983246863 0.205258116</_>
    <_>
      0.762515783 0.644959986 0.459143817 0.0914717987 0.377925545
      0.772162914 0.328146607 1.66000855 1.62616849 0.0168529786
      0.989774406 0.32523948</_>
    <_>
      0.866233528 0.739096582 0.627525389 0.070145756 0.252494812
      0.866280019 0.503118873 1.58130038 1.47943234 0.0155821592
      0.989787579 0.447373688</_>
    <_>
      0.777850211 0.611511886 0.564315021 0.147060126 0.290167153
      0.785594404 1.10061657 1.52698386 1.49608457 0.0173278339
      0.99093765 0.389084071</_>
    <_>
      0.830703437 0.619747221 0.461838871 0.0789948255 0.405843675
      0.831119716 0.491742134 1.85986423 1.4596957 0.0130108902
      0.991211832 0.509565532</_>
    <_>
      0.555544198 0.600898802 0.185095057 0.187602088 0.743869483
      0.602356076 0.0754728988 1.12787104 1.2317102 0.0238761213
      0.978607059 0.184794158</_>
    <_>
      0.837341905 0.680004716 0.542985082 0.056189768 0.327896386
      0.837368846 0.294367045 1.47098064 1.53836691 0.0191123486
      0.988053977 0.355464429</_>
    <_>
      0.791301966 0.665026844 0.561527789 0.0541440807 0.283559054
      0.791322708 0.249537379 1.49945951 1.49125826 0.0224255286
      0.986005485 0.314865768</_>
    <_>
      0.223496586 0.261327177 0.128474355 0.201661602 0.57414937
      0.261485517 0.252752334 1.49868548 1.29192615 0.0641047433
      0.945526183 0.347474366</_>
    <_>
      0.714466929 0.521453738 0.493841678 0.0450342558 0.353539318
      0.72219944 0.554553449 1.79914737 1.54423785 0.021925848
      0.990722239 0.390606999</_>
    <_>
      0.802518904 0.830725491 0.704212785 0.108528428 0.229624435
      0.831148267 0.439279139 1.57440042 1.18988979 0.0158904549
      0.987026274 0.537092328</_>
    <_>
      0.331992805 0.43192026 0.107134178 0.21953845 0.780666947
      0.433485806 0.327182144 1.6710341 1.54842007 0.063842088
      0.961987734 0.196004629</_>
    <_>
      0.745664835 0.790390611 0.565158427 0.128216684 0.37408033
      0.790598869 0.39335978 1.88828778 1.02585304 0.0132503202
      0.986981213 0.426065236</_>
    <_>
      0.819687009 0.781873822 0.548177838 0.0924502388 0.317333966
      0.819887102 0.442683965 1.68332374 1.65067768 0.0184473097
      0.989986181 0.451046556</_>
    <_>
      0.742567956 0.618581414 0.560681999 0.172721356 0.236843258
      0.745645106 0.917943954 1.58410239 1.35865593 0.0120739909
      0.991805315 0.326071441</_>
    <_>
      0.672300696 0.614298284 0.45406279 0.157243505 0.318812668
      0.673075497 0.812599182 1.39427948 1.32421505 0.0138320792
      0.989141464 0.291996151</_>
    <_>
      0.818734527 0.667600095 0.502761662 0.068968229 0.367214322
      0.828378439 0.34989205 1.72740757 1.51169002 0.017869154
      0.988322318 0.396462858</_>
    <_>
      0.68869561 0.523312747 0.483461112 0.0522987954 0.323557854
      0.688731611 0.590438068 1.53234279 1.55388033 0.0217596889
      0.98927319 0.349632561</_>
    <_>
      0.78518641 0.658554435 0.472914934 0.0758393779 0.383047819
      0.785339057 0.384921461 1.66287148 1.44501841 0.0195295475
      0.986919701 0.330698222</_>
    <_>
      0.793597579 0.642337322 0.46575591 0.0742492005 0.395274758
      0.807247221 0.358129531 1.73596263 1.5267005 0.0144182416
      0.990208924 0.390162587</_>
    <_>
      0.705803335 0.67824465 0.591797411 0.114654861 0.152855903
      0.707653284 0.367314458 0.775318325 1.31089461 0.0140655031
      0.988038838 0.322434932</_>
    <_>
      0.644472301 0.594675839 0.546619415 0.0683594868 0.207287759
      0.645333588 0.379508287 1.28819537 1.88828099 0.0173450503
      0.993690312 0.454275399</_>
    <_>
      0.736694455 0.811026692 0.614694238 0.210610211 0.326130062
      0.819954395 0.680457771 1.68787313 1.09084165 0.0396684818
      0.965613782 0.381954223</_>
    <_>
      0.401263326 0.4600842 0.303373605 0.291369498 0.432916045
      0.467369378 0.790716827 2.08700776 1.28793132 0.0252602492
      0.979897797 0.206777617</_>
    <_>
      0.745773375 0.622935176 0.514479876 0.13302885 0.307721853
      0.746883929 0.762710154 1.61475396 1.42722189 0.0171848983
      0.989518404 0.32387501</_>
    <_>
      0.810844362 0.642088473 0.479527354 0.114582889 0.392622113
      0.811308205 0.596080661 1.86126769 1.47917521 0.0103699556
      0.993692219 0.364142925</_>
    <_>
      0.830682993 0.625415146 0.471424192 0.0637061968 0.39889729
      0.830752909 0.326356262 1.7616092 1.48202884 0.0164153595
      0.989022791 0.323576093</_>
    <_>
      0.439254373 0.520589709 0.381890088 0.3190898 0.434501231
      0.558142602 0.746762455 1.14493167 1.22211635 0.0393806063
      0.961418688 0.170782745</_>
    <_>
      0.679027081 0.551353812 0.524949491 0.0452998765 0.304614186
      0.682827055 0.542657852 1.76295984 1.67427087 0.0214846246
      0.992099285 0.444709331</_>
    <_>
      0.796965659 0.604387403 0.526959598 0.0597042851 0.331057489
      0.797014415 0.542396605 1.52932048 1.48347509 0.0202390291
      0.988291442 0.347491443</_>
    <_>
      0.498126358 0.559484959 0.421338767 0.264512032 0.436006576
      0.59171468 0.630956829 1.64568913 1.39089429 0.0520847999
      0.966735482 0.222425267</_>
    <_>
      0.770216346 0.566377342 0.498816639 0.0411736257 0.333036095
      0.770248413 0.350580007 1.24494147 1.48164797 0.0197501592
      0.98631686 0.29827866</_>
    <_>
      0.68671757 0.627715647 0.55706495 0.0829555541 0.227449656
      0.688470006 0.427883089 1.4974997 1.79128444 0.0182218924
      0.992683768 0.444863111</_>
    <_>
      0.635621667 0.645867825 0.620374143 0.36356315 0.0926173627
      0.668077707 0.873120189 0.612752855 1.31854618 0.0118589848
      0.989965677 0.265016437</_>
    <_>
      0.731327593 0.58159554 0.496316344 0.218951628 0.32325992
      0.733959138 0.963706791 1.4681859 1.53858101 0.022427531
      0.987823367 0.31660834</_>
    <_>
      0.795351088 0.630933166 0.588839531 0.043643374 0.263093352
      0.79543215 0.498797894 1.42663193 1.46661448 0.0174195226
      0.990408063 0.440209538</_>
    <_>
      0.754138529 0.632873595 0.547168314 0.266058683 0.280030608
      0.754581511 1.33998024 1.45196331 1.53584993 0.0160858426
      0.991487265 0.326375961</_>
    <_>
      0.723856986 0.501695216 0.474289179 0.112458371 0.348894715
      0.732193112 1.04354012 1.34463131 1.4670223 0.0197257362
      0.987988353 0.292903334</_>
    <_>
      0.283618212 0.497469217 0.214302123 0.311351478 0.81473732
      0.524012089 0.403388351 1.26528525 1.57375133 0.0405393168
      0.970700204 0.182793081</_>
    <_>
      0.311217695 0.427447468 0.149999768 0.251551419 0.699314833
      0.427631587 0.134584621 1.18672812 1.16214323 0.0405237041
      0.956720352 0.169153154</_>
    <_>
      0.785838068 0.636593878 0.477855921 0.0779947937 0.377668411
      0.793604076 0.417300701 1.65100849 1.57474673 0.0142248562
      0.990805984 0.37617901</_>
    <_>
      0.50827688 0.558324873 0.278104067 0.18517828 0.501283646
      0.559741855 0.249585643 1.12556374 1.33825803 0.0338729173
      0.973228693 0.187384859</_>
    <_>
      0.802816808 0.60757637 0.495495528 0.054525625 0.357674628
      0.803079605 0.334969878 1.62867463 1.50344527 0.014995195
      0.990195274 0.3203125</_>
    <_>
      0.631293714 0.715955138 0.204150483 0.201387227 0.7316553
      0.71718657 0.141490355 0.579528272 1.0004065 0.0177978855
      0.976866663 0.190549523</_>
    <_>
      0.342614472 0.376883715 0.219332814 0.334955305 0.543864191
      0.384474635 0.696228623 1.41606963 1.70808089 0.025357943
      0.98818469 0.352848828</_>
    <_>
      0.272774488 0.271108299 0.227089971 0.22296229 0.2069581
      0.289237261 1.08173645 1.0261724 0.838046193 0.0283728372
      0.936720312 0.234201565</_>
    <_>
      0.183879569 0.248986706 0.106218271 0.23624365 0.67800051
      0.249179274 0.314025611 1.60578775 1.32963014 0.0676841736
      0.945554495 0.344308347</_>
    <_>
      0.848984957 0.707749188 0.580056489 0.0532043874 0.292548746
      0.849019766 0.274242878 1.72978485 1.48332798 0.0137532027
      0.991044164 0.461042851</_>
    <_>
      0.581106126 0.469703346 0.398632199 0.255541265 0.278127342
      0.581106365 1.37375438 1.19269037 1.75690126 0.0104151983
      0.994391739 0.220390737</_>
    <_>
      0.817077279 0.624877453 0.47632575 0.0785967857 0.386286706
      0.817098975 0.628167272 1.82933152 1.4578774 0.0169026274
      0.988503516 0.34014985</_>
    <_>
      0.556730092 0.650942743 0.400544047 0.308534294 0.393036664
      0.656821966 0.693470776 1.25584912 1.09097481 0.00822629686
      0.990022779 0.229054764</_>
    <_>
      0.748157442 0.613883495 0.528448939 0.21380873 0.295610577
      0.748263121 1.28542209 1.42414105 1.52496648 0.015560138
      0.991480649 0.311999142</_>
    <_>
      0.717137694 0.792446673 0.493908197 0.152920827 0.445977062
      0.792952716 0.411702931 1.91749549 0.777828932 0.0098238308
      0.98744601 0.374178261</_>
    <_>
      0.773582876 0.537490129 0.514958024 0.133995339 0.302086294
      0.773613811 1.14574206 1.54338241 1.74021208 0.0165506881
      0.99192667 0.355828136</_>
    <_>
      0.273138314 0.303518295 0.119797297 0.211171791 0.605467975
      0.314262748 0.48277384 1.4187659 1.26686358 0.0441407748
      0.95529443 0.248979107</_>
    <_>
      0.755085528 0.583220541 0.464270324 0.0555227809 0.365253359
      0.755141795 0.336824507 1.64701986 1.56768584 0.030485265
      0.982452035 0.287085146</_>
    <_>
      0.738467276 0.567802429 0.526154459 0.275044054 0.293973923
      0.758657694 1.23372233 1.55178797 1.39659655 0.0114954356
      0.990204751 0.271830589</_>
    <_>
      0.721458495 0.586152375 0.521481097 0.312534004 0.286346585
      0.723574817 1.30727303 1.12155819 1.49282372 0.0109048691
      0.993455827 0.272034705</_>
    <_>
      0.791434467 0.653032124 0.571482956 0.0489924364 0.267152488
      0.791486621 0.361590892 1.32342196 1.52560532 0.0162231736
      0.990338087 0.374179989</_>
    <_>
      0.644196272 0.50564903 0.44761318 0.0406371802 0.326161236
      0.644219816 0.194233656 1.25577009 1.52159822 0.0199375395
      0.988892853 0.278087854</_>
    <_>
      0.746269763 0.615046799 0.532581925 0.0549189076 0.309273094
      0.746321261 0.250537515 1.73060036 1.54987061 0.0177822709
      0.991494119 0.381013632</_>
    <_>
      0.83489573 0.68207556 0.545980811 0.0942148119 0.328666776
      0.835076928 0.693121076 1.63995969 1.49322045 0.0153447306
      0.99035877 0.404206961</_>
    <_>
      0.704823315 0.561404467 0.402540624 0.0671508536 0.44015941
      0.704874694 0.3204045 1.84759188 1.52439678 0.0216387734
      0.988755584 0.307384372</_>
    <_>
      0.620702982 0.449749738 0.381988823 0.250784576 0.35103026
      0.620703936 1.39100373 1.60029519 1.85148311 0.00826113112
      0.996104956 0.253946632</_>
    <_>
      0.866358042 0.723053813 0.570133448 0.0603202283 0.318569064
      0.866398811 0.288654149 1.72968161 1.50984013 0.017454356
      0.989159346 0.4400433</_>
    <_>
      0.841426492 0.655867219 0.507882237 0.0730336979 0.366568029
      0.841442764 0.403315455 1.64756143 1.45565701 0.0219706912
      0.98483336 0.311826825</_>
    <_>
      0.285107404 0.313333303 0.0967697203 0.176954791 0.717700601
      0.314936221 0.360461593 1.61864328 1.63604259 0.0314117558
      0.980854213 0.434368819</_>
    <_>
      0.718064547 0.498529732 0.451416582 0.0412901044 0.388730496
      0.718084753 0.465639591 1.76531744 1.51044202 0.0173738785
      0.990995586 0.312963367</_>
    <_>
      0.769353926 0.71038866 0.63343358 0.14102304 0.176830888
      0.770170152 0.865585506 1.09517312 1.57716274 0.0272609703
      0.984265804 0.356960267</_>
    <_>
      0.800895274 0.568300366 0.420684904 0.0605680235 0.444773853
      0.800922573 0.408170849 1.78881431 1.43690932 0.0154376198
      0.98969543 0.319411129</_>
    <_>
      0.728705227 0.555350423 0.52891916 0.131374344 0.316125661
      0.733656049 1.06533301 1.79221225 1.53418422 0.0183612276
      0.992311597 0.416362584</_>
    <_>
      0.523096025 0.566320658 0.223161682 0.189150527 0.660174668
      0.568106294 0.15331462 1.33172226 1.2156471 0.0326665603
      0.970277071 0.171453401</_>
    <_>
      0.565472305 0.629467964 0.211026207 0.209379986 0.682610631
      0.635500193 0.253361285 1.4642067 0.81092906 0.00889053475
      0.983590484 0.275673002</_>
    <_>
      0.324635386 0.396090001 0.174534425 0.221586242 0.68491751
      0.407796323 0.305742234 1.18024051 1.18923557 0.0488801263
      0.945931911 0.198378995</_>
    <_>
      0.241204053 0.295954019 0.0114830304 0.124196388 0.537478328
      0.296315074 0.43960914 2.48444939 1.67363608 0.00365631003
      0.997492313 0.51501298</_>
    <_>
      0.398159176 0.462764651 0.394287795 0.321187198 0.232412264
      0.467454642 0.581705332 0.76535064 1.30796337 0.0324091129
      0.974327385 0.21000284</_>
    <_>
      0.821483135 0.727810919 0.588342607 0.0542060845 0.286103576
      0.821549773 0.328583688 1.73797786 1.54175317 0.0176133085
      0.9901793 0.487832755</_>
    <_>
      0.844794035 0.671284437 0.564585388 0.0518067516 0.311418235
      0.844824731 0.234754324 1.53058755 1.49600768 0.0175188184
      0.988968849 0.364133447</_>
    <_>
      0.794665575 0.628384411 0.435173452 0.0975458622 0.414910018
      0.796554148 0.254507601 1.43694568 1.51784849 0.0182919595
      0.986959636 0.270814627</_>
    <_>
      0.639786243 0.616618931 0.627519608 0.349536628 0.157510892
      0.690284729 1.22756553 0.930197477 1.33333445 0.0103419283
      0.991252959 0.310873419</_>
    <_>
      0.758470118 0.621320188 0.562581599 0.0576088838 0.23710078
      0.758557737 0.424750507 1.45728469 1.72996199 0.0107202912
      0.995052159 0.349441141</_>
    <_>
      0.759723365 0.578047633 0.386672467 0.0672910213 0.461476773
      0.759741068 0.216444403 1.81543088 1.49820518 0.0162724219
      0.989012122 0.295142025</_>
    <_>
      0.822662175 0.608460367 0.458022118 0.0584094003 0.410690904
      0.822776139 0.339989334 1.7070384 1.45437813 0.0169843044
      0.987957835 0.330336332</_>
    <_>
      0.623359978 0.636619627 0.616074741 0.350045621 0.0891129076
      0.653904319 0.861626863 0.465521872 1.4195646 0.0108420085
      0.992395103 0.254166901</_>
    <_>
      0.693641603 0.625692487 0.573000312 0.0610006116 0.195168152
      0.693690062 0.354960561 1.04486454 1.55951142 0.0316131487
      0.983193457 0.329567552</_>
    <_>
      0.821509719 0.712464571 0.471551269 0.100895293 0.384974837
      0.821517646 0.131982744 1.48850358 1.48134208 0.0104468288
      0.992132843 0.399015307</_>
    <_>
      0.506597817 0.519212127 0.125303477 0.175243363 0.817540586
      0.523385048 0.100469232 1.13995969 1.33108819 0.0269694906
      0.977829874 0.164723605</_>
    <_>
      0.763451815 0.726453066 0.643800855 0.102514483 0.153550014
      0.767885983 0.336629868 0.812471271 1.53995037 0.0190687068
      0.987977684 0.322823375</_>
    <_>
      0.510612071 0.567059219 0.342042834 0.317690283 0.515776753
      0.574267924 0.757455707 1.95306087 1.55510044 0.0254632439
      0.986213088 0.201087445</_>
    <_>
      0.4867661 0.536780596 0.142547727 0.192080542 0.773883998
      0.546988785 0.16250892 1.1729207 1.08790863 0.0152446348
      0.980908275 0.185638234</_>
    <_>
      0.825015247 0.673909962 0.644611061 0.0799846798 0.219421521
      0.825048923 0.832005382 1.40434206 1.51349974 0.014380605
      0.992368102 0.474260569</_>
    <_>
      0.719296992 0.534631848 0.421360344 0.0622419082 0.411306322
      0.719300091 0.167830259 1.43971968 1.49608564 0.0089770183
      0.99423939 0.309569031</_>
    <_>
      0.676839948 0.520293891 0.490983039 0.0546226166 0.357064933
      0.684383154 0.585933089 1.98414457 1.63736236 0.018931374
      0.993126154 0.435476124</_></support_vectors>
  <decision_functions>
    <_>
      <sv_count>72</sv_count>
      <rho>-0.4193794336721558</rho>
      <alpha>
        32.850643567039924 2.7266151330866895 5.4378841126704272
        172.82495678109021 179.18311476146303 29.15634327771393
        5.6926993251856945 312.5 18.391568574806769 56.317236101165257
        5.9189034975603594 240.2142851524313 99.477670009981523
        18.482931914021101 8.0344438148311088 312.5 16.501621861547108
        34.95735056478371 99.707347190643162 312.5 128.27250369175624
        312.5 312.5 312.5 63.062519993066552 142.60508423677325 312.5
        37.32475422131688 312.5 312.5 79.272904921940309
        14.959196162729993 312.5 18.241516827247057 5.0797710495113355
        312.5 48.646942325926538 253.77744264680231 312.5
        -24.514364919147972 -45.238284536320826 -285.82990265977577
        -124.32546943337914 -136.93770057479631 -3.1287617327606627
        -41.162143775272057 -312.5 -312.5 -312.5 -312.5
        -13.435662973542703 -112.58628246793241 -312.5 -312.5
        -227.50643302630598 -312.5 -312.5 -21.750019180859656 -312.5
        -312.5 -267.2509395121449 -0.43429905407727309
        -93.437299982955068 -3.1687106433968717 -267.3330704175022
        -38.628759820707245 -203.09171232476052 -29.015185622797929
        -155.48417158190193 -312.5 -25.198236010538988
        -10.160841466215544</alpha>
      <index>
        0 85 153 200 204 38 6 198 46 47 8 12 13 259 161 186 56 253 102
        60 246 64 66 236 167 229 28 162 71 160 227 226 75 77 155 33 203
        220 205 89 5 94 197 11 178 22 103 105 172 25 108 159 114 158 117
        154 39 37 53 67 136 41 249 142 76 78 261 222 124 206 86 239</index></_>
    <_>
      <sv_count>12</sv_count>
      <rho>2.6803334091546778</rho>
      <alpha>
        44.373853897275481 17.732919697299035 8.6081226946979861
        19.813323841057553 1.1984964161373619 1.5893859645760096
        -2.0234459528893884 -4.3116773848142467 -8.2228902477885235
        -53.861937270145098 -5.855549511476549 -19.04060214392959</alpha>
      <index>
        52 46 254 231 118 122 214 219 21 73 169 179</index></_>
    <_>
      <sv_count>85</sv_count>
      <rho>7.2628442029307294</rho>
      <alpha>
        235.33029264489977 282.80885226672785 41.199697281799565
        159.70204362479365 63.453565387176361 278.70195643412677
        181.90398030786284 13.490326991937893 312.5 9.1867310831904341
        22.620247747179398 215.71756967255135 83.975548476537782
        82.093967063840381 69.593049604625548 158.8131336693589
        104.19758180447712 169.89498857952833 312.5 46.669005330208066
        312.5 150.70959646069647 101.62113388313948 25.537243920952172
        23.603714764222921 312.5 6.7661861625721444 201.70389171827608
        62.681848537480285 57.062226596259521 18.118018970919991
        19.890825004917492 67.977555132144829 264.71533411861765 312.5
        22.766909313689872 224.44638896887392 49.933091338137629
        -97.125106257936281 -27.167446158502202 -235.50226131448312
        -8.1818046515644607 -39.125164896667805 -312.5
        -17.125944351069492 -8.2506213662876107 -201.44276929027171
        -4.5751597117133489 -93.555934370626616 -3.1627505265541345
        -43.818918749334401 -171.08218671381977 -5.9583362225972989
        -164.82904913541236 -217.5782944757068 -24.13693240966273
        -163.79060941464826 -4.5783208642474733 -108.67591290324006
        -245.21996457731942 -4.5747795035306611 -152.52710547040613
        -19.019815135003043 -312.5 -243.12833852566072
        -98.358358619655021 -6.6325111032941244 -24.874656829292267
        -113.96664428285095 -312.5 -312.5 -171.53335060243313
        -13.335902273254378 -90.660047265711285 -312.5
        -70.249169433212145 -95.645525142203297 -212.23394584330586
        -131.63527246421916 -47.723260382126981 -14.087276991837296
        -43.19794132824407 -10.33573382847775 -66.929069059077932
        -1.3543104162610597</alpha>
      <index>
        65 0 85 153 200 52 38 44 46 47 95 12 13 260 259 254 187 184 253
        102 246 245 66 236 175 233 168 167 231 229 228 27 162 226 155
        118 203 122 2 189 61 247 9 62 93 63 18 141 19 104 176 237 127 87
        26 232 68 30 101 31 32 107 29 74 225 224 193 49 201 144 139 126
        90 217 91 190 216 149 128 121 248 59 58 54 256</index></_>
    <_>
      <sv_count>37</sv_count>
      <rho>-10.050705975214841</rho>
      <alpha>
        144.35876384409755 241.76386952096857 287.28940977392244 312.5
        312.5 6.5785350074669804 31.315157834214627 67.694219333269814
        312.5 312.5 8.4866009976254198 105.79012659001158 312.5
        125.14029321407372 238.1666299334988 266.8496520991859 312.5
        312.5 -312.5 -23.266683011287814 -86.605981839380263
        -71.993538684951019 -312.5 -7.4080110469923897 -312.5
        -54.628604175481065 -284.93367433781901 -312.5
        -138.98922521922003 -203.24718293060397 -312.5
        -205.41543319374406 -312.5 -312.5 -312.5 -111.1772905706549
        -23.2676331382009</alpha>
      <index>
        0 153 198 46 95 10 13 254 55 187 182 102 66 175 233 110 162 80
        34 143 146 152 111 165 134 170 100 185 188 137 209 138 140 230 4
        250 16</index></_>
    <_>
      <sv_count>10</sv_count>
      <rho>0.9118728756877339</rho>
      <alpha>
        38.927490269397659 21.493360648509505 2.3396679392139794
        -8.2103152305961746 -13.666343434071344 -2.752974149796835
        -9.6158551084644177 -23.30587300332866 -2.5335776819174756
        -2.675580248946229</alpha>
      <index>
        52 231 118 45 199 88 164 23 244 113</index></_>
    <_>
      <sv_count>10</sv_count>
      <rho>0.27933537125000335</rho>
      <alpha>
        10.036144162296996 6.1924028709888113 12.238922058361922
        0.79619502342211668 5.5516526035712426 11.512469228773845
        -0.99520332246925791 -1.8792613769078697 -26.374479723923297
        -17.078841524114534</alpha>
      <index>
        105 163 159 114 158 39 214 21 73 179</index></_>
    <_>
      <sv_count>31</sv_count>
      <rho>7.1894243139983338</rho>
      <alpha>
        297.82128763974748 312.5 312.5 77.68286388805079
        280.52072862904527 34.93448638079952 312.5 115.38745432241129
        116.0002056835237 102.83302792685801 312.5 28.173525064626475
        29.729899401347843 29.096164021311303 -272.57669336902251
        -31.575792750649114 -312.5 -157.55067242742945
        -27.077577755182055 -23.755139134665065 -49.192501760435889
        -214.57198938471336 -289.50711002564509 -80.744965528235241
        -53.019156108015814 -312.5 -54.580527565211291 -312.5
        -1.7293362058245285 -19.453418420657304 -149.3447625220347</alpha>
      <index>
        103 105 25 163 159 114 158 67 70 249 78 261 124 206 2 183 62 141
        26 232 31 29 171 225 201 144 128 211 121 116 58</index></_>
    <_>
      <sv_count>17</sv_count>
      <rho>-0.094713347297418593</rho>
      <alpha>
        4.8481259980991531 3.8929927640185782 153.76819761443522
        2.5841037386870425 82.032212585253021 312.5 119.35182372595088
        8.1577768929317074 -172.11205843205474 -40.751024355346189
        -25.337565959645669 -30.990068232514467 -312.5
        -84.528680386665741 -3.4670175308486231 -15.695676154919235
        -1.7531422673807073</alpha>
      <index>
        89 94 103 25 159 158 119 84 34 36 48 143 111 100 97 137 4</index></_>
    <_>
      <sv_count>10</sv_count>
      <rho>-0.19117840729346819</rho>
      <alpha>
        3.9760540446893256 6.9864553058199004 12.550857536347593
        0.58884356951979377 5.9723901003323725 -4.7387735274369289
        -2.5546252406970491 -7.0226472858213542 -15.415939330790948
        -0.34261517196270197</alpha>
      <index>
        103 163 159 158 261 45 88 23 113 150</index></_>
    <_>
      <sv_count>14</sv_count>
      <rho>-0.58325427500234162</rho>
      <alpha>
        1.5162162320911681 0.26964150824515143 13.685016292357835
        42.663657092907584 4.1069864321734677 22.460816610391536
        -8.3876205135767741 -8.1898446952165376 -8.2246159605651439
        -6.2155245621308097 -15.521295735993665 -10.919937677451232
        -14.153965392445651 -13.089529630786965</alpha>
      <index>
        214 243 21 73 169 179 1 189 104 109 30 83 91 99</index></_>
    <_>
      <sv_count>9</sv_count>
      <rho>-1.7022933316329956</rho>
      <alpha>
        5.3611052976568594 18.606315818557388 4.752478318516058
        12.534756016358751 -4.6658979378993504 -13.712920728102652
        -8.82246008495909 -1.3980925489532781 -12.655284151174691</alpha>
      <index>
        21 73 169 179 146 111 137 4 16</index></_>
    <_>
      <sv_count>64</sv_count>
      <rho>-3.3658917023271635</rho>
      <alpha>
        85.727273767149526 278.86914731337077 66.345470847404471
        208.91897758740166 60.783573861364729 60.449355457000422
        33.439064646793447 312.5 56.75826059579024 136.75794226927488
        131.08400604277128 312.5 72.828529730937262 312.5 312.5 312.5
        273.75494711092051 66.539936964402415 18.030797702658155
        33.380645425342138 36.650746454651767 202.1852690501903
        2.667002920390853 -1.9562584647097601 -8.136432946332544
        -8.0825678895149817 -312.5 -100.45552624115336
        -33.995960854422108 -11.312987142782825 -60.657136256608766
        -7.484617090715437 -24.522646715362509 -4.8753344629686088
        -174.17812473245584 -36.42405549334444 -4.7507434806956201
        -4.3260832529751223 -115.40048236944196 -51.868552792156116
        -36.024578771532632 -189.5132444956501 -28.580832722075392
        -21.882413155659819 -230.69179132152192 -277.93422298013866
        -6.83598691166201 -248.26258667428885 -7.3243993855916596
        -16.743116729729991 -60.108558375407767 -220.94546357070018
        -223.2975388548696 -12.960004222352204 -29.62003047229603
        -16.909208138738585 -312.5 -31.363369131714464 -312.5
        -17.691591678584263 -3.7667775198014244 -42.092282947497708
        -13.373542197152831 -65.821897305209021</alpha>
      <index>
        181 3 191 208 212 213 214 40 219 221 235 257 20 21 73 79 81 120
        125 129 145 157 166 131 96 215 147 132 192 177 174 223 43 42 82
        72 92 199 98 69 106 88 164 24 130 23 240 241 242 244 14 7 113
        207 180 123 210 151 255 258 51 50 150 196</index></_>
    <_>
      <sv_count>52</sv_count>
      <rho>-8.4802061717459285</rho>
      <alpha>
        312.5 170.96512256288869 312.5 312.5 43.482269807646993
        176.03147365814243 1.054715082537798 312.5 312.5
        252.60049114027393 161.64698051098588 46.199607854433779 312.5
        94.375894230887383 312.5 312.5 312.5 3.6455172781529623
        15.773326252275805 137.17442914625096 312.5 312.5 312.5
        89.174927262161304 28.31714432634519 0.88570132371563526 -312.5
        -247.57463346379546 -141.51301039577118 -277.3487766982671
        -12.758551053166043 -66.363789490336529 -5.0145826370177708
        -312.5 -37.228250929375356 -312.5 -40.361084556695445
        -57.932638589688281 -312.5 -312.5 -312.5 -165.73857187278773
        -131.32191638740375 -312.5 -312.5 -29.220439991170704 -312.5
        -180.16852624456621 -312.5 -125.63058429942564
        -298.78341979982656 -29.368824027404607</alpha>
      <index>
        2 61 247 93 63 112 17 18 234 87 26 30 107 29 194 224 49 201 126
        91 149 211 121 156 116 58 34 35 143 146 148 152 115 111 165 134
        173 135 100 185 195 137 218 140 230 238 4 250 251 15 16 57</index></_>
    <_>
      <sv_count>15</sv_count>
      <rho>0.13071799116242741</rho>
      <alpha>
        10.420541762155757 0.00800475611424337 8.6331001363426498
        10.921766237832866 3.7469351042064543 27.424187685341202
        0.5324275012184424 -10.334981966922085 -1.4696544060046794
        -1.5313049387391744 -8.9295411001133793 -22.860642561423035
        -1.7551421773112865 -4.3165640020865084 -10.489132030611493</alpha>
      <index>
        1 189 109 83 202 91 252 45 88 164 130 23 244 113 150</index></_>
    <_>
      <sv_count>7</sv_count>
      <rho>0.36736793572311494</rho>
      <alpha>
        6.0230006682168353 4.3879664085486976 0.53412578394025401
        35.425109492792998 -0.29949734965327812 -19.58259806863143
        -26.488106935214077</alpha>
      <index>
        133 137 250 16 88 23 150</index></_></decision_functions></opencv_ml_svm>
</opencv_storage>
