<?xml version="1.0"?>
<opencv_storage>
<opencv_ml_svm>
  <format>3</format>
  <svmType>C_SVC</svmType>
  <kernel>
    <type>RBF</type>
    <gamma>0.50625000000000009</gamma></kernel>
  <C>62.5</C>
  <term_criteria><epsilon>1.1920928955078125e-07</epsilon>
    <iterations>1000</iterations></term_criteria>
  <var_count>12</var_count>
  <class_count>6</class_count>
  <class_labels type_id="opencv-matrix">
    <rows>6</rows>
    <cols>1</cols>
    <dt>i</dt>
    <data>
      0 1 2 3 4 5</data></class_labels>
  <sv_total>205</sv_total>
  <support_vectors>
    <_>
      0.835148811 0.66038835 0.582174361 0.0891614854 0.293056041
      0.83528167 0.78751415 1.60390389 1.50438297 0.800769031
      0.541181386 0.132475629</_>
    <_>
      0.668566704 0.572659791 0.535284221 0.0558603704 0.257457912
      0.668684185 0.393208385 1.52300262 1.60723197 0.903511405
      0.624480546 0.0721770674</_>
    <_>
      0.800905526 0.631871164 0.476980954 0.0717675984 0.385092795
      0.810658336 0.340932339 1.65726972 1.56330061 0.739350915
      0.580903351 0.0716834068</_>
    <_>
      0.703576028 0.433502942 0.390943259 0.0240532216 0.44813925
      0.703590274 0.182426304 1.78264081 1.47022855 0.816254795
      0.610266328 0.0568076819</_>
    <_>
      0.703976572 0.543058813 0.484178841 0.0501230098 0.303238243
      0.71648699 0.428549826 1.44917822 1.66488481 0.830504179
      0.552463174 0.0817769766</_>
    <_>
      0.784243941 0.671046317 0.50714916 0.0717978254 0.354274213
      0.784386039 0.374263197 1.73713398 1.51274228 0.78739804
      0.556768179 0.112175949</_>
    <_>
      0.778215766 0.656270325 0.422974259 0.0800671652 0.438585043
      0.778265476 0.299989998 1.63812482 1.64584625 0.818253696
      0.629533648 0.0553380251</_>
    <_>
      0.757991374 0.617542267 0.53469789 0.141137972 0.288517445
      0.758268178 1.02213275 1.50610554 1.50746202 0.780047357
      0.649252117 0.0386962071</_>
    <_>
      0.672032893 0.480116487 0.420063168 0.0537153669 0.402127087
      0.672105849 0.523713648 1.68651581 1.53916025 0.836917639
      0.617888868 0.0600043237</_>
    <_>
      0.764871418 0.594485044 0.57313782 0.113621496 0.268637061
      0.766767621 1.05062902 1.49283755 1.52369332 0.859930873
      0.542271256 0.135547787</_>
    <_>
      0.83022052 0.6765185 0.608638227 0.17056638 0.261882395
      0.830613077 1.13161528 1.58513153 1.51750112 0.810845613
      0.616424561 0.05738087</_>
    <_>
      0.805141926 0.652139008 0.49806571 0.0672241524 0.357061267
      0.805178463 0.287029594 1.69229698 1.51228309 0.756001532
      0.630971134 0.0394140333</_>
    <_>
      0.765386403 0.538998246 0.490113705 0.0532103665 0.353908271
      0.765511215 0.560972333 1.59396493 1.43624711 0.779756248
      0.597889423 0.0637128204</_>
    <_>
      0.755085528 0.583220541 0.464270324 0.0555227809 0.365253359
      0.755141795 0.336824507 1.64701986 1.56768584 0.784298301
      0.633531749 0.0533488393</_>
    <_>
      0.810844362 0.642088473 0.479527354 0.114582889 0.392622113
      0.811308205 0.596080661 1.86126769 1.47917521 0.756876349
      0.665707469 0.0230338611</_>
    <_>
      0.623508453 0.625658333 0.421864837 0.143273234 0.418899029
      0.627798617 0.287490517 1.25275493 1.38166499 0.702262163
      0.691149652 0.0341756791</_>
    <_>
      0.832928419 0.741881669 0.53513515 0.196526006 0.339562386
      0.834540665 0.848627031 1.73834538 1.51758265 0.755328357
      0.647842288 0.0246323049</_>
    <_>
      0.795432389 0.548167884 0.430215597 0.197353423 0.436398387
      0.795799315 1.09738779 1.70257175 1.46248937 0.719115496
      0.617195427 0.0456598885</_>
    <_>
      0.707829297 0.452454805 0.387384325 0.0356750898 0.457207024
      0.707858562 0.321781337 1.69791508 1.48752773 0.768377721
      0.636697829 0.0392158628</_>
    <_>
      0.828770041 0.704709411 0.592306852 0.106630325 0.27795431
      0.828836381 0.83027488 1.81955922 1.48285449 0.783902287
      0.586573899 0.0761720091</_>
    <_>
      0.789889693 0.646064997 0.547576308 0.0573869981 0.295598626
      0.789965928 0.394973397 1.39785826 1.5104214 0.764138639
      0.576923728 0.0890584663</_>
    <_>
      0.800480604 0.619532645 0.50710547 0.11047291 0.339125663
      0.80062288 0.744699776 1.70950055 1.42949724 0.707503021
      0.677966237 0.0176408291</_>
    <_>
      0.82226193 0.569261849 0.545270205 0.148114741 0.323602259
      0.822296858 1.19783843 1.54091966 1.4738977 0.782356501
      0.602798223 0.067028515</_>
    <_>
      0.614231765 0.617025971 0.41734302 0.143998906 0.421162367
      0.618890285 0.289581329 1.2600342 1.42550623 0.722072005
      0.695580959 0.0331261344</_>
    <_>
      0.759753108 0.627658188 0.490225166 0.0636660084 0.372034371
      0.759846509 0.357048988 1.84587276 1.54562616 0.830777109
      0.564221144 0.114814088</_>
    <_>
      0.599035919 0.432291508 0.425422668 0.197182134 0.344469666
      0.599158227 1.3426913 1.59682453 1.58732259 0.857973456
      0.657567859 0.0427804366</_>
    <_>
      0.69170779 0.461798787 0.410278946 0.0677374527 0.438897818
      0.691741407 0.61437887 1.8744036 1.61753428 0.876819789
      0.677101254 0.0320761465</_>
    <_>
      0.786837518 0.617044866 0.561749756 0.0553575866 0.281806618
      0.786932528 0.396555662 1.51375461 1.48760724 0.789151371
      0.659050465 0.0451959707</_>
    <_>
      0.620702982 0.449749738 0.381988823 0.250784576 0.35103026
      0.620703936 1.39100373 1.60029519 1.85148311 0.834666073
      0.732772052 0.0146827251</_>
    <_>
      0.754960895 0.546473563 0.447216302 0.0748984665 0.387774885
      0.75573355 0.450709671 1.67910182 1.49532413 0.750571072
      0.645995259 0.0354438573</_>
    <_>
      0.581106126 0.469703346 0.398632199 0.255541265 0.278127342
      0.581106365 1.37375438 1.19269037 1.75690126 0.782427013
      0.736790955 0.0145766456</_>
    <_>
      0.81871742 0.755397797 0.587414026 0.0798082948 0.278913349
      0.818793952 0.419866383 1.49914479 1.47790408 0.750081062
      0.498858452 0.140152067</_>
    <_>
      0.681811452 0.55876708 0.490126044 0.199762061 0.31802097
      0.696356356 0.94142431 1.26796031 1.38694739 0.688815713
      0.708471477 0.0150099527</_>
    <_>
      0.573540568 0.374562651 0.349701375 0.0793534517 0.496026456
      0.577116132 0.824654937 2.11165047 1.6642909 0.957834184
      0.588858306 0.0676924437</_>
    <_>
      0.803495944 0.871224284 0.662170053 0.137788206 0.346598715
      0.884301305 0.556752741 2.04533195 0.706658363 0.519726753
      0.518776119 0.150439113</_>
    <_>
      0.757717907 0.56411618 0.508694649 0.145244732 0.338149935
      0.766732395 1.08219194 1.51792562 1.47072721 0.789512694
      0.625533938 0.0583732203</_>
    <_>
      0.774564683 0.597292304 0.568149924 0.0941242352 0.280131191
      0.776222587 0.829654932 1.52292097 1.4890604 0.837514937
      0.556948602 0.107350923</_>
    <_>
      0.692011595 0.564522207 0.446697742 0.0959119424 0.383247286
      0.692488372 0.308214128 1.72374117 1.60991347 0.848576725
      0.700358689 0.0213780403</_>
    <_>
      0.792958796 0.638156295 0.584730923 0.0474508628 0.266188025
      0.798879087 0.306508243 1.55166113 1.52441978 0.822374225
      0.553524017 0.115739375</_>
    <_>
      0.761145175 0.60427922 0.4514741 0.0838354528 0.406811863
      0.786218226 0.356717229 1.80886376 1.53154886 0.772402227
      0.599955082 0.066133976</_>
    <_>
      0.804441452 0.624661028 0.614426255 0.176079094 0.250396341
      0.805141985 1.24789321 1.60799956 1.52250516 0.876553416
      0.509976864 0.155417711</_>
    <_>
      0.790302396 0.701290071 0.646228194 0.148443699 0.173604518
      0.796015441 0.807129681 1.33059382 1.44109762 0.7254076
      0.593467951 0.0632550195</_>
    <_>
      0.818734527 0.667600095 0.502761662 0.068968229 0.367214322
      0.828378439 0.34989205 1.72740757 1.51169002 0.744457006
      0.530483127 0.104454927</_>
    <_>
      0.722307742 0.598933578 0.508188486 0.0664196461 0.280205429
      0.722586155 0.321708709 1.50868666 1.66022742 0.799055457
      0.563330293 0.0968952775</_>
    <_>
      0.615712047 0.515459359 0.421452343 0.110336944 0.281120956
      0.624282002 0.308542937 1.40450287 1.4634558 0.667764843
      0.719415784 0.0160588175</_>
    <_>
      0.846551716 0.746503115 0.611033618 0.154255688 0.264487982
      0.846596003 1.00310218 1.455773 1.49997592 0.752818227 0.580000997
      0.0749652013</_>
    <_>
      0.661820114 0.553593755 0.547876835 0.282381117 0.199110031
      0.661859989 1.55425453 0.998614967 1.52855968 0.81183821
      0.645696819 0.0525864661</_>
    <_>
      0.775901973 0.609182358 0.436351508 0.0755158514 0.422787696
      0.793997109 0.317302912 1.72032714 1.49725091 0.721642137
      0.589507222 0.0592671968</_>
    <_>
      0.771488488 0.570987284 0.514572918 0.0394443795 0.339123547
      0.771536887 0.393104047 1.62044024 1.46975565 0.82494688
      0.582909465 0.0833101943</_>
    <_>
      0.796760321 0.611206174 0.426957041 0.0700361431 0.430437326
      0.796855748 0.39098528 1.82487226 1.44751596 0.703633308
      0.610386252 0.0462416112</_>
    <_>
      0.59803021 0.600087643 0.401759058 0.144031018 0.429935813
      0.602219462 0.279730052 1.24615407 1.37295604 0.70064348
      0.696473956 0.0300999712</_>
    <_>
      0.537334025 0.56972456 0.465204298 0.376832545 0.395827711
      0.600118279 0.810361028 1.98102641 1.57582998 0.738405466
      0.690986812 0.0179473571</_>
    <_>
      0.802816808 0.60757637 0.495495528 0.054525625 0.357674628
      0.803079605 0.334969878 1.62867463 1.50344527 0.738119066
      0.613838077 0.0575164407</_>
    <_>
      0.398159176 0.462764651 0.394287795 0.321187198 0.232412264
      0.467454642 0.581705332 0.76535064 1.30796337 0.643961966
      0.738613725 0.0118458634</_>
    <_>
      0.779558778 0.496902674 0.439748794 0.0747205392 0.416459709
      0.779588103 0.776551604 1.54872084 1.41876125 0.748922884
      0.631470203 0.0452879295</_>
    <_>
      0.826754987 0.671599746 0.625266492 0.0484559909 0.244099751
      0.826895356 0.48232013 1.54700518 1.48646879 0.822407424
      0.50304234 0.161718801</_>
    <_>
      0.73844707 0.544205368 0.498083293 0.0463413224 0.351712316
      0.742841363 0.520098805 1.77744234 1.46877718 0.872822642
      0.554176152 0.107377611</_>
    <_>
      0.800680399 0.63450104 0.57704556 0.0309309009 0.28514725
      0.800722182 0.262445658 1.62787807 1.54021645 0.846987426
      0.505859375 0.166496485</_>
    <_>
      0.733406663 0.548037648 0.439111263 0.148577347 0.376055807
      0.733698487 0.978052855 1.48467159 1.50139463 0.716185987
      0.676965415 0.0224981885</_>
    <_>
      0.831919491 0.737371743 0.604486108 0.0575262867 0.270367593
      0.832008839 0.348327219 1.64241374 1.50882339 0.78416276
      0.463963658 0.20195505</_>
    <_>
      0.766315758 0.674206495 0.633275867 0.0327344425 0.186235666
      0.766317248 0.156192288 1.12479544 1.51676595 0.809413075
      0.560571909 0.117907695</_>
    <_>
      0.670477808 0.491918027 0.437180728 0.0393524803 0.353879213
      0.670497835 0.218149349 1.3246882 1.43939519 0.743600011
      0.67932415 0.0263077412</_>
    <_>
      0.528067172 0.350958914 0.157229841 0.119800411 0.541991889
      0.528712749 0.701211751 1.63331938 2.04978967 0.754212439
      0.588729024 0.0398234241</_>
    <_>
      0.773582876 0.537490129 0.514958024 0.133995339 0.302086294
      0.773613811 1.14574206 1.54338241 1.74021208 0.853173256
      0.584301591 0.0741278455</_>
    <_>
      0.596573651 0.608539104 0.434079796 0.220176652 0.325449467
      0.613295496 0.785378218 1.47235703 1.42842841 0.719015002
      0.694860995 0.0180420745</_>
    <_>
      0.772926807 0.617275119 0.572182238 0.0744362101 0.273850858
      0.773864329 0.745871365 1.52690434 1.48442793 0.832500458
      0.57200104 0.0980244949</_>
    <_>
      0.820353925 0.634467721 0.440712839 0.101985566 0.429360896
      0.82062304 0.550790489 1.83569586 1.49897754 0.73097688 0.65493989
      0.024049215</_>
    <_>
      0.850247025 0.65919894 0.408959359 0.0753701404 0.472223192
      0.850265861 0.300410956 1.69245529 1.47264373 0.678532243
      0.61299789 0.0382452719</_>
    <_>
      0.705803335 0.67824465 0.591797411 0.114654861 0.152855903
      0.707653284 0.367314458 0.775318325 1.31089461 0.631135702
      0.622823119 0.0249413364</_>
    <_>
      0.769509435 0.606413662 0.538874686 0.0756735206 0.316276431
      0.769653082 0.696769416 1.68258262 1.50664628 0.839293718
      0.553225636 0.118417434</_>
    <_>
      0.7812078 0.585556984 0.458081812 0.212001756 0.366433769
      0.783886373 1.07100725 1.86658537 1.38006473 0.627586007
      0.63342303 0.02070936</_>
    <_>
      0.811781049 0.632522941 0.597647429 0.0789465532 0.260388464
      0.811820269 0.810204685 1.43725169 1.50044727 0.80255425
      0.572144687 0.0993930474</_>
    <_>
      0.744649529 0.587093353 0.417123497 0.0934400931 0.430775911
      0.7656582 0.439436048 1.69907868 1.53854096 0.709568083
      0.646425128 0.0307291616</_>
    <_>
      0.800366402 0.627921581 0.550251842 0.0724944845 0.317708164
      0.800534964 0.660600066 1.73188949 1.4769578 0.818561375
      0.548267007 0.119738683</_>
    <_>
      0.764748931 0.519942105 0.376870513 0.0820824057 0.483719975
      0.773428798 0.576250196 1.83127296 1.5354476 0.732059956
      0.661543787 0.0334469825</_>
    <_>
      0.671505272 0.535212755 0.488875329 0.0663092583 0.295413166
      0.671553671 0.660046518 1.44401765 1.52071774 0.822107196
      0.619203389 0.0592144802</_>
    <_>
      0.770771503 0.637585044 0.557254612 0.0629875064 0.286343843
      0.770836353 0.533127069 1.56082416 1.49799788 0.811265528
      0.583487809 0.0891940296</_>
    <_>
      0.637557149 0.475820243 0.442854881 0.0965861306 0.356420785
      0.637582839 0.893417358 1.55452228 1.61649728 0.867403209
      0.633199394 0.0582430102</_>
    <_>
      0.797402263 0.634098768 0.561307311 0.0662770346 0.297248036
      0.797538638 0.601881802 1.67655778 1.5988723 0.847980797
      0.544691861 0.134838432</_>
    <_>
      0.794665575 0.628384411 0.435173452 0.0975458622 0.414910018
      0.796554148 0.254507601 1.43694568 1.51784849 0.691337585
      0.684494972 0.0176528655</_>
    <_>
      0.700451136 0.378655672 0.403996199 0.679085732 0.417134345
      0.700496972 1.6049403 1.60054946 1.61031139 0.749559939
      0.655334294 0.0323234163</_>
    <_>
      0.367248684 0.403490156 0.369760484 0.341327071 0.409666836
      0.466481119 0.80993557 1.23407304 1.53211498 0.619654238
      0.707910657 0.0141017381</_>
    <_>
      0.453644753 0.508570611 0.342260957 0.249800593 0.502332807
      0.532604754 0.606898427 1.63990521 1.58522725 0.720285118
      0.742908597 0.0129019227</_>
    <_>
      0.700876236 0.543782413 0.469018459 0.0487845019 0.327517033
      0.700939357 0.25508818 1.21780932 1.38597059 0.708133698
      0.609031975 0.0460445471</_>
    <_>
      0.662179649 0.557533085 0.535266042 0.322458714 0.265854537
      0.684797406 1.17623818 1.59506881 1.31876159 0.728072286
      0.719284892 0.0149817076</_>
    <_>
      0.563788712 0.433953494 0.468621582 0.5938223 0.297361284
      0.563817084 1.64678597 1.34853911 1.59735096 0.888442218
      0.579807639 0.0741478354</_>
    <_>
      0.564192295 0.428184152 0.346866012 0.160949677 0.423987806
      0.581597149 0.803759277 1.40737319 1.55267251 0.717621446
      0.697580218 0.0196918696</_>
    <_>
      0.77341789 0.544399023 0.302789778 0.0727917701 0.560081065
      0.773444712 0.182335526 1.62131763 1.40008366 0.628362298
      0.672772765 0.0185409039</_>
    <_>
      0.745627165 0.606127083 0.482904792 0.124934785 0.359230816
      0.746223748 0.672252119 1.88899112 1.49024189 0.788291812
      0.688139617 0.0170770101</_>
    <_>
      0.851266265 0.645537734 0.617155552 0.215918079 0.264941275
      0.851405084 1.36208057 1.45207024 1.49057174 0.784081459
      0.543506503 0.0988539457</_>
    <_>
      0.830168724 0.711441457 0.51438719 0.0741910711 0.364317596
      0.830303371 0.355363607 1.74344659 1.53182864 0.767625749
      0.550578237 0.108997181</_>
    <_>
      0.71463865 0.522493601 0.494985342 0.0454639681 0.351918727
      0.722339809 0.558138132 1.79857659 1.54623044 0.912294686
      0.551404655 0.114603192</_>
    <_>
      0.82038933 0.654987216 0.534614086 0.0538260862 0.33634463
      0.820481479 0.429444939 1.87996972 1.54426873 0.815589607
      0.526526332 0.129419133</_>
    <_>
      0.818205535 0.603370249 0.421064585 0.0611042455 0.452374697
      0.818536878 0.234506652 1.6174655 1.43901193 0.688958168
      0.583215833 0.0510216691</_>
    <_>
      0.686182976 0.553591847 0.357488453 0.217088073 0.483266056
      0.708124161 0.855678797 1.63541174 1.51014352 0.668836296
      0.699740529 0.0167878643</_>
    <_>
      0.635513484 0.608031511 0.574909091 0.223148957 0.207807973
      0.677072644 0.908997953 0.952624381 1.27522326 0.623663068
      0.667102039 0.018576242</_>
    <_>
      0.525413752 0.35483858 0.239537373 0.096168153 0.492132336
      0.529177129 0.405932575 1.59579754 1.66203272 0.663270473
      0.749199569 0.0132773668</_>
    <_>
      0.770216346 0.566377342 0.498816639 0.0411736257 0.333036095
      0.770248413 0.350580007 1.24494147 1.48164797 0.717667639
      0.618637383 0.0481541976</_>
    <_>
      0.815989137 0.748775661 0.643276632 0.0722366124 0.213631704
      0.816022992 0.302830577 1.48292863 1.48960197 0.776179254
      0.56209141 0.100876808</_>
    <_>
      0.748627007 0.562982857 0.501192331 0.0430241115 0.355519325
      0.748672545 0.310652643 1.88708508 1.62417531 0.906181455
      0.60526979 0.0887040496</_>
    <_>
      0.793567657 0.506628215 0.44860515 0.0322371908 0.415352941
      0.793587387 0.316485256 1.70403206 1.43818152 0.777706623
      0.632888734 0.0474836677</_>
    <_>
      0.827886939 0.727521241 0.589329064 0.0728074983 0.283189535
      0.828128576 0.453569084 1.64955628 1.51360762 0.783029318
      0.490373045 0.163228109</_>
    <_>
      0.809289575 0.696993709 0.627650023 0.0638419464 0.223598972
      0.809477329 0.390277117 1.42773616 1.50809538 0.791225255
      0.599379182 0.085780859</_>
    <_>
      0.84959203 0.711321175 0.52889967 0.0715015382 0.347690314
      0.849618137 0.441999435 1.75450015 1.52037752 0.742821932
      0.563884616 0.0822648257</_>
    <_>
      0.778196335 0.731247783 0.666147768 0.166533917 0.15543592
      0.78500843 0.959382534 1.24304712 1.44920361 0.738593042
      0.589049459 0.072005257</_>
    <_>
      0.805394888 0.703864455 0.501247764 0.0776357204 0.359565556
      0.805512726 0.342079103 1.65641403 1.47297144 0.730833232
      0.567047894 0.0809109062</_>
    <_>
      0.647259355 0.53702116 0.465508789 0.193686888 0.320893049
      0.649586558 0.879337788 1.48330879 1.50349748 0.812961936
      0.670429528 0.0287250858</_>
    <_>
      0.757665813 0.596738636 0.537853479 0.0504768752 0.303254902
      0.770174563 0.431300819 1.44911432 1.44595766 0.782064378
      0.547041118 0.0959803686</_>
    <_>
      0.816445351 0.595883012 0.442967415 0.0558622554 0.431540966
      0.816490114 0.285524219 1.73818409 1.4465661 0.738904178
      0.604052663 0.0622809678</_>
    <_>
      0.805184245 0.61434263 0.508796394 0.179341048 0.345644981
      0.81189549 0.841949582 1.46263397 1.42340934 0.67348367
      0.697033584 0.0154091287</_>
    <_>
      0.74225527 0.585040987 0.53628546 0.148830563 0.305155486
      0.758984983 1.11058664 1.57328665 1.51979101 0.838118911
      0.592812538 0.0935392082</_>
    <_>
      0.493847698 0.48611936 0.510080934 0.583679199 0.106341362
      0.51721853 1.09049511 0.542996943 1.93275201 0.943777442
      0.658891916 0.0249047671</_>
    <_>
      0.802168071 0.576397598 0.534798145 0.0763228983 0.332904398
      0.802334905 0.791481018 1.75378156 1.46382368 0.836316049
      0.559439301 0.111053526</_>
    <_>
      0.775759935 0.591693342 0.572879612 0.0407748073 0.270467341
      0.775846481 0.34586817 1.67751062 1.53229976 0.862266123
      0.620779037 0.0732555464</_>
    <_>
      0.762723923 0.685168505 0.615669787 0.305474073 0.227127254
      0.779209435 1.08928943 1.52343142 1.39966583 0.729779959
      0.672752619 0.0204210747</_>
    <_>
      0.621343613 0.623409986 0.419829816 0.142879948 0.420227855
      0.625577271 0.276951849 1.25138676 1.38686717 0.704412222
      0.693633258 0.0329126194</_>
    <_>
      0.467750371 0.534965634 0.356299549 0.266282588 0.412638038
      0.539770901 0.54146862 1.30391729 1.46221447 0.714895129
      0.786600888 0.00445309002</_>
    <_>
      0.822662175 0.608460367 0.458022118 0.0584094003 0.410690904
      0.822776139 0.339989334 1.7070384 1.45437813 0.708277643
      0.616519451 0.044022508</_>
    <_>
      0.635621667 0.645867825 0.620374143 0.36356315 0.0926173627
      0.668077707 0.873120189 0.612752855 1.31854618 0.636286914
      0.689076722 0.0158245284</_>
    <_>
      0.721458495 0.586152375 0.521481097 0.312534004 0.286346585
      0.723574817 1.30727303 1.12155819 1.49282372 0.749194086
      0.697645783 0.0170263369</_>
    <_>
      0.828853726 0.620169938 0.434044242 0.0671892688 0.427852392
      0.828853726 0.091602616 1.42015111 1.44253016 0.618947625
      0.638752341 0.0198907927</_>
    <_>
      0.866233528 0.739096582 0.627525389 0.070145756 0.252494812
      0.866280019 0.503118873 1.58130038 1.47943234 0.735136747
      0.563571632 0.0621309318</_>
    <_>
      0.691308856 0.498723865 0.384300292 0.0810687467 0.419006974
      0.693643153 0.419017166 1.41023231 1.34251523 0.601270795
      0.699990153 0.0162893981</_>
    <_>
      0.762515783 0.644959986 0.459143817 0.0914717987 0.377925545
      0.772162914 0.328146607 1.66000855 1.62616849 0.76317215
      0.626345456 0.0559088811</_>
    <_>
      0.727275372 0.534670889 0.482032031 0.0556519926 0.349760443
      0.730291486 0.63123852 1.65193999 1.4750495 0.834952533
      0.562355042 0.0976262689</_>
    <_>
      0.814185858 0.588134527 0.457918257 0.258414924 0.410806268
      0.81561929 1.21744096 1.80856371 1.42822134 0.704435885
      0.616195679 0.0261926986</_>
    <_>
      0.738669693 0.602898061 0.447134405 0.0812751353 0.383212268
      0.748784304 0.323040247 1.67765605 1.70244968 0.798085868
      0.610488296 0.0718023926</_>
    <_>
      0.824793041 0.63931042 0.429932117 0.0771372542 0.439900249
      0.824898303 0.35243997 1.77011538 1.43254626 0.679606378
      0.568627238 0.0378731377</_>
    <_>
      0.714199185 0.535495341 0.521697283 0.063941814 0.308887303
      0.714564979 0.634794295 1.7954489 1.5186224 0.914317489 0.63833636
      0.0269828066</_>
    <_>
      0.834558845 0.653916538 0.487279058 0.0526810065 0.378511876
      0.834591627 0.276694417 1.81871986 1.62396908 0.796721935
      0.535052598 0.108757608</_>
    <_>
      0.750721097 0.681105733 0.540076256 0.0895261988 0.254227072
      0.75100863 0.290639699 1.41409099 1.55447745 0.744210243
      0.641566932 0.04643289</_>
    <_>
      0.834982336 0.629041672 0.47545144 0.0642437488 0.389835089
      0.834982455 0.135722786 1.5109477 1.44414282 0.658603847
      0.676006615 0.016523812</_>
    <_>
      0.303340077 0.385280907 0.329078674 0.312139153 0.695023239
      0.4979738 0.768766284 1.49487877 1.85834813 0.605516076
      0.708274841 0.0150957461</_>
    <_>
      0.848984957 0.707749188 0.580056489 0.0532043874 0.292548746
      0.849019766 0.274242878 1.72978485 1.48332798 0.748706996
      0.466012657 0.152700588</_>
    <_>
      0.742891073 0.585155487 0.536851704 0.148043662 0.304941893
      0.759373069 1.10903275 1.57459474 1.52025151 0.838833928
      0.591461658 0.0946986899</_>
    <_>
      0.605132818 0.629164159 0.285677642 0.166418985 0.535806298
      0.635866642 0.238131627 1.30613089 1.3171196 0.627240837
      0.721750975 0.0125034899</_>
    <_>
      0.805119872 0.6384992 0.492101282 0.0641931519 0.36433503
      0.805142224 0.207402647 1.50218904 1.59125257 0.784030855
      0.662325859 0.0343748704</_>
    <_>
      0.793419778 0.616577983 0.444626361 0.209977761 0.411415577
      0.794206679 1.06374931 1.56261408 1.43458784 0.687342942
      0.697370231 0.0156113561</_>
    <_>
      0.655299067 0.540307164 0.513124943 0.197909802 0.289642334
      0.671319723 1.25222647 1.58261836 1.56902647 0.902460933
      0.578312993 0.0951394364</_>
    <_>
      0.719327092 0.551496089 0.4616234 0.168767273 0.35183832
      0.721030772 0.878860474 1.47867632 1.50869906 0.767184854
      0.690024972 0.0207523834</_>
    <_>
      0.788894176 0.686993003 0.550899267 0.0668143705 0.29776293
      0.788915813 0.263720274 1.41692054 1.46128261 0.751888454
      0.59091574 0.0747029111</_>
    <_>
      0.785346329 0.626137018 0.52974838 0.0671807453 0.315136611
      0.785520792 0.421759784 1.477283 1.49758458 0.760012925 0.6591838
      0.0420498922</_>
    <_>
      0.694211185 0.559166074 0.485103965 0.0912214592 0.359792888
      0.715481639 0.775019467 1.8098321 1.52887928 0.897100449
      0.566787541 0.108478017</_>
    <_>
      0.672302723 0.464520186 0.432500899 0.205247417 0.382082611
      0.672329545 1.34192121 1.50979185 1.45452821 0.786696196
      0.615968108 0.0545673147</_>
    <_>
      0.755037487 0.651626647 0.549205065 0.0871693864 0.275120288
      0.755217373 0.556295276 1.29559469 1.44414878 0.744511604
      0.633922696 0.0405989066</_>
    <_>
      0.743712962 0.533258677 0.45150888 0.0482564718 0.394441605
      0.743793666 0.377982527 1.77216554 1.55868435 0.812346935
      0.661193013 0.0474743582</_>
    <_>
      0.558292329 0.402606666 0.416978985 0.642995119 0.374358416
      0.560861349 1.45724297 1.69366515 1.58608043 0.882040083
      0.694188952 0.0252762325</_>
    <_>
      0.812726974 0.592138886 0.424532384 0.0704146922 0.44277516
      0.821319699 0.362451732 1.58547187 1.47589743 0.675309718
      0.63107264 0.032673724</_>
    <_>
      0.671615899 0.736101806 0.365777791 0.237632319 0.529547572
      0.743802547 0.55623287 1.81112731 1.48142993 0.713181376
      0.697866738 0.0170771554</_>
    <_>
      0.679768145 0.617253482 0.59418571 0.0711306185 0.183103785
      0.680242896 0.673717558 1.2635349 1.80469954 0.965257704
      0.551474452 0.124545611</_>
    <_>
      0.680146992 0.615459621 0.430844456 0.164835662 0.35117203
      0.681456506 0.72643286 1.2656312 1.40327775 0.685664356
      0.697976708 0.0168880634</_>
    <_>
      0.726858497 0.523489177 0.48207283 0.195503935 0.370696157
      0.741426229 0.991211176 1.69541359 1.63476729 0.807733893
      0.734520733 0.0151267294</_>
    <_>
      0.777850211 0.611511886 0.564315021 0.147060126 0.290167153
      0.785594404 1.10061657 1.52698386 1.49608457 0.823901951
      0.581700206 0.0931961611</_>
    <_>
      0.667527258 0.448994368 0.251392603 0.0719850585 0.538658679
      0.668441832 0.257888198 1.36078894 1.66516626 0.627509058
      0.712507725 0.0155845061</_>
    <_>
      0.813883841 0.699050248 0.574749053 0.136920154 0.266362876
      0.81446296 0.812200844 1.33264744 1.47949195 0.703461945
      0.639514506 0.0282518752</_>
    <_>
      0.732021093 0.536501408 0.359176159 0.0996009633 0.437418729
      0.733543754 0.242777079 1.77955103 1.35009241 0.541549027
      0.646172225 0.0189781617</_>
    <_>
      0.837341905 0.680004716 0.542985082 0.056189768 0.327896386
      0.837368846 0.294367045 1.47098064 1.53836691 0.757123411
      0.580097377 0.083775118</_>
    <_>
      0.714466929 0.521453738 0.493841678 0.0450342558 0.353539318
      0.72219944 0.554553449 1.79914737 1.54423785 0.911596298
      0.551283002 0.114287674</_>
    <_>
      0.862670481 0.677995563 0.523490429 0.0989258885 0.360660672
      0.863123059 0.57635355 1.800228 1.46353257 0.719132721 0.602915645
      0.0301866438</_>
    <_>
      0.769353926 0.71038866 0.63343358 0.14102304 0.176830888
      0.770170152 0.865585506 1.09517312 1.57716274 0.784887969
      0.594153821 0.0778629109</_>
    <_>
      0.819687009 0.781873822 0.548177838 0.0924502388 0.317333966
      0.819887102 0.442683965 1.68332374 1.65067768 0.809713721
      0.508415282 0.138473883</_>
    <_>
      0.672300696 0.614298284 0.45406279 0.157243505 0.318812668
      0.673075497 0.812599182 1.39427948 1.32421505 0.661837399
      0.678900421 0.0188560225</_>
    <_>
      0.68869561 0.523312747 0.483461112 0.0522987954 0.323557854
      0.688731611 0.590438068 1.53234279 1.55388033 0.847458541
      0.580334008 0.08834631</_>
    <_>
      0.78518641 0.658554435 0.472914934 0.0758393779 0.383047819
      0.785339057 0.384921461 1.66287148 1.44501841 0.729324222
      0.609641671 0.0554564521</_>
    <_>
      0.787613094 0.654287875 0.537480533 0.149608597 0.283777893
      0.790618598 0.895519137 1.69738877 1.51185012 0.714230776
      0.594385684 0.0586881004</_>
    <_>
      0.817077279 0.624877453 0.47632575 0.0785967857 0.386286706
      0.817098975 0.628167272 1.82933152 1.4578774 0.726046026
      0.595551848 0.0600439683</_>
    <_>
      0.736961484 0.619076014 0.345742971 0.133177221 0.500243664
      0.762814343 0.262403518 1.40687478 1.44355524 0.641571283
      0.655096173 0.0226358511</_>
    <_>
      0.83489573 0.68207556 0.545980811 0.0942148119 0.328666776
      0.835076928 0.693121076 1.63995969 1.49322045 0.757249475
      0.553127587 0.0961375311</_>
    <_>
      0.679027081 0.551353812 0.524949491 0.0452998765 0.304614186
      0.682827055 0.542657852 1.76295984 1.67427087 0.97685957
      0.512091935 0.158436149</_>
    <_>
      0.796965659 0.604387403 0.526959598 0.0597042851 0.331057489
      0.797014415 0.542396605 1.52932048 1.48347509 0.78459394
      0.606196046 0.0679466426</_>
    <_>
      0.498126358 0.559484959 0.421338767 0.264512032 0.436006576
      0.59171468 0.630956829 1.64568913 1.39089429 0.71779269
      0.733977199 0.0160338022</_>
    <_>
      0.731327593 0.58159554 0.496316344 0.218951628 0.32325992
      0.733959138 0.963706791 1.4681859 1.53858101 0.791479588
      0.673347771 0.0274337232</_>
    <_>
      0.795351088 0.630933166 0.588839531 0.043643374 0.263093352
      0.79543215 0.498797894 1.42663193 1.46661448 0.808828294
      0.505858839 0.137616545</_>
    <_>
      0.789669156 0.530984104 0.478695929 0.0702181682 0.381076187
      0.789696515 0.757521093 1.59475064 1.43579102 0.783386409
      0.60421741 0.0658273175</_>
    <_>
      0.754138529 0.632873595 0.547168314 0.266058683 0.280030608
      0.754581511 1.33998024 1.45196331 1.53584993 0.796278656
      0.662642002 0.0345986038</_>
    <_>
      0.820961177 0.70271194 0.572764814 0.117808312 0.271974653
      0.821455359 0.745761275 1.34500742 1.50244176 0.71035707
      0.624581933 0.0380860344</_>
    <_>
      0.723856986 0.501695216 0.474289179 0.112458371 0.348894715
      0.732193112 1.04354012 1.34463131 1.4670223 0.761652946
      0.642082512 0.045476459</_>
    <_>
      0.866358042 0.723053813 0.570133448 0.0603202283 0.318569064
      0.866398811 0.288654149 1.72968161 1.50984013 0.763596416
      0.508946121 0.146264091</_>
    <_>
      0.612155259 0.614919722 0.41652301 0.144456074 0.420866311
      0.616772115 0.292592496 1.25838339 1.43419695 0.726121366
      0.695679307 0.0330238342</_>
    <_>
      0.822636604 0.589582682 0.375919282 0.0717398077 0.495667726
      0.822636604 0.0920646414 1.15614104 1.47263098 0.613047838
      0.639795661 0.020425465</_>
    <_>
      0.841426492 0.655867219 0.507882237 0.0730336979 0.366568029
      0.841442764 0.403315455 1.64756143 1.45565701 0.716247857
      0.623802483 0.0366839655</_>
    <_>
      0.791434467 0.653032124 0.571482956 0.0489924364 0.267152488
      0.791486621 0.361590892 1.32342196 1.52560532 0.776206672
      0.571081936 0.0986806005</_>
    <_>
      0.644196272 0.50564903 0.44761318 0.0406371802 0.326161236
      0.644219816 0.194233656 1.25577009 1.52159822 0.792921066
      0.652536869 0.0454820171</_>
    <_>
      0.601162434 0.602999032 0.401551157 0.143336013 0.430383474
      0.605639458 0.273251563 1.2384392 1.36250019 0.695483506
      0.697009742 0.0294929463</_>
    <_>
      0.746269763 0.615046799 0.532581925 0.0549189076 0.309273094
      0.746321261 0.250537515 1.73060036 1.54987061 0.856683135
      0.603165984 0.0862542018</_>
    <_>
      0.804974735 0.585982621 0.470395118 0.0539984815 0.394879043
      0.807278931 0.313514173 1.8797158 1.50672579 0.779335618
      0.565935791 0.0812054947</_>
    <_>
      0.74346137 0.615452647 0.479323775 0.106415637 0.373333007
      0.783132374 0.593114436 1.8173058 1.56685996 0.77610606
      0.629158318 0.0566773675</_>
    <_>
      0.805490971 0.770097017 0.708735108 0.0979296193 0.139357299
      0.808674634 0.391661972 1.25923097 1.65198624 0.856087089
      0.413891017 0.280414432</_>
    <_>
      0.704823315 0.561404467 0.402540624 0.0671508536 0.44015941
      0.704874694 0.3204045 1.84759188 1.52439678 0.822275579
      0.636338532 0.0591616854</_>
    <_>
      0.810499251 0.605875015 0.529321253 0.20222339 0.32892406
      0.818377137 0.921889126 1.60426915 1.4316951 0.71233958
      0.694185555 0.0171372946</_>
    <_>
      0.790475249 0.563340485 0.459958196 0.0397884995 0.400500119
      0.790500641 0.244766936 1.70100164 1.4653362 0.758040905
      0.570595682 0.076424107</_>
    <_>
      0.718064547 0.498529732 0.451416582 0.0412901044 0.388730496
      0.718084753 0.465639591 1.76531744 1.51044202 0.819984317
      0.640071452 0.049224101</_>
    <_>
      0.746509075 0.498704016 0.391563565 0.0724645928 0.448542237
      0.746776581 0.466602296 1.59285653 1.37608767 0.671432912
      0.688110709 0.0170884691</_>
    <_>
      0.623359978 0.636619627 0.616074741 0.350045621 0.0891129076
      0.653904319 0.861626863 0.465521872 1.4195646 0.69263804
      0.713072419 0.0144219082</_>
    <_>
      0.844794035 0.671284437 0.564585388 0.0518067516 0.311418235
      0.844824731 0.234754324 1.53058755 1.49600768 0.753841043
      0.596405566 0.0724843815</_>
    <_>
      0.739707589 0.532852292 0.538181186 0.480826944 0.295735866
      0.739717126 1.73786187 1.43382525 1.54527211 0.818780363
      0.656687081 0.0518522598</_>
    <_>
      0.758470118 0.621320188 0.562581599 0.0576088838 0.23710078
      0.758557737 0.424750507 1.45728469 1.72996199 0.871279836
      0.624536514 0.0580588281</_>
    <_>
      0.788377464 0.616414845 0.511548936 0.075411886 0.320511788
      0.78838551 0.51991564 1.68548954 1.40916228 0.687128067 0.68955183
      0.0157825872</_>
    <_>
      0.693641603 0.625692487 0.573000312 0.0610006116 0.195168152
      0.693690062 0.354960561 1.04486454 1.55951142 0.815462589
      0.605909944 0.0804892331</_>
    <_>
      0.808505952 0.659958661 0.477659732 0.0911916718 0.368232459
      0.809197247 0.18054311 1.29085481 1.4961772 0.673432946
      0.671335697 0.0182255805</_>
    <_>
      0.821509719 0.712464571 0.471551269 0.100895293 0.384974837
      0.821517646 0.131982744 1.48850358 1.48134208 0.674770713
      0.624626577 0.0232412573</_>
    <_>
      0.604902744 0.528509974 0.481166124 0.119779043 0.314457029
      0.605508268 0.742760777 1.88171649 1.67648828 0.93309027
      0.690934718 0.0170246363</_>
    <_>
      0.825015247 0.673909962 0.644611061 0.0799846798 0.219421521
      0.825048923 0.832005382 1.40434206 1.51349974 0.821026802
      0.528946817 0.137900144</_>
    <_>
      0.719296992 0.534631848 0.421360344 0.0622419082 0.411306322
      0.719300091 0.167830259 1.43971968 1.49608564 0.720974326
      0.703354537 0.0160749983</_>
    <_>
      0.830682993 0.625415146 0.471424192 0.0637061968 0.39889729
      0.830752909 0.326356262 1.7616092 1.48202884 0.727473736
      0.636708498 0.0395796336</_></support_vectors>
  <decision_functions>
    <_>
      <sv_count>65</sv_count>
      <rho>-2.2094961925775549</rho>
      <alpha>
        22.180947619729796 62.5 62.5 32.009523218577186
        6.3200847802078117 0.32331342752969733 62.5 62.5 62.5 62.5 62.5
        46.371832345900245 62.5 62.5 62.5 62.5 62.5 62.5 62.5
        50.98421620215305 46.029086466842905 62.5 62.5 62.5 62.5 62.5
        62.5 62.5 62.5 26.11650159125702 62.5 38.185859535345031 -62.5
        -1.3521624357441735 -62.5 -11.371303193978402 -62.5 -62.5 -62.5
        -56.369946288659008 -62.5 -62.5 -62.5 -62.5 -10.512880369025435
        -62.5 -62.5 -62.5 -62.5 -62.5 -16.404833090132115 -62.5 -62.5
        -62.5 -16.467966989433997 -62.5 -62.5 -23.572605625094358 -62.5
        -62.5 -7.4696671954752842 -62.5 -62.5 -62.5 -62.5</alpha>
      <index>
        61 0 143 202 3 139 7 8 69 191 10 184 71 36 12 40 73 174 172 97
        171 99 169 48 77 78 25 26 162 55 57 149 38 195 196 85 4 9 89 91
        100 102 107 110 112 54 56 113 124 27 128 63 65 134 138 141 142
        146 152 157 33 168 173 176 35</index></_>
    <_>
      <sv_count>8</sv_count>
      <rho>-2.227116819817021</rho>
      <alpha>
        0.92477483057665755 12.059356566509807 0.022652394161375735
        26.617892647622387 15.971451881798961 11.532301552035875
        -4.6284298727050546 -62.5</alpha>
      <index>
        61 203 64 182 150 83 23 178</index></_>
    <_>
      <sv_count>79</sv_count>
      <rho>3.4155925617596701</rho>
      <alpha>
        12.805734972652781 62.5 62.5 4.7556810218313483 62.5 62.5 62.5
        62.5 62.5 62.5 62.5 62.5 62.5 62.5 62.5 62.5 62.5 62.5 62.5
        14.584276136526157 62.5 0.32760528217573337 62.5 62.5 62.5
        33.94794490364378 62.5 18.685297644335396 62.5 62.5
        42.450014674373762 52.587461602233056 62.5 53.379949225214986
        62.5 30.200606224140071 62.5 62.5 -62.5 -62.5
        -5.1329468401213338 -62.5 -2.6983422498678462 -62.5 -62.5
        -37.062637767906836 -62.5 -62.5 -1.2149272194308551 -62.5 -62.5
        -62.5 -62.5 -62.5 -34.912557944233839 -44.714782713342899
        -37.140933586361257 -62.5 -62.5 -62.5 -62.5 -1.12947096024768
        -62.5 -62.5 -24.033745369684315 -62.5 -62.5 -3.4038147131045693
        -62.5 -62.5 -62.5 -62.5 -62.5 -6.780247367630448 -62.5
        -5.5688979351630365 -62.5 -59.931267020032138 -62.5</alpha>
      <index>
        119 140 203 202 200 198 64 90 194 139 7 191 37 181 16 177 18 97
        20 45 171 46 137 163 101 25 26 111 161 156 150 149 145 31 58 59
        105 144 1 13 14 133 114 29 86 30 103 32 104 127 43 106 159 52
        151 84 109 60 98 175 130 95 75 76 120 180 94 66 187 190 19 192
        67 68 154 122 199 201 79</index></_>
    <_>
      <sv_count>38</sv_count>
      <rho>-4.381851824847268</rho>
      <alpha>
        48.887880385384058 62.5 62.5 62.5 62.5 5.6647846228538059
        33.390637904312705 62.5 62.5 62.5 62.5 62.5 56.363345481953566
        58.226232546865418 9.9965251880062578 29.930955611321938 62.5
        7.6128811310692299 62.5 -62.5 -62.5 -48.341581592254961 -62.5
        -62.5 -21.883205312368634 -15.344826261351493 -62.5 -62.5
        -17.187834238343953 -62.5 -62.5 -62.5 -6.7064314165892149 -62.5
        -62.5 -15.609364050858689 -62.5 -62.5</alpha>
      <index>
        203 200 90 5 6 12 73 16 177 18 137 163 24 26 160 156 145 58 105
        166 167 2 11 17 21 179 39 42 185 186 92 123 125 197 126 129 108
        136</index></_>
    <_>
      <sv_count>11</sv_count>
      <rho>0.66797357594884454</rho>
      <alpha>
        1.1611040034189113 38.296031646317161 18.584820923812938
        0.84801583950077608 -3.649835486153076 -7.9144732566236415
        -3.5452231884460619 -1.1793300057773601 -1.3598366982400192
        -20.217819568249649 -21.02345420955999</alpha>
      <index>
        203 64 188 111 81 116 53 51 34 148 170</index></_>
    <_>
      <sv_count>5</sv_count>
      <rho>-0.2621836761877227</rho>
      <alpha>
        0.28328577230667701 2.916679429347357 2.4955522793865401
        7.7173483390008553 -13.412865820041425</alpha>
      <index>
        85 4 107 141 178</index></_>
    <_>
      <sv_count>35</sv_count>
      <rho>1.8753569989981851</rho>
      <alpha>
        62.5 62.5 62.5 62.5 62.5 62.5 8.9845692885751838
        54.124340263632192 62.5 62.5 62.5 18.973049668284887
        14.980734774237543 6.6818310952498612 62.5 -62.5 -62.5
        -7.2807465002409968 -37.961903520095547 -0.89369455889016258
        -23.370743957659666 -41.824654610278927 -2.456610306235159 -62.5
        -55.613139926765143 -5.0504857794715763 -51.549651174030522
        -4.3959428400875495 -62.5 -62.5 -26.011893352247895 -62.5
        -27.809674982788184 -62.5 -7.0253835811882999</alpha>
      <index>
        38 196 4 100 102 107 54 113 27 141 142 146 33 176 35 1 13 28 29
        41 43 106 159 52 151 84 60 98 75 76 187 190 19 121 201</index></_>
    <_>
      <sv_count>15</sv_count>
      <rho>-0.1751002988195404</rho>
      <alpha>
        5.4602742462276384 62.5 22.067178589435052 10.327527215195396
        57.470164159339646 14.545584827540939 62.5 -2.0791870885599657
        -62.5 -25.090570205281839 -4.5792524272522428
        -11.011117700038389 -5.735176238687794 -61.375425377918447 -62.5</alpha>
      <index>
        80 100 102 22 112 27 141 153 167 17 179 185 92 197 136</index></_>
    <_>
      <sv_count>12</sv_count>
      <rho>-0.48070551321376503</rho>
      <alpha>
        3.4089107841133282 1.1190423960779692 8.5931120389524036
        4.7456043920658226 6.3214808756301419 -0.9622291102085081
        -0.4934612970092962 -1.6465782202666117 -10.755065926677489
        -1.1567079861253404 -3.7355718474437505 -5.4385360991086724</alpha>
      <index>
        100 54 141 146 33 81 132 53 51 34 135 148</index></_>
    <_>
      <sv_count>6</sv_count>
      <rho>2.3434613378402798</rho>
      <alpha>
        53.858665344320521 3.1099095159297443 -22.910209867347188
        -8.4409083669269709 -14.079158218079506 -11.53829840789656</alpha>
      <index>
        15 23 44 68 122 199</index></_>
    <_>
      <sv_count>7</sv_count>
      <rho>0.46927702069215532</rho>
      <alpha>
        12.350819518168176 14.878037416959666 -2.6304386238401429
        -19.998791750381088 -0.28280035155869748 -0.37050104879620033
        -3.9463251605516976</alpha>
      <index>
        115 23 153 166 17 21 179</index></_>
    <_>
      <sv_count>5</sv_count>
      <rho>2.4998165210531562</rho>
      <alpha>
        62.5 13.752272445911576 -10.947313782053509 -7.3601313590026027
        -57.944827304855458</alpha>
      <index>
        183 50 116 53 135</index></_>
    <_>
      <sv_count>48</sv_count>
      <rho>-2.9439877740652305</rho>
      <alpha>
        62.5 62.5 58.927769184918823 62.5 62.5 62.5 62.5
        12.643252281169675 62.5 9.8806661919866254 62.5 62.5 62.5 62.5
        62.5 3.6450489378226769 62.5 62.5 62.5 62.5 28.29384073705349
        47.385455193657826 57.23932310130683 62.5 -42.080691034557006
        -62.5 -62.5 -62.5 -62.5 -9.623387137063224 -62.5
        -44.737637226137714 -62.5 -62.5 -62.5 -25.754883410413669
        -40.849320321177068 -62.5 -10.706669402044989 -62.5 -62.5 -62.5
        -62.5 -62.5 -44.262767096522261 -62.5 -62.5 -62.5</alpha>
      <index>
        13 14 164 133 29 103 127 43 52 62 131 120 180 94 66 189 190 19
        192 67 199 88 70 79 147 158 165 166 167 2 11 17 21 179 42 47 93
        186 92 49 72 123 125 197 108 136 117 204</index></_>
    <_>
      <sv_count>15</sv_count>
      <rho>-0.072377919958034845</rho>
      <alpha>
        7.177916354918306 3.6424552078125823 11.444825813998483
        9.4243254168193573 24.945898037888288 0.41923072844384568
        0.082602534203553638 4.7926704563572899 -14.591421957846812
        -8.270208587291906 -2.5989098614820088 -5.5330421217104711
        -1.6075526288970032 -9.0705503850058307 -20.258239008207646</alpha>
      <index>
        44 118 96 155 94 193 68 201 82 81 53 51 34 135 148</index></_>
    <_>
      <sv_count>7</sv_count>
      <rho>0.070106575574297655</rho>
      <alpha>
        38.353739579260193 4.9872054240518597 5.1633881101165517
        1.5572471813989355 -0.5850471540482981 -28.98289905471583
        -20.493634086063409</alpha>
      <index>
        166 74 125 87 34 135 148</index></_></decision_functions></opencv_ml_svm>
</opencv_storage>
