<?xml version="1.0"?>
<opencv_storage>
<opencv_ml_svm>
  <format>3</format>
  <svmType>C_SVC</svmType>
  <kernel>
    <type>RBF</type>
    <gamma>0.00015000000000000001</gamma></kernel>
  <C>62.5</C>
  <term_criteria><epsilon>1.1920928955078125e-07</epsilon>
    <iterations>1000</iterations></term_criteria>
  <var_count>12</var_count>
  <class_count>6</class_count>
  <class_labels type_id="opencv-matrix">
    <rows>6</rows>
    <cols>1</cols>
    <dt>i</dt>
    <data>
      0 1 2 3 4 5</data></class_labels>
  <sv_total>259</sv_total>
  <support_vectors>
    <_>
      90.2578125 102.571785 63.0651321 40.6970673 100.231125 103.280075
      1186.88684 0.78363657 0.0819838196 0.158858374 13.0524454
      20.2522831</_>
    <_>
      194.494598 174.717972 156.995789 54.9853325 57.91745 198.698395
      204.950699 0.980530262 0.12092562 0.471873581 10.1593542
      4.71742868</_>
    <_>
      168.997208 130.078171 116.589005 15.2919121 86.2733765 173.37645
      217.518997 0.987674594 0.305700094 0.589573979 8.12287998
      3.89704108</_>
    <_>
      190.835403 119.301476 118.759903 66.9064102 98.5627975 190.855347
      148.007553 0.987843752 0.186141223 0.516093254 9.39530945
      3.72731829</_>
    <_>
      206.169022 168.289459 121.80323 16.4145012 93.8992767 206.345306
      189.011414 0.978888094 0.0987845585 0.39396134 10.5663633
      4.76957893</_>
    <_>
      209.020187 199.377823 139.785355 16.6410427 80.9201584 209.071213
      234.169556 0.981949031 0.356415987 0.637467921 7.31765079
      3.69170403</_>
    <_>
      176.283768 127.174583 97.9965744 14.5923748 106.846779 176.879013
      106.181778 0.985180259 0.0977190584 0.407210886 10.6883869
      3.75948906</_>
    <_>
      207.540375 178.257813 146.561005 24.645628 67.9225311 207.688065
      146.626175 0.984975934 0.138124108 0.491277486 9.49416161
      3.45549726</_>
    <_>
      179.514038 138.479996 123.465599 9.02214241 77.3257523 182.704178
      245.153091 0.982106984 0.268642813 0.530195653 8.3957119
      4.38639116</_>
    <_>
      152.179276 152.670441 102.243523 25.9158554 109.506798 153.178818
      133.871201 0.986326993 0.153107598 0.572667658 9.49830437
      2.35778356</_>
    <_>
      125.93116 123.960442 130.070633 105.062263 27.1170483 131.890732
      188.155228 0.989415348 0.136431858 0.598172903 9.23971176
      3.85353947</_>
    <_>
      213.522186 173.401215 138.461197 10.1141586 83.6135788 213.529053
      235.692719 0.979202688 0.274291068 0.499561638 8.8249073
      4.68443727</_>
    <_>
      205.311188 166.295441 127.00676 12.1003466 91.050621 205.320511
      240.814041 0.978700817 0.181272566 0.491937846 9.39716625
      4.45757914</_>
    <_>
      186.814896 145.906631 143.390869 68.3083344 67.6369019 188.658585
      270.661682 0.981244445 0.313390911 0.51936388 8.71577644
      5.27380276</_>
    <_>
      211.357697 158.143341 110.681282 12.0940685 109.102356 211.357697
      169.525101 0.977555573 0.0987148136 0.359144747 10.2548294
      4.50964928</_>
    <_>
      209.190247 161.789261 112.381775 18.3574028 109.487022 209.258865
      156.600571 0.98517859 0.127225578 0.531342328 9.41469193
      3.18485737</_>
    <_>
      154.308868 160.436859 72.8477936 29.9554176 136.6306 162.145981
      371.589355 0.952785432 0.0840261653 0.294935644 11.9046021
      8.85728264</_>
    <_>
      90.168251 93.586937 45.9397507 30.2332001 129.2827 95.3698959
      569.503357 0.923837721 0.0869486853 0.242324486 12.3829403
      11.3278351</_>
    <_>
      174.976669 141.165909 91.1595612 39.0758514 123.232841 180.571671
      207.212723 0.97658819 0.102897629 0.422559112 10.5954542
      4.82278967</_>
    <_>
      202.322052 157.227386 113.379723 37.7959976 104.910973 202.522705
      174.445328 0.98133713 0.0996051505 0.467905611 10.3398876
      4.02748632</_>
    <_>
      202.835266 139.782806 109.704979 35.5236168 111.281586 202.928833
      134.017838 0.986918509 0.188369229 0.600230634 8.73309422
      2.90024424</_>
    <_>
      56.9916306 66.6384354 32.7609596 36.2990875 146.408081 66.6788101
      801.094116 0.895507216 0.0944251046 0.378656566 10.9080153
      11.3625879</_>
    <_>
      179.230209 140.173828 128.181778 6.08687401 77.5326614 179.235336
      211.718307 0.983945727 0.246863052 0.504178822 9.12994003
      4.37702179</_>
    <_>
      204.122543 157.980835 129.311905 19.8851242 86.4770432 204.158844
      89.2264557 0.990988374 0.106852658 0.606342375 9.22288418
      2.3011291</_>
    <_>
      69.6502686 77.3971634 30.5483093 38.0109215 154.394333 80.137001
      535.928772 0.916294217 0.0880689099 0.285423517 11.9284554
      10.409193</_>
    <_>
      180.496475 115.375977 98.7830048 6.42151642 116.587791 180.503922
      223.973419 0.980883479 0.176339239 0.467187732 9.43418884
      3.98310375</_>
    <_>
      211.693024 181.417572 131.168732 13.354393 92.9009857 211.727356
      199.018433 0.982920587 0.314123183 0.541275144 8.29238319
      4.50858831</_>
    <_>
      133.980515 90.4838333 61.0820313 17.3102684 125.493744 134.94017
      155.828812 0.98223561 0.0931773409 0.240587533 12.2135839
      7.64123535</_>
    <_>
      83.2299881 86.3514252 38.5582962 37.0340385 165.691467 88.7635498
      635.283081 0.907142878 0.08186277 0.214435488 12.5706892 13.953495</_>
    <_>
      209.48497 181.678467 120.245575 18.1611519 98.1685867 209.487
      119.839684 0.986655831 0.120739803 0.621187389 8.7431469
      2.74087119</_>
    <_>
      216.813004 168.095718 104.284637 13.5666256 120.416916 216.817795
      181.848907 0.979962707 0.171806961 0.476967216 9.17969704
      3.4868474</_>
    <_>
      186.488541 148.306854 126.560669 39.411293 82.431282 187.159576
      274.226776 0.977939487 0.143450543 0.469664931 10.16014 5.58864498</_>
    <_>
      166.267075 104.812202 80.4280167 11.8957472 127.353477 166.267075
      85.8479309 0.989475071 0.0925099701 0.43193841 10.7523537
      3.3691144</_>
    <_>
      213.10936 162.866608 109.17054 12.2267818 114.541176 213.182114
      178.228638 0.98262763 0.212460265 0.51411432 8.57492542 3.5347333</_>
    <_>
      127.022224 142.668671 107.441383 47.6121635 111.181679 150.887238
      634.488892 0.938476086 0.0992987603 0.285963953 12.1504745
      12.5074472</_>
    <_>
      97.4218521 129.565735 91.1599197 54.3713722 118.107224 133.727493
      805.397888 0.872247756 0.0531329773 0.133182228 13.5212574
      18.9523144</_>
    <_>
      101.078423 115.968468 68.4986038 43.2164764 129.719391 116.783684
      1480.03503 0.794336498 0.00996670593 0.0865965784 14.0585356
      24.3627682</_>
    <_>
      183.428406 140.6315 117.713966 30.378109 89.7187729 183.862839
      242.523422 0.979229569 0.1217549 0.457939625 10.35215 5.10053635</_>
    <_>
      208.815323 167.876755 138.313095 11.5909395 80.098175 208.825455
      184.636353 0.982921064 0.176920623 0.512646735 9.56559849
      4.24245262</_>
    <_>
      210.822525 171.257935 159.442963 8.72207832 62.2454376 210.858322
      147.536453 0.988996744 0.389650792 0.620509446 7.32460785
      3.42390704</_>
    <_>
      170.668182 117.86924 103.110535 5.40138721 104.337654 170.674545
      277.917511 0.978256226 0.239957422 0.505846977 8.6199379
      4.62113619</_>
    <_>
      204.891464 222.162186 168.853363 24.801878 88.3826752 225.496826
      243.208588 0.954984188 0.372743756 0.547875345 8.23729992
      6.91529846</_>
    <_>
      209.414658 204.580032 202.855484 33.6258774 15.5988722 212.747284
      190.465714 0.983256519 0.470462412 0.645860672 6.54428577
      3.57757449</_>
    <_>
      187.922455 139.500061 138.238846 79.3754349 75.8480759 190.469452
      154.959656 0.98826474 0.205748498 0.500729561 9.38709641 3.9982183</_>
    <_>
      204.145355 154.22258 114.171913 12.0302134 103.769989 204.596313
      169.540344 0.984089017 0.196149155 0.530064404 9.11891079
      3.39587998</_>
    <_>
      146.252853 95.5134735 89.173851 14.2836218 126.486748 147.164627
      229.202011 0.98747474 0.241891935 0.653300166 8.20566273
      3.73072147</_>
    <_>
      184.510681 151.388977 123.223671 12.4476242 85.361145 184.521042
      244.809814 0.977521956 0.20067814 0.412299424 9.98314095
      5.63761234</_>
    <_>
      179.72995 143.158142 102.647858 12.0871534 112.240654 179.743042
      270.609039 0.979856312 0.227882639 0.485859066 9.54708099
      4.89255667</_>
    <_>
      175.617386 133.444748 123.282585 9.41378307 82.5072556 175.626556
      270.320496 0.981070936 0.283156693 0.481970698 8.93266773
      5.2452755</_>
    <_>
      208.466675 189.144165 134.475189 13.2689734 88.0804596 208.479858
      266.073822 0.980268717 0.338403106 0.651974261 7.63872766
      3.87888384</_>
    <_>
      215.870697 190.358292 155.813583 27.7660236 67.4444351 215.881973
      221.978455 0.980157733 0.258347124 0.590549707 8.43612385
      3.80617404</_>
    <_>
      185.348907 133.489731 122.928574 35.1907082 94.5275269 189.06369
      114.474632 0.991166055 0.102022044 0.394267738 11.1008339
      4.56268024</_>
    <_>
      162.055939 155.048035 146.601822 40.1668129 52.9910316 172.653519
      67.3593216 0.991238415 0.100795209 0.538221598 9.52099419
      2.45253444</_>
    <_>
      173.861923 142.485611 124.98214 35.9571724 81.0953445 177.570877
      80.5114746 0.99144125 0.0934980661 0.4432953 10.5301867 3.44813013</_>
    <_>
      204.09343 160.119995 140.314209 13.0490074 81.0155869 204.136414
      247.603058 0.98137033 0.333940744 0.573773801 8.00777912
      3.75844812</_>
    <_>
      195.410522 171.922653 161.485352 5.89219952 47.4900932 195.410889
      510.97525 0.960645556 0.332562447 0.464502364 9.15616703
      10.8272543</_>
    <_>
      156.338089 156.531754 105.15242 25.6161308 108.127235 157.298981
      175.411362 0.981897116 0.156609312 0.590100944 9.47472286
      2.5754323</_>
    <_>
      202.204498 162.729858 149.106384 8.54115486 67.8779526 203.714172
      219.955338 0.983604133 0.326766253 0.567657411 8.19546223
      4.00110102</_>
    <_>
      64.1482391 101.193817 55.7591286 58.8684044 131.035721 101.396484
      353.514282 0.915687919 0.0153582701 0.140144557 12.763813
      10.6024179</_>
    <_>
      87.6734924 123.2948 69.2568588 51.7418289 160.949417 128.17865
      1984.67444 0.793118238 0.0703644529 0.199391007 13.2116365
      23.8950596</_>
    <_>
      208.777298 170.238022 128.204224 12.4142818 93.6396484 211.236511
      222.609619 0.979684353 0.30625096 0.546740949 7.99652767
      3.96076226</_>
    <_>
      124.125359 136.879044 36.3496704 34.5744972 197.340424 139.482147
      154.694962 0.969633818 0.0135557605 0.135779962 12.9074945
      8.46899033</_>
    <_>
      171.262054 187.705948 93.2733383 42.7738152 135.034637 189.669647
      381.966736 0.962447703 0.103075475 0.333731174 11.3912964
      8.94871044</_>
    <_>
      210.378891 171.847046 164.375824 14.3972416 55.9524879 210.387482
      179.885666 0.986536205 0.359358966 0.657773733 7.47018862
      3.14980388</_>
    <_>
      182.562225 157.395508 134.30307 43.9294281 68.4898987 187.387451
      194.279663 0.974549174 0.0943300053 0.240209147 11.4774761
      7.50628614</_>
    <_>
      171.436676 156.646072 115.786011 28.3038311 81.2972336 171.634247
      161.241791 0.981393218 0.114054948 0.524173617 9.87554741
      3.6151104</_>
    <_>
      174.108841 129.666718 125.145828 5.63833284 82.8936539 174.117966
      218.7659 0.98624748 0.289764732 0.537616372 8.69243717 4.38292742</_>
    <_>
      220.33609 188.098953 140.129181 11.8295994 85.1286087 220.343643
      196.567749 0.981123924 0.295544326 0.578901529 7.74790812
      3.26121068</_>
    <_>
      98.2187271 122.681061 71.8125763 43.0544701 126.346039 124.552795
      242.650803 0.971910357 0.0605335422 0.434621841 11.2756319
      5.14127541</_>
    <_>
      218.769485 163.863235 102.561806 13.3414583 123.273514 218.777878
      180.047424 0.979854763 0.156109646 0.488537252 9.32098675
      3.58133817</_>
    <_>
      183.851059 142.203598 145.237381 83.5046234 64.7377396 183.855881
      283.16214 0.981129766 0.293833584 0.518321812 9.0136404 5.77752638</_>
    <_>
      85.3841705 124.53466 73.8628006 55.454998 116.737122 124.79438
      1443.28296 0.719726324 0.00933741499 0.0799978599 14.0513382
      24.4520531</_>
    <_>
      168.855804 142.170944 136.492844 58.042572 67.7929077 174.623352
      173.675903 0.983502388 0.0968873277 0.410317272 11.0307665
      5.16758108</_>
    <_>
      198.787491 126.710182 112.135941 13.4496975 106.197227 198.794968
      256.925385 0.976888597 0.193004489 0.41062969 9.86621571
      5.44156408</_>
    <_>
      171.630264 114.290695 107.41494 24.0941887 109.522583 173.914444
      226.327377 0.986659825 0.23656252 0.652341604 8.29976177
      3.60848403</_>
    <_>
      202.639725 160.238022 110.969231 17.5582542 105.802055 203.121307
      212.392914 0.977520764 0.0987354219 0.383263528 10.8091488
      5.47855949</_>
    <_>
      125.408401 159.041946 120.124779 58.1835938 150.552414 180.722015
      736.410828 0.824874282 0.0650746152 0.292297989 12.2720079
      14.863349</_>
    <_>
      176.878601 159.551575 146.115082 10.9801102 49.7678757 176.890961
      392.363983 0.970268309 0.268765241 0.441068053 9.64988422
      8.19736958</_>
    <_>
      207.481186 175.451614 131.114212 12.7138271 89.4555359 207.497726
      221.634155 0.979367197 0.280976802 0.477305681 8.79901409
      5.32749462</_>
    <_>
      100.154396 114.76754 66.9742508 43.4221344 132.877563 116.132751
      1315.29968 0.814309299 0.0108006047 0.085493587 13.9703932
      22.9633446</_>
    <_>
      200.841339 166.843414 137.057541 26.9295483 72.3633575 201.607742
      266.313141 0.9735654 0.222905979 0.448240936 9.31743908 5.23714781</_>
    <_>
      183.420746 136.331116 107.446884 11.2035437 104.88311 183.421509
      94.191864 0.990874588 0.095218055 0.447466165 10.3699589
      3.27142048</_>
    <_>
      197.096344 157.405151 145.906464 13.3985176 69.8319702 197.335403
      208.580597 0.984838367 0.299679458 0.5682832 8.35180187 3.85177779</_>
    <_>
      133.389496 144.411774 56.9062309 34.0470924 168.344543 144.867111
      382.450043 0.945836246 0.0158445816 0.17390053 13.0914907
      10.9478302</_>
    <_>
      101.250542 108.110947 73.2706451 42.554985 162.64653 124.663666
      407.167908 0.960620046 0.0628527328 0.285815299 12.105711
      9.86364937</_>
    <_>
      191.433868 173.681961 137.719452 16.1147156 64.8279037 191.507202
      236.253418 0.978429258 0.197465152 0.454674751 9.82987022
      5.01123095</_>
    <_>
      209.345108 179.191544 146.055023 21.2054958 69.3535385 209.471115
      185.837524 0.981325746 0.171833664 0.471898943 9.50293159
      4.11094666</_>
    <_>
      49.9782372 71.7788162 12.3645964 34.4038773 189.926758 72.0279846
      370.205872 0.904868722 0.110655047 0.362409353 10.8940887
      8.12201691</_>
    <_>
      129.182434 132.399094 31.9523869 31.5438061 208.472855 133.463196
      310.185455 0.960148335 0.0150110768 0.200477511 13.0976324
      10.0458441</_>
    <_>
      168.76413 141.166412 139.708588 50.8286018 50.7730598 168.774292
      281.149689 0.978518069 0.213699535 0.422632426 10.0808563
      6.36491013</_>
    <_>
      206.077286 176.803665 118.502251 17.0457592 102.647339 210.060287
      173.433899 0.982933581 0.23008436 0.567111194 8.50728989
      3.23502564</_>
    <_>
      220.13855 192.944733 129.741913 18.3440285 94.6635437 220.138687
      190.20462 0.979732156 0.143747136 0.609930813 8.39995289
      2.94172406</_>
    <_>
      182.706192 136.318207 126.544266 11.4876232 84.8099289 182.711548
      299.45401 0.981478214 0.317999095 0.516642869 8.74961281
      5.73720789</_>
    <_>
      203.33757 161.69519 143.133377 11.9298668 75.7982483 203.372345
      203.05545 0.985774815 0.353652716 0.569705784 8.08728313
      4.37259769</_>
    <_>
      78.7355728 112.925842 71.5384674 54.1049309 148.839508 117.860748
      1768.7594 0.833330095 0.0730594918 0.234804183 12.8465118
      20.9580193</_>
    <_>
      178.615036 96.5571976 103.019035 122.235428 106.369263 178.62674
      259.626892 0.976714253 0.158092052 0.420890331 10.190712
      5.49177217</_>
    <_>
      188.309158 144.789627 134.169388 49.5079308 74.9633484 193.457703
      125.09037 0.984112203 0.0956227556 0.430054098 10.5188093
      3.92092419</_>
    <_>
      101.530594 118.004982 100.543388 57.813694 59.2651253 119.200935
      389.801575 0.952955127 0.0838377848 0.304846644 11.9408216
      8.85600185</_>
    <_>
      143.766129 110.658142 119.498505 106.888016 75.8271255 143.773361
      290.714905 0.981500208 0.253870428 0.483404279 9.01733303
      5.77700615</_>
    <_>
      77.3517227 98.2466354 83.915062 56.1850471 177.230927 126.983322
      747.435242 0.898175359 0.0841189623 0.335135937 11.584301
      11.7792683</_>
    <_>
      170.734161 107.020767 111.212555 103.125595 91.6386108 170.766907
      136.608322 0.989999652 0.181601226 0.50905925 9.56822968
      3.70025229</_>
    <_>
      205.751541 145.145844 136.59761 12.0739594 86.5306549 205.757431
      204.218246 0.986370683 0.35743624 0.57785511 7.92360783 4.14209652</_>
    <_>
      201.5271 178.828964 164.788193 26.7198658 44.2691536 202.983932
      209.329895 0.979856014 0.234754667 0.506285548 8.94376183
      4.11853361</_>
    <_>
      151.352646 163.666809 49.4630089 32.9400902 189.577667 163.74852
      160.665619 0.977157772 0.0307930131 0.278157085 12.2549582
      6.48544598</_>
    <_>
      197.221558 138.821747 77.2113953 13.102519 142.820679 197.228394
      155.619888 0.980041862 0.105770878 0.473083436 9.83078003
      3.2911396</_>
    <_>
      100.516541 115.994896 76.4899139 47.6370392 107.561287 118.221443
      554.459229 0.91531378 0.0149010038 0.172119945 13.1942577
      12.9991789</_>
    <_>
      217.072906 164.612122 157.374664 38.8652534 67.5600281 217.108292
      221.816788 0.981775284 0.298823476 0.589523077 7.94884539
      3.64638042</_>
    <_>
      182.422531 129.106323 85.5537491 15.8977203 131.873901 188.768555
      160.952469 0.985097945 0.155609444 0.447973758 9.96810913
      3.88653111</_>
    <_>
      208.077225 190.937805 164.035538 13.0025911 54.4760857 208.085861
      213.594864 0.982059538 0.303840876 0.553193808 8.33585835
      3.86460996</_>
    <_>
      209.19928 167.021744 136.326584 9.68869591 85.7678757 209.222778
      266.100128 0.979814887 0.346711338 0.593043327 7.76975441
      4.10926485</_>
    <_>
      197.513992 152.309525 144.878235 16.9423637 71.4334564 197.936768
      173.397903 0.987551272 0.313848436 0.559862494 8.23391056
      3.95964122</_>
    <_>
      156.897141 169.809494 70.6571045 36.3127785 165.800598 170.102875
      466.15097 0.950212955 0.0236292463 0.188420072 12.9725943
      11.1619358</_>
    <_>
      220.101563 170.027802 122.120758 12.6388311 104.507774 220.132736
      150.18129 0.985016048 0.248334229 0.598656952 7.60224676
      2.76313257</_>
    <_>
      87.1865997 96.6851883 40.3781891 36.3560257 161.799088 97.2126923
      251.657654 0.953567743 0.0206924938 0.255477965 12.3195992
      7.80194998</_>
    <_>
      202.359756 129.190186 114.39431 5.80269432 105.915001 202.364777
      236.240311 0.980309963 0.200251967 0.501130939 9.31495094
      3.96712852</_>
    <_>
      183.971924 149.468857 132.977676 56.2561188 73.0183716 184.511581
      121.547905 0.989085555 0.109399825 0.502960086 10.0998487
      3.55178976</_>
    <_>
      105.62558 122.52256 60.1694832 33.7694931 140.006317 122.687538
      1219.22034 0.86497122 0.100547783 0.211037889 12.8395681
      21.8826065</_>
    <_>
      206.368835 177.733398 160.050766 11.4915495 57.0177383 206.416718
      123.443329 0.990041852 0.281283975 0.561632693 8.53730774
      3.11032581</_>
    <_>
      119.937759 154.944794 98.8590393 48.0149078 117.869423 159.271118
      488.952118 0.834521294 0.0605159067 0.162562937 12.7081604
      13.8391657</_>
    <_>
      203.226242 154.118774 134.374695 10.7467718 84.4196625 203.238678
      248.762833 0.979611695 0.244224772 0.473176509 9.28839111
      5.12177706</_>
    <_>
      153.723846 153.128922 156.155197 60.6931 47.7872696 171.428207
      98.5056076 0.987753332 0.097592406 0.402577013 10.6845465
      4.2347455</_>
    <_>
      173.598892 147.874695 115.843971 9.4168129 100.196846 173.601288
      235.938034 0.986620307 0.31583944 0.553891003 8.48202801
      4.23624659</_>
    <_>
      191.634048 147.299545 138.341904 22.8425541 77.9839172 194.246368
      277.848083 0.981574416 0.359537542 0.53617394 8.19489765
      5.52270174</_>
    <_>
      187.018692 139.749603 111.973373 26.7439213 95.8942337 187.093109
      214.839188 0.978844464 0.125708565 0.434091568 10.1700506
      4.41357708</_>
    <_>
      154.250198 134.77005 122.697365 21.5602283 80.1865463 154.404617
      122.25106 0.992955863 0.106151141 0.539413214 9.81089211
      3.66537881</_>
    <_>
      90.0048599 120.874306 60.7445374 47.870079 161.767715 125.013474
      3616.60278 0.539305508 0.0572098345 0.113973998 14.0593271
      40.0939293</_>
    <_>
      206.765305 163.732559 122.27948 20.6249199 100.118645 206.883591
      119.270157 0.989486516 0.123666227 0.549516797 9.48089027
      3.09771371</_>
    <_>
      193.204773 152.16835 137.152649 9.08583832 77.3300018 196.394516
      238.50676 0.980330646 0.293106019 0.528281271 8.3337059 4.3073349</_>
    <_>
      196.546738 162.584183 142.09993 11.3377514 73.0176773 196.563278
      243.235184 0.981365502 0.285639614 0.501768827 8.98412132
      5.87540054</_>
    <_>
      204.552856 146.981384 136.37352 13.738122 84.890625 204.595398
      212.56134 0.984696269 0.321116745 0.560879052 8.23082161
      4.04348183</_>
    <_>
      184.244537 141.613327 118.447487 34.8538933 90.2029419 184.281052
      199.480087 0.982656002 0.108865194 0.484726936 10.2284546
      3.6188941</_>
    <_>
      188.41452 152.946686 98.4414291 17.0002995 117.835342 192.727234
      151.826691 0.984701514 0.194853455 0.501966059 9.02953243
      3.86513042</_>
    <_>
      173.512299 119.023376 94.2793961 12.5696154 117.239899 173.512375
      99.7047577 0.990381777 0.0940437689 0.421062648 10.8044033
      3.71552682</_>
    <_>
      176.385483 117.75869 104.621132 12.1927414 111.918945 176.394058
      272.121918 0.982222021 0.161619902 0.440029889 10.2864723
      5.91667986</_>
    <_>
      197.818771 150.88179 146.084305 7.33946514 68.9691696 197.840866
      138.287338 0.990640521 0.259412616 0.584780216 8.70935249
      3.0823791</_>
    <_>
      169.500793 147.424606 137.121048 7.58085537 65.8181763 169.601761
      264.950684 0.985390425 0.386031657 0.59032011 7.69565296
      4.29382229</_>
    <_>
      121.377892 158.215927 124.491692 60.3984756 153.06752 181.53595
      935.378784 0.78785038 0.0614913031 0.269360095 12.4494972
      17.0129719</_>
    <_>
      152.754166 110.234337 108.48278 35.4927864 87.8397675 152.785355
      220.096252 0.984972 0.19111532 0.457759351 9.75302792 4.3832078</_>
    <_>
      208.421173 180.554565 156.579437 13.278141 60.8488503 208.584625
      136.324554 0.987773359 0.314595193 0.572991371 8.10124397
      3.18938184</_>
    <_>
      194.158875 158.263367 132.504471 14.1569872 85.449379 194.214737
      156.520798 0.988810301 0.22525315 0.552286804 8.56365776
      3.60319901</_>
    <_>
      98.2108154 118.000977 83.8758545 50.9884987 111.54335 123.026146
      706.005493 0.888785183 0.0413078628 0.186449245 13.1119404
      14.6928453</_>
    <_>
      204.718292 154.931976 126.351364 9.81461239 91.2070313 204.785294
      176.193924 0.983659685 0.22363992 0.469903201 9.45233154
      4.85740328</_>
    <_>
      204.173508 161.797775 147.146622 5.5675621 72.7125549 204.184158
      242.470688 0.982972026 0.396214873 0.59962374 7.49374819
      4.19702911</_>
    <_>
      85.0671997 107.163986 62.4140244 46.4809456 136.408417 107.936707
      1221.79297 0.88385731 0.0811301619 0.180561915 13.0899582
      19.9665871</_>
    <_>
      190.008545 126.978058 127.070709 67.2389603 88.9798508 190.030197
      146.198456 0.988956869 0.20723629 0.522062898 9.27086163
      3.70017219</_>
    <_>
      183.276352 161.557602 143.02005 51.6835747 62.7120323 187.204468
      278.193604 0.974204123 0.111898892 0.367460817 10.997776
      6.55275059</_>
    <_>
      60.1069832 107.920258 30.8525581 51.5742569 199.032944 111.694992
      407.008179 0.939889371 0.0176288467 0.180406004 12.7831926
      10.3692541</_>
    <_>
      201.571182 143.651825 117.289345 7.16193008 102.127533 201.577667
      270.692139 0.976223648 0.257810593 0.459899485 9.03073311
      5.63599062</_>
    <_>
      108.571808 121.417351 69.8490295 32.2721405 130.454712 121.732582
      1097.24182 0.901937425 0.0984454751 0.281928867 12.3340244
      18.2396507</_>
    <_>
      205.400192 196.374741 180.727463 17.6273327 35.5361137 206.212036
      271.871277 0.981279612 0.515006661 0.706040919 5.99554873
      4.13977432</_>
    <_>
      100.076492 124.019012 108.861786 70.8140717 73.8658752 131.703766
      194.39856 0.926530838 0.0632894039 0.329163343 11.4342947
      6.45858002</_>
    <_>
      192.51503 139.350769 114.040161 13.4817247 98.8825912 192.712051
      289.900391 0.974029243 0.160597205 0.403601468 10.2424879
      6.41671991</_>
    <_>
      152.126282 155.177475 110.690353 39.6317978 82.9896164 156.39035
      185.060562 0.981939256 0.108313076 0.460592955 10.3402834
      4.40280676</_>
    <_>
      201.782013 169.581848 143.18959 9.74593449 72.3075562 201.787292
      281.552216 0.975090384 0.25545761 0.463036656 9.31342506
      5.52544451</_>
    <_>
      194.441528 164.464798 117.081673 16.4649239 96.3710175 196.90155
      205.009842 0.982227564 0.219951943 0.498918027 9.27273083
      4.00276279</_>
    <_>
      218.432053 170.320465 135.824432 19.5866756 89.1285858 218.50444
      160.810944 0.985266745 0.174799129 0.676128864 7.67357445
      2.50136137</_>
    <_>
      185.455215 136.34108 122.918167 10.0173588 89.1889114 186.224335
      266.093353 0.980788052 0.298342943 0.508651435 8.52034378
      4.63506985</_>
    <_>
      207.617386 149.974304 116.76915 46.5146866 104.7556 207.982925
      126.151787 0.987144589 0.130726814 0.642766714 8.55985832 2.639534</_>
    <_>
      188.360764 153.738998 114.019272 14.6295242 97.7191315 190.939987
      250.083405 0.980206907 0.253633529 0.49612686 9.12587833
      4.55205011</_>
    <_>
      195.00145 178.928711 146.554535 10.5392618 70.4620972 195.014069
      205.062439 0.985263109 0.432300091 0.686608911 6.84278059
      3.20329523</_>
    <_>
      176.97435 119.476341 103.468849 33.968689 110.994041 181.787643
      115.859627 0.9881441 0.0928585976 0.358319014 11.1490755
      4.49735737</_>
    <_>
      72.3226471 126.854652 54.6470413 56.0432663 207.758011 133.623093
      482.375305 0.945357382 0.017632449 0.236579567 12.9408703
      11.1546288</_>
    <_>
      173.661209 141.573044 136.072083 14.7642298 75.4777374 174.362747
      247.605499 0.987230778 0.389803976 0.662552416 7.12846613
      3.72165275</_>
    <_>
      192.039597 131.42215 122.865555 12.0277023 86.5599518 192.045441
      198.781647 0.98797822 0.325885028 0.579517901 8.0053072 4.18159437</_>
    <_>
      171.048645 152.618469 124.956573 18.5791607 73.8095932 171.55658
      164.096588 0.989758253 0.198467374 0.499373496 9.68769741
      4.0674448</_>
    <_>
      200.222534 167.931381 120.593315 13.6510878 97.6771927 200.261459
      243.389008 0.976865888 0.21916756 0.509022653 9.15147209 4.3966608</_>
    <_>
      212.8125 166.748718 124.256157 9.48258114 96.5205307 212.820877
      318.227753 0.974680364 0.312403202 0.526129842 8.23743343
      5.44807005</_>
    <_>
      143.869034 109.186958 88.4508362 28.9709415 108.11689 148.307281
      143.736954 0.985969603 0.118248612 0.391422063 10.6241064
      4.76325274</_>
    <_>
      103.333466 126.145988 103.352341 58.8289833 105.551575 137.767365
      869.003113 0.863217413 0.0725947991 0.301569998 11.9101114
      15.1847372</_>
    <_>
      177.718155 128.709961 100.176857 14.8622847 105.092651 178.347122
      102.460884 0.985843003 0.0972682312 0.417231262 10.6444569
      3.68233514</_>
    <_>
      201.168015 175.183212 140.479309 12.0265865 75.9295502 201.173523
      204.350494 0.981725872 0.259159923 0.565958679 8.57535553
      3.3545804</_>
    <_>
      192.546814 148.721237 118.388931 9.99410057 93.1396103 192.561157
      382.079224 0.968665659 0.213318855 0.400557607 10.1377916
      7.83916569</_>
    <_>
      220.390503 190.528564 146.534821 10.5764112 78.7168198 220.395309
      199.692825 0.98209244 0.346878797 0.617826998 7.43762589
      3.04512334</_>
    <_>
      221.610931 189.156509 129.349213 12.358777 96.4631271 221.615768
      211.412201 0.980169713 0.315926731 0.600437522 7.33540058
      3.06294036</_>
    <_>
      205.305557 162.817307 125.485832 11.5547676 92.9054337 205.311264
      285.659668 0.976534128 0.165637568 0.423542172 10.3035545
      5.75746727</_>
    <_>
      167.101257 137.77832 130.846863 35.623764 73.8587952 171.186523
      238.896194 0.985265255 0.295250416 0.571088672 8.48085976
      4.39091539</_>
    <_>
      196.729568 145.601761 131.216095 7.09998798 86.4765015 196.741913
      246.619232 0.981749356 0.273432165 0.485876977 8.96976662
      5.25892878</_>
    <_>
      200.263306 159.664932 135.085831 12.0925341 80.3598328 200.3078
      102.760246 0.991023004 0.189384371 0.470864445 9.54880428
      3.31374121</_>
    <_>
      177.023849 142.587357 123.701508 16.4198627 91.7471924 182.44783
      254.17012 0.984129429 0.314702272 0.573336005 8.30352211
      4.34577179</_>
    <_>
      182.023758 122.706116 119.173035 96.836937 97.6998138 184.576691
      279.769745 0.97946316 0.147580609 0.454389721 10.2465029
      5.64235687</_>
    <_>
      142.364532 102.664703 106.329643 115.73912 95.4613953 143.019653
      226.347229 0.985397041 0.141193017 0.538514256 9.88383102
      4.05611372</_>
    <_>
      190.899887 143.560623 127.804047 7.74433994 90.6574249 190.911499
      167.542084 0.989746571 0.286302775 0.574647903 8.70563889
      3.83768415</_>
    <_>
      207.423126 142.125061 97.8846664 18.9907932 119.624542 207.454819
      257.623047 0.97428143 0.138306841 0.406107426 9.65547848
      5.50250244</_>
    <_>
      215.42247 171.177536 143.969269 9.32521534 79.4116516 215.430298
      215.476273 0.980821431 0.254510373 0.547269642 8.81027031
      4.05327129</_>
    <_>
      192.305328 161.382767 139.527924 47.890564 71.4078064 192.418289
      192.596619 0.984686613 0.17154327 0.577713251 9.25180817
      3.21428561</_>
    <_>
      200.774918 177.732941 159.634552 11.7175541 49.5891876 200.79425
      174.467133 0.983738422 0.239751101 0.50103581 9.12702656
      4.62223721</_>
    <_>
      198.351807 155.935532 143.90033 26.4708233 73.9926224 200.326569
      214.938522 0.984046161 0.292567313 0.539110065 8.57294846
      3.95577765</_>
    <_>
      170.219452 114.493561 64.1051102 12.9573107 137.357956 170.452667
      68.9718094 0.991176069 0.0960977077 0.42486766 10.6196642
      3.29700518</_>
    <_>
      198.440063 186.468185 169.867691 29.9761047 39.6361618 200.177155
      123.476555 0.988536477 0.255659193 0.608353555 8.31202507
      2.59755373</_>
    <_>
      184.188477 152.728058 129.588074 11.9555368 71.4523849 184.25946
      275.718903 0.978232443 0.295601934 0.512665689 8.73670959
      5.57561255</_>
    <_>
      205.262131 138.937256 116.692322 6.37344551 103.347221 205.268082
      257.097961 0.976777971 0.244951472 0.464516133 9.06103611
      5.25384378</_>
    <_>
      174.472015 121.410454 97.9118881 11.0797195 106.085938 174.475693
      175.864731 0.982543111 0.141879976 0.373087287 10.5419922
      4.93143415</_>
    <_>
      46.8892899 63.4916077 27.085659 42.5238571 172.890121 63.5407181
      842.598267 0.895133317 0.0943141952 0.369219959 10.9753952
      11.7368069</_>
    <_>
      193.737045 160.052841 125.007416 11.4598808 94.8687592 193.760864
      212.055069 0.984523177 0.324912608 0.498173267 8.74357796
      5.71138287</_>
    <_>
      170.971832 125.439095 111.481087 7.0834465 90.2391968 170.976944
      208.988602 0.980945945 0.140544951 0.430022746 10.2534552
      4.6743474</_>
    <_>
      205.132568 159.288559 156.678696 31.6942368 63.8510628 205.311203
      232.939377 0.984742403 0.3821069 0.599726498 7.58939743 4.58223915</_>
    <_>
      216.645966 181.386902 134.869415 12.8702765 88.6610336 216.652618
      195.438263 0.982063293 0.271149278 0.572863042 8.21939945
      3.36923456</_>
    <_>
      190.134918 154.562393 123.140724 22.4882622 91.6038513 190.287048
      110.493515 0.991038501 0.105591908 0.553815484 9.69037724
      3.17897177</_>
    <_>
      182.189072 132.970703 125.929626 8.10616589 90.1525269 184.160858
      276.157532 0.9833076 0.323349386 0.554345727 8.17481899 4.49753761</_>
    <_>
      170.591583 142.168945 140.113602 48.3667679 52.0245132 170.603775
      201.584961 0.984710813 0.233579993 0.460866421 9.57207298
      4.93477726</_>
    <_>
      219.980972 172.88887 133.490051 17.8066597 91.9684677 220.096375
      119.470093 0.988302052 0.148547724 0.692833722 8.11187553
      2.23298359</_>
    <_>
      216.491165 180.476044 147.914398 9.57678986 74.5999298 216.500046
      169.512314 0.984692812 0.376124501 0.638199389 6.86469984
      3.18187451</_>
    <_>
      164.340439 151.642334 139.387955 12.3047075 52.8583794 164.560074
      213.48642 0.988882661 0.381691664 0.590992033 7.69902706
      4.35766315</_>
    <_>
      183.106461 127.125076 115.111229 7.43221855 99.1262741 183.111603
      217.678436 0.983705878 0.205114216 0.513001621 9.23350143
      3.6153307</_>
    <_>
      198.445007 167.348938 107.858437 14.4120893 111.839188 198.457687
      314.465607 0.976322293 0.215932921 0.463203162 9.65156269
      6.18413687</_>
    <_>
      212.975998 165.664063 118.343414 15.6877985 103.915695 214.206711
      168.587021 0.982251763 0.211028308 0.556566954 8.28642845
      3.20958114</_>
    <_>
      158.142853 158.667557 107.125656 25.7098217 106.915993 159.222839
      131.367538 0.986874044 0.163530022 0.564551115 9.47800636
      2.45237422</_>
    <_>
      178.723434 138.66452 119.599709 8.78120995 83.5168381 178.739532
      289.898529 0.970781863 0.191895232 0.379582882 9.87079811
      6.50016022</_>
    <_>
      195.173523 137.44455 124.978996 9.5778656 90.2466125 195.205353
      279.963379 0.976787031 0.233087286 0.44528839 9.491889 6.35099697</_>
    <_>
      134.65712 89.4945221 40.0936089 21.5640736 138.207932 134.821747
      55.1636162 0.995136857 0.168129131 0.490795165 8.88154125
      3.07993674</_>
    <_>
      210.639389 171.408524 157.501755 10.215661 63.9498558 210.707611
      139.910477 0.989418626 0.368710846 0.607236683 7.60749722
      3.46945071</_>
    <_>
      194.621628 168.512589 140.097137 10.5003185 79.1105347 194.646332
      190.392258 0.986872613 0.395622134 0.571905494 7.71286392
      4.58340025</_>
    <_>
      211.706238 172.512222 155.202744 30.7019501 66.780014 211.806335
      169.446228 0.986998498 0.227404088 0.598813474 8.73071575
      3.60854411</_>
    <_>
      187.925186 157.86438 88.1644592 23.971899 127.562141 194.517654
      85.6351471 0.989479184 0.125713482 0.60636425 9.06608295 2.2722013</_>
    <_>
      212.898422 173.929276 139.225113 16.9586658 83.8100281 212.944611
      193.192429 0.982961953 0.293273032 0.621089756 7.8656106
      3.09016657</_>
    <_>
      173.151901 140.59523 133.862122 8.15397835 77.6766205 174.120895
      272.544891 0.985669613 0.385740757 0.630941212 7.394104 4.11937475</_>
    <_>
      198.175018 159.217133 107.066727 15.4117508 109.823265 198.875366
      175.184082 0.984075427 0.191375837 0.477056146 9.29765034
      4.18912172</_>
    <_>
      174.639496 142.303696 128.824615 17.9709816 83.9167328 179.543427
      221.844986 0.987089157 0.308939785 0.600361824 8.1732502
      3.74213243</_>
    <_>
      163.145493 157.237823 160.017502 62.9165955 40.1652794 176.022598
      110.242531 0.986130178 0.0968801826 0.423101544 10.4541769
      3.90164566</_>
    <_>
      219.371613 167.515503 138.212036 13.6766586 87.8575592 219.460327
      174.743256 0.985148907 0.296176046 0.615526199 7.50146627
      3.10808372</_>
    <_>
      55.3298988 66.5977936 41.2738762 51.0427704 172.3535 67.4398499
      474.236633 0.957533658 0.0549194477 0.409382939 10.7679062
      7.86741257</_>
    <_>
      57.3163681 100.195236 31.10499 47.9496384 178.892166 103.701096
      659.238342 0.913654327 0.0792210996 0.244236633 12.3077955
      11.8437901</_>
    <_>
      173.340881 157.399628 151.517365 12.8035116 46.6914673 173.461929
      228.337021 0.98769629 0.342346281 0.609431863 7.9621954 4.29522324</_>
    <_>
      173.437485 156.9422 109.865334 29.6704197 89.5488663 173.771408
      114.679794 0.987676322 0.106770284 0.509171128 10.1318207
      3.29402232</_>
    <_>
      202.367386 163.796021 118.767761 13.3648558 100.795059 205.848038
      178.092789 0.983038962 0.258819133 0.588851333 8.00842476
      2.99933934</_>
    <_>
      186.665375 136.807861 91.58992 17.9281731 111.541771 187.05365
      79.4534149 0.98625958 0.1062769 0.636718214 9.00740719 2.28849697</_>
    <_>
      208.772934 192.626434 149.790573 14.3654938 71.1229095 208.79245
      201.755524 0.981835544 0.357782722 0.630243063 7.26510096
      3.18205476</_>
    <_>
      201.815796 166.523193 145.728149 8.8186388 68.1238861 201.829086
      197.313797 0.983463585 0.300156027 0.533744037 8.50286674
      3.87578082</_>
    <_>
      219.302322 163.076965 104.623428 14.8810787 121.669899 219.339706
      137.551422 0.984369576 0.167107001 0.559092343 8.46417427
      3.12610102</_>
    <_>
      102.322144 117.321472 77.3602753 52.4465065 110.393593 119.179192
      299.948425 0.963612974 0.0846592039 0.356211394 11.6783447
      6.73874903</_>
    <_>
      189.926315 179.539566 163.315109 37.3109436 38.543705 192.051285
      367.158691 0.968571782 0.184569865 0.429519802 10.0913916
      7.3134408</_>
    <_>
      197.584137 180.08815 136.285141 17.8437691 77.7914352 197.597
      243.42009 0.979855239 0.214795828 0.555480719 9.13099957
      3.92604899</_>
    <_>
      172.409241 131.386612 103.062462 32.0978546 93.4597397 173.005493
      319.33847 0.960059583 0.0948945433 0.249867916 12.0209713
      9.11162758</_>
    <_>
      205.268555 149.425568 119.950752 9.71972656 100.694153 205.856125
      187.6427 0.984420538 0.267296821 0.5968647 8.17930031 3.57495189</_>
    <_>
      189.582642 156.94043 122.227562 19.1548157 95.199913 199.698761
      208.417023 0.98255378 0.222282723 0.528960049 9.21358204
      4.10103703</_>
    <_>
      84.658165 110.139671 27.3192158 39.516922 199.070068 110.538879
      792.916443 0.927577436 0.0833930671 0.235518023 12.6300983
      14.6255007</_>
    <_>
      187.536469 149.254898 124.534279 35.3951874 84.7723999 187.568878
      189.30455 0.983696759 0.133560315 0.546215415 9.75417423 3.1940062</_>
    <_>
      150.126999 163.95575 47.9633675 33.1346474 192.643677 164.004608
      184.640793 0.974060118 0.0310171768 0.279324532 12.2951002
      6.84082699</_>
    <_>
      91.4453735 103.304108 40.288105 36.6744652 157.01033 103.525314
      435.964325 0.947360098 0.0766934901 0.277118832 11.9488831
      9.24131203</_>
    <_>
      199.385223 164.690567 129.896698 11.5368299 90.2829056 199.415558
      207.621719 0.983718753 0.326134443 0.511554778 8.48902607
      5.2090807</_>
    <_>
      148.182053 119.774353 101.651207 45.9974289 70.9224701 148.182114
      104.859848 0.991404057 0.0980218649 0.339574993 11.4178295
      5.286695</_>
    <_>
      190.172211 158.84848 131.192368 23.9451923 78.4690704 190.455399
      209.32576 0.981187046 0.126692399 0.52196604 9.77411842 4.0566144</_>
    <_>
      190.780151 156.540298 134.754486 38.485569 75.3806992 190.807098
      187.054077 0.984632075 0.146115869 0.573230684 9.45563316
      3.17915201</_>
    <_>
      171.233841 136.479248 124.663208 11.9356661 75.3303604 171.246201
      239.664398 0.982152879 0.228562966 0.436885983 9.64954662
      5.94911098</_>
    <_>
      212.35701 144.664169 101.572601 15.5513391 121.578445 212.388336
      209.410828 0.976923525 0.142111048 0.466651082 9.48562241
      4.34673309</_>
    <_>
      220.921295 184.378723 145.384033 10.8576412 81.2351151 220.931702
      217.148224 0.981152654 0.369216472 0.574987054 7.681283 4.06025791</_>
    <_>
      67.181282 136.611115 51.8601723 57.0556259 196.240509 139.404541
      327.557404 0.939250171 0.0351512171 0.25143382 12.5000162
      9.14650059</_>
    <_>
      188.625443 135.877335 137.236206 86.548851 75.4126511 188.627869
      335.2435 0.974829912 0.215223908 0.431484461 10.2477684 7.16229582</_>
    <_>
      193.409882 158.436646 143.458313 10.3695993 60.4606972 193.43222
      121.246414 0.991960883 0.227561221 0.551082611 8.89148808
      3.26439381</_>
    <_>
      144.195435 160.514328 53.8116837 37.6883965 174.065704 162.052551
      83.3973999 0.97558862 0.0276708435 0.320182115 11.4094114
      4.80419207</_>
    <_>
      201.036255 157.185791 130.444977 13.5741386 81.7305069 201.0383
      98.8122177 0.989410281 0.0989805609 0.586180389 9.41907883
      2.34889483</_>
    <_>
      98.5221252 106.225922 31.3141537 34.78125 170.6147 108.114914
      631.609436 0.907129347 0.0791562498 0.168093652 12.9346189
      14.3746796</_>
    <_>
      124.143257 136.866364 36.6458664 34.6960716 196.490753 139.399109
      130.856949 0.974111199 0.0140376557 0.143065587 12.7970009
      7.81894636</_>
    <_>
      109.906792 131.435165 55.3633423 35.5217018 154.686722 131.65741
      753.720154 0.920588672 0.0871903971 0.229576558 12.6162605
      12.8295965</_>
    <_>
      202.814529 160.887955 150.154083 7.85580778 67.0888062 202.835205
      213.618317 0.983532071 0.356991827 0.561738789 7.71711588
      4.40066481</_>
    <_>
      208.641846 150.633804 99.9890976 14.311882 121.297134 210.159714
      114.92981 0.985780656 0.129094079 0.556693614 9.05845165 2.8026104</_>
    <_>
      172.594193 132.674942 125.200676 9.8320713 91.0515594 174.5177
      237.552338 0.987669528 0.3654342 0.657318711 7.35498333 3.89750171</_>
    <_>
      207.236115 177.55307 145.864731 17.2164173 74.9783173 207.475327
      250.79863 0.979638577 0.33186695 0.588213027 8.10382557 4.64431858</_>
    <_>
      211.824158 159.480865 120.213173 11.4671154 101.718811 211.841995
      199.7052 0.980927348 0.180646926 0.515456557 9.38765907 3.83311987</_></support_vectors>
  <decision_functions>
    <_>
      <sv_count>10</sv_count>
      <rho>0.83574388322371829</rho>
      <alpha>
        2.4390158446134316 1.0483035563788463 -1.3611430082884259
        -0.81809108818021892 -0.098531718195469492 -0.35132989443002766
        -0.089818968335484778 -0.35900703760958663 -0.11101106087206264
        -0.29838662508100194</alpha>
      <index>
        56 206 2 3 247 248 100 177 180 45</index></_>
    <_>
      <sv_count>6</sv_count>
      <rho>1.4019984684498201</rho>
      <alpha>
        8.0628764075552155 4.6905881204317232 -2.7795343024496866
        -0.074064389449940857 -3.9274057275545449 -5.9724601085327604</alpha>
      <index>
        56 206 191 132 223 152</index></_>
    <_>
      <sv_count>49</sv_count>
      <rho>0.94785420342845761</rho>
      <alpha>
        1.0197518956672893 1.3385424004971025 0.20273114953491572
        -0.025939247483420462 -0.019091163220978813
        -0.00091683654234216117 -0.0055301317093799842
        -0.0040840803949329652 -0.018692118899520434
        -0.0060804747144603058 -0.032993977606952794
        -0.044446043490755927 -0.032352791269305022
        -0.010597090500121186 -0.012773618550018073
        -0.033614200662240579 -0.021408314469946232 -0.12669510336575601
        -0.0040448013848662064 -0.052101107290672355
        -0.029392824166126423 -0.037505108685829805
        -0.014752119356363252 -0.11115776420579454 -0.052145768708274975
        -0.041463820736608904 -0.042370984210287954
        -0.036525937669513453 -0.024054872743303667
        -0.025257056710421198 -0.028346484658750136
        -0.038255108860636988 -0.019954105693297714
        -0.032583617303024469 -0.0037897396542661715
        -0.024336322517004412 -0.026169720045872528
        -0.015179651391463433 -0.043875185342442558
        -0.0066908878353707409 -0.014530202754911336
        -0.60138804866841977 -0.28246371077307519 -0.0099706791804957482
        -0.020320595811899399 -0.0021137782492557933
        -0.0039211923371681844 -0.052101000042566348
        -0.46904805583119519</alpha>
      <index>
        9 56 206 0 116 16 17 143 24 28 168 136 34 35 99 36 118 41 58 59
        161 62 140 68 125 97 79 76 111 220 221 87 88 192 146 71 235 21
        148 83 246 150 249 251 105 253 84 94 103</index></_>
    <_>
      <sv_count>10</sv_count>
      <rho>0.66239028968373126</rho>
      <alpha>
        1.9103488209123061 2.3414108498935771 -0.50602137118853951
        -0.011647700793977783 -2.5007395548099711 -0.28358945973811817
        -0.14189332804113769 -0.36047466061400846 -0.24253006784962519
        -0.20486352777050343</alpha>
      <index>
        56 206 187 213 131 234 107 250 158 166</index></_>
    <_>
      <sv_count>8</sv_count>
      <rho>1.3640712932972008</rho>
      <alpha>
        4.9052088415743293 3.8489460595234153 -1.8403344871746763
        -0.16990046960810087 -1.188463736142078 -1.9713594335621629
        -0.55119256216731249 -3.0329042124434165</alpha>
      <index>
        56 206 167 197 124 18 6 164</index></_>
    <_>
      <sv_count>60</sv_count>
      <rho>0.89753874912877585</rho>
      <alpha>
        62.5 62.5 0.88990249340512206 2.3970891263728458 62.5
        0.10839668227872944 2.2177274158867819 7.0754928334274014
        8.2545842559702347 43.094503539799497 9.1106085036803872
        25.548231909792129 62.5 62.5 0.49460245192713059 62.5
        18.263617119895137 42.919396461546917 3.3600253031976308 62.5
        62.5 62.5 0.85238516522822305 9.4239149040360353
        2.6071686163322139 1.2544580605159272 9.1598882340678554
        11.406469927313889 37.558243628122007 13.00712426960191 62.5
        62.5 -5.2734552990249535 -0.10497260373943344 -62.5
        -13.413918297525539 -39.182400252319013 -4.208771044391626
        -53.786275995743971 -62.5 -13.853296763126577 -62.5
        -23.102260333888097 -62.5 -8.8456439146084787
        -6.4914845662465215 -12.103316884354129 -20.025432724309109
        -62.5 -12.154573350185062 -6.4561596948454021 -62.5
        -54.025682303695199 -5.0812223567460277 -9.3079028333794103
        -27.207991057123305 -59.37907062714622 -62.5 -62.5 -62.5</alpha>
      <index>
        2 57 247 98 8 100 13 101 256 106 114 117 122 127 70 73 74 134
        144 156 163 82 175 178 179 180 186 43 198 45 215 217 184 10 195
        137 210 81 22 135 25 208 31 176 92 93 190 130 37 115 123 48 119
        54 142 133 110 254 66 203</index></_>
    <_>
      <sv_count>56</sv_count>
      <rho>0.69379188508264433</rho>
      <alpha>
        0.16794692594460586 0.17544155332217468 1.2472729489049013
        0.75333683647289185 1.3363223868215137 1.5752765728253821
        0.13612544103194477 0.68924374006795708 0.89975137892651791
        1.238001309272172 1.942072286259245 0.60543614611517993
        -0.15231944353182406 -0.11210604883770756 -0.059311857424484839
        -0.032180588598576289 -0.023982515268814876 -0.11031905077023306
        -0.035594045667128475 -0.19374499619647634 -0.26099417620021131
        -0.19001662763368479 -0.062228571650585492 -0.07501375703848924
        -0.19738802943922512 -0.12803647262522844 -1.3843199752078239
        -0.30594585836583266 -0.17813489845142788 -0.029958162536338928
        -0.42714274281174835 -0.086611142548154635 -0.94118397789180475
        -0.30620807765723695 -0.34541467805059806 -0.24880867489012121
        -0.21448155978495489 -0.095126072485255037 -0.14523597443036981
        -0.16648281970482606 -0.21485491376808838 -0.19882213961647016
        -0.1913363847476218 -0.051390848481363188 -0.45085329661713269
        -0.14290654380608844 -0.15366869346150366 -0.089137831210014687
        -0.40939110515857868 -0.2576414614881935 -1.2776140391715223
        -0.32348145198156286 -0.058574943739420182 -0.11989963306398338
        -0.012418173119234419 -0.30594527083454437</alpha>
      <index>
        95 57 247 98 100 106 114 117 177 180 45 215 0 116 16 17 143 24
        28 168 136 34 35 99 36 118 41 59 161 61 62 140 68 125 97 79 76
        111 220 221 87 88 192 146 229 71 235 21 237 148 150 249 251 105
        253 94</index></_>
    <_>
      <sv_count>16</sv_count>
      <rho>-0.30866081991969135</rho>
      <alpha>
        0.09602558557455966 2.2796285503418652 0.31101132404838405
        0.55093036010447627 1.42686880890566 5.394037233536026
        9.4681553542993999 62.5 10.616959242790767 0.088173816292791043
        -5.9917691690440043 -1.7812311585826996 -6.3133049555285812
        -2.3145526596455333 -61.915409179467993 -14.415523153625108</alpha>
      <index>
        95 3 57 247 106 114 129 177 178 180 219 233 234 109 250 158</index></_>
    <_>
      <sv_count>39</sv_count>
      <rho>0.80694444414800659</rho>
      <alpha>
        10.950397548088855 46.2433419983915 1.9654720997294952
        1.3693637534983141 0.53451798249084304 31.798337216325567 62.5
        24.546531672462017 4.671845911420041 1.2779126850427567
        2.507113805217696 2.2636863583032429 10.351280429193285
        11.163626782411891 0.59238273567457478 11.082758334337205
        1.9749489031782463 13.825132075086445 12.735284797086207
        -7.0921007843270329 -57.608016097515964 -6.8637372444883793
        -9.1429083890542824 -2.1802360929938494 -4.2160966156705184
        -0.63270820304580044 -3.0154269344034956 -4.9792544758271404
        -8.4855594116618676 -62.5 -0.174220593354806 -2.3585860377655359
        -0.19168505560138585 -4.1567104078492001 -62.5
        -0.45277059417729171 -4.3664364018842017 -0.020710383092237186
        -11.416771365225188</alpha>
      <index>
        2 57 247 248 98 8 117 122 127 134 144 162 175 178 180 43 45 215
        217 145 138 96 188 189 147 230 232 141 72 128 55 52 51 241 243
        27 18 209 151</index></_>
    <_>
      <sv_count>56</sv_count>
      <rho>0.66851706582226245</rho>
      <alpha>
        1.9939661131861033 2.4816342425932914 1.4905586776385762
        0.2417123057112994 1.627819416507323 0.7400879780308447
        0.2889017704642744 1.7784056331945801 0.32600907943565544
        0.16834743739785268 1.683446506900411 1.315254370948989
        0.45573841480076283 -0.16489201848587998 -0.12135937977693166
        -0.18062742765044221 -0.051119529904689237 -0.025962111734920607
        -0.11123916945018554 -0.035093237125732264 -0.20971841206399847
        -0.28253995570458884 -0.20747677865345404 -0.067413091259235974
        -0.081183707369916064 -0.21368065687975046 -0.20440623741068428
        -3.3855357926901766 -0.33119911572739613 -0.20200497412558341
        -0.87553621608653076 -0.093653493097910559 -0.33148292864873991
        -0.40373244504070738 -0.26934566433098794 -0.23197697809681225
        -0.12037351964915524 -0.16294419040748181 -0.18194819313348301
        -0.23823695380506493 -0.17895813123711038 -0.20713574586207051
        -0.029635187959270101 -0.27052899825600457 -0.15470224672502619
        -0.16630857643858526 -0.0964962501490748 -0.34552015962134186
        -0.27890756241552811 -0.086530675619673439 -2.5393991888200658
        -0.93755300877159642 -0.062937602957403707 -0.10789356927050003
        -0.013494518639032506 -0.33119834575723689</alpha>
      <index>
        5 10 137 210 77 29 89 32 115 40 50 204 152 0 116 16 17 143 24 28
        168 136 34 35 99 36 118 41 59 161 62 140 125 97 79 76 113 220
        221 87 88 192 146 229 71 235 21 237 148 246 150 249 251 105 253
        94</index></_>
    <_>
      <sv_count>42</sv_count>
      <rho>-2.4095212590394706</rho>
      <alpha>
        62.03704768385267 62.5 9.2676434780095249 62.5 62.5
        60.114741989505418 17.100485727744768 62.5 23.228383146100992
        45.303217092354004 10.825823324240035 3.142213815679757
        57.762033009536339 3.032817003190615 11.498978474620541
        8.889934211368022 6.457437041131552 26.208420649172332
        7.6058827124065687 10.634234989927212 6.3382038821046933
        -16.506268321002242 -7.8463393106528248 -62.5
        -4.1570163717144304 -4.4878013410797655 -62.5 -62.5
        -7.3819378634436328 -6.1950135921431437 -62.5
        -42.032330892150455 -62.5 -3.2191177324958296
        -37.415330482138486 -62.5 -8.7587366407785971
        -14.273053951704926 -17.763400058336696 -62.5
        -2.6648036033669724 -9.2463480699370688</alpha>
      <index>
        11 165 210 78 193 19 81 26 29 91 31 32 190 121 123 239 47 49 204
        119 181 182 187 173 200 213 214 12 20 131 60 234 109 107 90 154
        155 157 250 158 166 174</index></_>
    <_>
      <sv_count>96</sv_count>
      <rho>-1.1917580325564872</rho>
      <alpha>
        22.07688207186678 10.888830502770869 57.352284720837069
        58.083271850173801 1.6058207508233111 1.9979365113021534
        11.070081024598601 3.3339757103562668 62.5 4.0243405932898391
        32.903570928798565 62.5 10.640478361677994 4.9323743293025188
        20.681470199320486 62.5 58.493460390767687 44.250648076523269
        59.847757612372092 40.361289145276523 46.763727727744822
        41.60374512945365 62.5 39.34622585511638 62.5 27.003633114293187
        2.7407777121388639 1.6273181343606262 62.5 62.5
        12.082130270378935 18.395012904982249 20.034805101773223
        20.891000344954751 16.112928095985261 62.5 55.8919637437101
        10.667487354644068 6.6465011156545195 42.009780276212538
        58.667402675622661 1.514779664832429 61.019726464850478
        45.597709688979073 12.893266748500739 -15.849994654504677
        -12.657852476198677 -62.5 -39.812873486657573
        -1.1028056742194385 -62.5 -18.81980844186554 -36.47536746627263
        -10.253249971512634 -15.781228801780982 -7.8481296952680824
        -62.5 -1.228314926448334 -58.779627526104591 -1.632084144784574
        -62.5 -21.872724427583908 -38.767431150574645
        -15.409873363653407 -7.596714394475228 -54.572523423640632 -62.5
        -11.458045751259652 -61.559076997573548 -62.5
        -24.715234783276056 -2.3892999176100753 -3.6025843931004564
        -1.9140966945581459 -62.5 -62.5 -62.5 -62.5 -45.903358601444971
        -2.039659101400666 -0.0086534516885264923 -19.792642498331855
        -3.9977294720845791 -3.5205876551985953 -62.5
        -22.274045349906359 -62.5 -8.0883270729215919 -62.5
        -24.383160221952167 -22.253202968657313 -3.9175323853875677
        -43.537069786841187 -2.8287485618609827 -1.5086133966505142
        -3.4021218169960359</alpha>
      <index>
        257 236 212 199 194 211 184 137 210 77 19 81 22 191 135 26 208
        29 91 31 207 190 115 39 132 123 239 159 222 46 47 50 183 204 223
        226 227 231 242 245 170 63 181 65 152 185 145 138 96 188 189 225
        86 85 80 167 147 120 75 230 196 197 126 232 141 72 128 201 202
        67 64 55 53 52 172 241 38 243 108 124 27 18 15 209 139 7 6 4 151
        164 1 171 169 218 153 102</index></_>
    <_>
      <sv_count>57</sv_count>
      <rho>-0.78034932830113712</rho>
      <alpha>
        0.10926248349219186 0.080416512990399924 0.02353395187701544
        0.017203181785475391 0.076705867517136025 0.025992478253847897
        0.13898125033707573 0.18721714169123252 0.13615288485820345
        0.044629970179624667 0.05380800267864394 0.14159129884030724
        0.097762846648121848 1.7005502720714878 0.027714270905832086
        0.21946259514380489 0.13599060095524004 0.54897332220112771
        0.062130219676617804 0.043710470353462011 0.21965068644056368
        0.16961037291864434 0.17847665340391825 0.1538723631710901
        0.085882537990872726 0.019719118755634139 0.10481663530114399
        0.1192973529124717 0.15259992286101057 0.10737558312440851
        0.13725162154284987 0.013740351304444384 0.084706849610473894
        0.10251039367751227 0.11023104701988455 0.063938795774777055
        0.38686929588551056 0.0097050379981145022 0.18481260295348395
        0.074994237627693125 0.27138018750364684 1.3027881006181239
        0.041759686269550796 0.0865870692964191 0.0089181767722310012
        0.21946211817619321 -0.13402228032310015 -1.8996087134301922
        -1.8046381070424378 -0.29642863406349157 -0.14267738459205387
        -0.86523946415326092 -0.1920629529844132 -0.43153988746420968
        -0.29585116577155363 -1.6146792020274268 -0.6059986295153762</alpha>
      <index>
        0 116 17 143 24 28 168 136 34 35 99 36 118 41 58 59 161 62 140
        68 125 97 79 76 113 111 220 221 87 88 192 146 229 71 235 21 237
        238 148 246 150 249 251 105 253 94 182 187 173 200 213 23 109
        107 158 166 104</index></_>
    <_>
      <sv_count>68</sv_count>
      <rho>-0.53540637077261199</rho>
      <alpha>
        0.23110625084390979 0.17009249203517074 0.52770215539500998
        0.077872641610051474 0.036387612771752342 0.15544884410541809
        0.04917533154088391 0.29361337332122028 0.39604543917016044
        0.30587885461753606 0.095147512212733029 0.11456143606513078
        0.29948647595894345 0.35343837736672157 2.7247505473883735
        0.46419574831866683 0.26932294877860147 0.13227874650478766
        1.0036405033221296 0.12648873265615332 0.37673358663676909
        0.46459365089999 0.50768805119235894 0.37750445138517597
        0.32366250717611261 0.18162241771240384 0.023758380758663433
        0.22978450164175207 0.25613635660468037 0.33710709778721815
        0.19363938579452211 0.29039236218389969 0.044255938365366496
        0.206366540097319 0.21682476544472662 0.23238658334024254
        0.13525983461765162 0.54691852772776606 0.39090584891787455
        0.12349162787732644 0.95768119719713207 1.1214905453146082
        0.085860069233072212 0.217949056779733 0.1361694396322301
        0.020278846439451659 0.46419481428558662 -0.068332448813677171
        -0.099630213764377265 -0.94583002017271001 -0.19028470184260884
        -0.11309905368375688 -0.6748926814590448 -1.1175657496998195
        -0.16133743557300209 -0.40259113085789244 -1.4897715991619174
        -0.60883101639346737 -0.94927881262097724 -0.24146813331025654
        -1.6765995006042607 -1.6712239238225917 -0.29775067119880722
        -1.413698016291471 -0.90358478344690474 -1.4136709213936247
        -1.3729786881305301 -0.47687090678529009</alpha>
      <index>
        0 116 16 17 143 24 28 168 136 34 35 99 36 118 41 59 161 61 62
        140 68 125 97 79 76 113 111 220 221 87 88 192 146 229 71 235 21
        237 148 246 150 249 251 252 105 253 94 145 188 225 147 120 230
        232 72 202 55 52 42 240 172 149 30 27 18 209 171 218</index></_>
    <_>
      <sv_count>49</sv_count>
      <rho>0.29795388141883439</rho>
      <alpha>
        22.968909456262505 10.189431238206996 47.962391327177258
        49.407776892225748 16.207620798977533 62.5 62.5
        11.738281341652938 14.95942685685497 58.63351155424504
        25.204361892437657 62.5 23.197388751833078 28.325419057678669
        62.5 6.9475469395189613 7.8719112825004744 62.5
        34.017440320274112 6.7431646658477744 44.109185331736356
        40.221928182449247 11.936864791623877 23.055572299497221
        13.580184933779186 -4.4507676161319125 -1.3558441607923253
        -29.611083081468589 -18.393267960200383 -62.5 -62.5 -62.5 -62.5
        -62.5 -62.5 -0.6930930069400083 -3.1905065030036237
        -5.4246055826708144 -62.5 -62.5 -0.064431167106262816
        -17.613524975698315 -62.5 -3.5634946948743162 -62.5
        -25.726397628643703 -62.5 -0.21573163329506337
        -11.975569903954202</alpha>
      <index>
        182 187 173 205 213 214 216 20 112 219 224 44 233 109 69 228 244
        90 154 157 250 158 255 174 258 138 96 225 80 147 75 196 126 141
        67 55 52 241 33 30 27 18 15 209 14 139 4 160 153</index></_></decision_functions></opencv_ml_svm>
</opencv_storage>
