<?xml version="1.0"?>
<opencv_storage>
<opencv_ml_svm>
  <format>3</format>
  <svmType>C_SVC</svmType>
  <kernel>
    <type>RBF</type>
    <gamma>0.50625000000000009</gamma></kernel>
  <C>312.5</C>
  <term_criteria><epsilon>1.1920928955078125e-07</epsilon>
    <iterations>1000</iterations></term_criteria>
  <var_count>12</var_count>
  <class_count>6</class_count>
  <class_labels type_id="opencv-matrix">
    <rows>6</rows>
    <cols>1</cols>
    <dt>i</dt>
    <data>
      0 1 2 3 4 5</data></class_labels>
  <sv_total>199</sv_total>
  <support_vectors>
    <_>
      0.835148811 0.66038835 0.582174361 0.0891614854 0.293056041
      0.83528167 0.0167488791 0.990618169 0.416495651 0.769594193
      0.908253253 0.0244754963</_>
    <_>
      0.668566704 0.572659791 0.535284221 0.0558603704 0.257457912
      0.668684185 0.021261612 0.990959167 0.342403144 0.90990591
      0.843704522 0.039051488</_>
    <_>
      0.662734151 0.510110438 0.457211792 0.0849550664 0.338326961
      0.67990768 0.0175216217 0.993014693 0.372857213 0.796726525
      0.916716099 0.023298366</_>
    <_>
      0.39245683 0.486349076 0.42690897 0.393411517 0.28967008
      0.516485333 0.017627323 0.958606005 0.277703941 0.904200673
      0.835239947 0.0405068882</_>
    <_>
      0.703576028 0.433502942 0.390943259 0.0240532216 0.44813925
      0.703590274 0.0129580395 0.993170977 0.332288176 0.808190525
      0.91143316 0.02256166</_>
    <_>
      0.703976572 0.543058813 0.484178841 0.0501230098 0.303238243
      0.71648699 0.0196332484 0.989794672 0.363523602 0.754395008
      0.900095105 0.0265174564</_>
    <_>
      0.778215766 0.656270325 0.422974259 0.0800671652 0.438585043
      0.778265476 0.0249395426 0.987031102 0.309200883 0.906376183
      0.856469095 0.0376741663</_>
    <_>
      0.606771231 0.608959734 0.413225204 0.14248766 0.418790966
      0.611522675 0.0124663673 0.991497755 0.281552285 0.847026706
      0.948905826 0.0153627479</_>
    <_>
      0.672032893 0.480116487 0.420063168 0.0537153669 0.402127087
      0.672105849 0.0190707073 0.990421057 0.326339066 0.850368083
      0.891995072 0.0288416874</_>
    <_>
      0.764871418 0.594485044 0.57313782 0.113621496 0.268637061
      0.766767621 0.0184557177 0.991117656 0.408184916 0.793196559
      0.895498872 0.0278046932</_>
    <_>
      0.83022052 0.6765185 0.608638227 0.17056638 0.261882395
      0.830613077 0.0140659036 0.992471278 0.430367857 0.763518035
      0.919081628 0.0216668006</_>
    <_>
      0.805141926 0.652139008 0.49806571 0.0672241524 0.357061267
      0.805178463 0.0194790997 0.988065958 0.348112255 0.794792831
      0.896129787 0.0270799976</_>
    <_>
      0.732607424 0.572182834 0.562317133 0.379490763 0.265242726
      0.739837587 0.0216075424 0.989445269 0.37337634 0.836795747
      0.876645625 0.0321528651</_>
    <_>
      0.597932458 0.454701185 0.381588966 0.242263228 0.330663055
      0.597933888 0.00849735737 0.995726585 0.249725148 0.944827557
      0.889353156 0.0249739755</_>
    <_>
      0.765386403 0.538998246 0.490113705 0.0532103665 0.353908271
      0.765511215 0.0227862746 0.986658335 0.333513349 0.849581122
      0.848673105 0.0385990553</_>
    <_>
      0.755085528 0.583220541 0.464270324 0.0555227809 0.365253359
      0.755141795 0.030485265 0.982452035 0.287085146 0.954560995
      0.819289565 0.0476817749</_>
    <_>
      0.810844362 0.642088473 0.479527354 0.114582889 0.392622113
      0.811308205 0.0103699556 0.993692219 0.364142925 0.777617097
      0.929096878 0.0183135811</_>
    <_>
      0.832928419 0.741881669 0.53513515 0.196526006 0.339562386
      0.834540665 0.0135678248 0.991717517 0.401740551 0.751534045
      0.917458057 0.0218149424</_>
    <_>
      0.795432389 0.548167884 0.430215597 0.197353423 0.436398387
      0.795799315 0.0113312779 0.992395103 0.345654279 0.762874007
      0.934083879 0.0173946992</_>
    <_>
      0.707829297 0.452454805 0.387384325 0.0356750898 0.457207024
      0.707858562 0.0181141905 0.989233315 0.316227734 0.820359111
      0.910270751 0.0240430813</_>
    <_>
      0.828770041 0.704709411 0.592306852 0.106630325 0.27795431
      0.828836381 0.0125792762 0.992757678 0.427278578 0.708096802
      0.936743855 0.0174527541</_>
    <_>
      0.789889693 0.646064997 0.547576308 0.0573869981 0.295598626
      0.789965928 0.0259761363 0.984023988 0.344344348 0.874012709
      0.838879287 0.0426289253</_>
    <_>
      0.800480604 0.619532645 0.50710547 0.11047291 0.339125663
      0.80062288 0.00779988803 0.994732559 0.338969469 0.759501696
      0.948086739 0.0137471976</_>
    <_>
      0.599035919 0.432291508 0.425422668 0.197182134 0.344469666
      0.599158227 0.0181241985 0.991454661 0.295889825 0.88360554
      0.897431791 0.0264914315</_>
    <_>
      0.69170779 0.461798787 0.410278946 0.0677374527 0.438897818
      0.691741407 0.0222905986 0.990014076 0.298889697 0.935588241
      0.860331357 0.0361607149</_>
    <_>
      0.786837518 0.617044866 0.561749756 0.0553575866 0.281806618
      0.786932528 0.0104540363 0.994136393 0.324902922 0.842538655
      0.923227489 0.0193385649</_>
    <_>
      0.620702982 0.449749738 0.381988823 0.250784576 0.35103026
      0.620703936 0.00826113112 0.996104956 0.253946632 0.930948257
      0.90055567 0.0227278192</_>
    <_>
      0.754960895 0.546473563 0.447216302 0.0748984665 0.387774885
      0.75573355 0.0234228857 0.985283852 0.296779245 0.902188659
      0.844293654 0.0389594026</_>
    <_>
      0.81584233 0.592911482 0.423253685 0.0787408352 0.450028598
      0.827551782 0.0155905671 0.988097668 0.2887761 0.844330251
      0.877412379 0.0297185294</_>
    <_>
      0.81871742 0.755397797 0.587414026 0.0798082948 0.278913349
      0.818793952 0.0159889497 0.989666224 0.452878326 0.653318524
      0.934191406 0.0187980458</_>
    <_>
      0.681811452 0.55876708 0.490126044 0.199762061 0.31802097
      0.696356356 0.0080160955 0.994331658 0.272679508 0.878238678
      0.906569421 0.0212504007</_>
    <_>
      0.716077685 0.552871227 0.53471756 0.117843971 0.312133998
      0.716127336 0.0207114834 0.991716444 0.40533784 0.816275716
      0.877817512 0.0321088247</_>
    <_>
      0.573540568 0.374562651 0.349701375 0.0793534517 0.496026456
      0.577116132 0.0178915765 0.993265688 0.37967521 0.753626168
      0.922970235 0.0222813897</_>
    <_>
      0.803495944 0.871224284 0.662170053 0.137788206 0.346598715
      0.884301305 0.0204091929 0.974068522 0.512893438 0.727084756
      0.834863484 0.0424447469</_>
    <_>
      0.600823998 0.602391362 0.401738971 0.142548889 0.429086477
      0.605155647 0.0131205954 0.990811825 0.279794306 0.847477138
      0.948443711 0.0156430174</_>
    <_>
      0.757717907 0.56411618 0.508694649 0.145244732 0.338149935
      0.766732395 0.0174511522 0.990119219 0.326581568 0.836036325
      0.903854072 0.0250320304</_>
    <_>
      0.774564683 0.597292304 0.568149924 0.0941242352 0.280131191
      0.776222587 0.0144418646 0.992674828 0.411589265 0.75382781
      0.908906579 0.0239269696</_>
    <_>
      0.692011595 0.564522207 0.446697742 0.0959119424 0.383247286
      0.692488372 0.0240302682 0.989047885 0.303552836 0.972481906
      0.83231926 0.0423606671</_>
    <_>
      0.792958796 0.638156295 0.584730923 0.0474508628 0.266188025
      0.798879087 0.0177206118 0.990661681 0.420560926 0.75303632
      0.909386694 0.024217248</_>
    <_>
      0.804441452 0.624661028 0.614426255 0.176079094 0.250396341
      0.805141985 0.0189193618 0.991237223 0.479421198 0.711591661
      0.89941448 0.027760651</_>
    <_>
      0.742567956 0.618581414 0.560681999 0.172721356 0.236843258
      0.745645106 0.0120739909 0.991805315 0.326071441 0.798537016
      0.908557534 0.0227258168</_>
    <_>
      0.818734527 0.667600095 0.502761662 0.068968229 0.367214322
      0.828378439 0.017869154 0.988322318 0.396462858 0.719207942
      0.910856843 0.0239990391</_>
    <_>
      0.722307742 0.598933578 0.508188486 0.0664196461 0.280205429
      0.722586155 0.0219070315 0.987705708 0.360042572 0.825748026
      0.869107068 0.0338544995</_>
    <_>
      0.846551716 0.746503115 0.611033618 0.154255688 0.264487982
      0.846596003 0.0176477414 0.988880634 0.419928312 0.724461734
      0.917553782 0.0227678567</_>
    <_>
      0.60858047 0.571280837 0.543459952 0.226696357 0.242425099
      0.654678583 0.00931814499 0.992121518 0.288448274 0.835404694
      0.916013598 0.0200452432</_>
    <_>
      0.661820114 0.553593755 0.547876835 0.282381117 0.199110031
      0.661859989 0.022747837 0.987903774 0.294591814 0.936465681
      0.842073262 0.039051488</_>
    <_>
      0.775901973 0.609182358 0.436351508 0.0755158514 0.422787696
      0.793997109 0.0205393173 0.98585856 0.330681473 0.818427742
      0.871012986 0.0332579277</_>
    <_>
      0.771488488 0.570987284 0.514572918 0.0394443795 0.339123547
      0.771536887 0.0200296286 0.989569962 0.372395813 0.811210096
      0.8730129 0.0319186412</_>
    <_>
      0.537334025 0.56972456 0.465204298 0.376832545 0.395827711
      0.600118279 0.0490298681 0.970682383 0.321695834 0.95951581
      0.822492898 0.0581378117</_>
    <_>
      0.802816808 0.60757637 0.495495528 0.054525625 0.357674628
      0.803079605 0.014995195 0.990195274 0.3203125 0.852320671
      0.876040518 0.0298486538</_>
    <_>
      0.398159176 0.462764651 0.394287795 0.321187198 0.232412264
      0.467454642 0.0324091129 0.974327385 0.21000284 1.06398213
      0.795137405 0.0550068058</_>
    <_>
      0.779558778 0.496902674 0.439748794 0.0747205392 0.416459709
      0.779588103 0.0209585205 0.986775994 0.288038582 0.879691839
      0.868495584 0.0330477245</_>
    <_>
      0.826754987 0.671599746 0.625266492 0.0484559909 0.244099751
      0.826895356 0.012287396 0.993473709 0.482607484 0.681338727
      0.922408581 0.0204656478</_>
    <_>
      0.73844707 0.544205368 0.498083293 0.0463413224 0.351712316
      0.742841363 0.0206318069 0.990413129 0.389049411 0.778060853
      0.893168449 0.0286555085</_>
    <_>
      0.800680399 0.63450104 0.57704556 0.0309309009 0.28514725
      0.800722182 0.0193958208 0.990310073 0.451077849 0.729059815
      0.910271823 0.0253623482</_>
    <_>
      0.733406663 0.548037648 0.439111263 0.148577347 0.376055807
      0.733698487 0.0180281065 0.98802191 0.287003398 0.875547051
      0.896721542 0.0269118361</_>
    <_>
      0.831919491 0.737371743 0.604486108 0.0575262867 0.270367593
      0.832008839 0.0172970053 0.98977375 0.487933815 0.69030863
      0.890754282 0.0281049814</_>
    <_>
      0.766315758 0.674206495 0.633275867 0.0327344425 0.186235666
      0.766317248 0.0410450026 0.977702975 0.362443447 0.939316511
      0.763317525 0.0669042245</_>
    <_>
      0.670477808 0.491918027 0.437180728 0.0393524803 0.353879213
      0.670497835 0.0175876841 0.988973439 0.278251827 0.899801373
      0.887189865 0.0288617071</_>
    <_>
      0.528067172 0.350958914 0.157229841 0.119800411 0.541991889
      0.528712749 0.00600016024 0.996359646 0.440771222 0.645634472
      0.917263031 0.0186138693</_>
    <_>
      0.596573651 0.608539104 0.434079796 0.220176652 0.325449467
      0.613295496 0.0160822384 0.989429951 0.277562886 0.906756341
      0.890690565 0.0274283309</_>
    <_>
      0.772926807 0.617275119 0.572182238 0.0744362101 0.273850858
      0.773864329 0.0169070307 0.991356969 0.410191834 0.758046746
      0.914032757 0.0232803486</_>
    <_>
      0.820353925 0.634467721 0.440712839 0.101985566 0.429360896
      0.82062304 0.0131938662 0.99133569 0.348548025 0.766510367
      0.928632677 0.0189521946</_>
    <_>
      0.850247025 0.65919894 0.408959359 0.0753701404 0.472223192
      0.850265861 0.0151369311 0.98826009 0.332214803 0.753573656
      0.920689881 0.0210361946</_>
    <_>
      0.769509435 0.606413662 0.538874686 0.0756735206 0.316276431
      0.769653082 0.0213961396 0.989166856 0.402048379 0.790491521
      0.891227722 0.0290178563</_>
    <_>
      0.7812078 0.585556984 0.458081812 0.212001756 0.366433769
      0.783886373 0.0106109865 0.990830779 0.366835952 0.697176635
      0.936389208 0.0168441702</_>
    <_>
      0.811781049 0.632522941 0.597647429 0.0789465532 0.260388464
      0.811820269 0.0138472933 0.99234736 0.406771153 0.746738911
      0.929044425 0.0196088236</_>
    <_>
      0.789313674 0.731079936 0.60976553 0.0751038566 0.236357272
      0.789325118 0.0161875393 0.991177917 0.40680486 0.716392994
      0.938843191 0.0180413201</_>
    <_>
      0.800366402 0.627921581 0.550251842 0.0724944845 0.317708164
      0.800534964 0.019472694 0.989605546 0.41208452 0.746826231
      0.921212494 0.0224075112</_>
    <_>
      0.764748931 0.519942105 0.376870513 0.0820824057 0.483719975
      0.773428798 0.0146808941 0.990403771 0.281945735 0.887554288
      0.889212012 0.0274923928</_>
    <_>
      0.671505272 0.535212755 0.488875329 0.0663092583 0.295413166
      0.671553671 0.0200296286 0.989593744 0.316360861 0.877819538
      0.85200876 0.0363989435</_>
    <_>
      0.770771503 0.637585044 0.557254612 0.0629875064 0.286343843
      0.770836353 0.0201301258 0.989135563 0.382068664 0.828509152
      0.85437566 0.0361406952</_>
    <_>
      0.616490602 0.616733253 0.412849754 0.142976716 0.425022274
      0.619760096 0.0134048685 0.990567625 0.276202142 0.855472088
      0.947702229 0.0159393009</_>
    <_>
      0.668986559 0.557525277 0.54946512 0.268704265 0.204017699
      0.669034421 0.0169526748 0.991017401 0.319198221 0.879517555
      0.879138172 0.0299827829</_>
    <_>
      0.637557149 0.475820243 0.442854881 0.0965861306 0.356420785
      0.637582839 0.021748079 0.989920676 0.320050329 0.871782184
      0.883587182 0.0309256893</_>
    <_>
      0.797402263 0.634098768 0.561307311 0.0662770346 0.297248036
      0.797538638 0.0166776106 0.991730213 0.430566013 0.781134844
      0.899944365 0.0265294686</_>
    <_>
      0.794665575 0.628384411 0.435173452 0.0975458622 0.414910018
      0.796554148 0.0182919595 0.986959636 0.270814627 0.903105199
      0.859826922 0.0340206586</_>
    <_>
      0.700876236 0.543782413 0.469018459 0.0487845019 0.327517033
      0.700939357 0.023617072 0.983146191 0.290995479 0.864615202
      0.83910656 0.0397261381</_>
    <_>
      0.662179649 0.557533085 0.535266042 0.322458714 0.265854537
      0.684797406 0.0151325269 0.99044472 0.255291045 0.948477864
      0.865522504 0.0318405665</_>
    <_>
      0.563788712 0.433953494 0.468621582 0.5938223 0.297361284
      0.563817084 0.0233892538 0.989606082 0.336086839 0.82775867
      0.867825508 0.0353359208</_>
    <_>
      0.564192295 0.428184152 0.346866012 0.160949677 0.423987806
      0.581597149 0.0130465245 0.991301775 0.260787129 0.920568526
      0.874111891 0.0293501765</_>
    <_>
      0.725151002 0.652342498 0.589786708 0.342691839 0.237566203
      0.7450822 0.0104292119 0.993763268 0.309638798 0.844402969
      0.906757355 0.0223294366</_>
    <_>
      0.745627165 0.606127083 0.482904792 0.124934785 0.359230816
      0.746223748 0.00977258198 0.994680166 0.327147663 0.809858143
      0.923774064 0.0191023387</_>
    <_>
      0.851266265 0.645537734 0.617155552 0.215918079 0.264941275
      0.851405084 0.0176813733 0.989643455 0.436639756 0.696087539
      0.921577156 0.0218429696</_>
    <_>
      0.696933925 0.504744947 0.392850429 0.0825682506 0.412128061
      0.699400485 0.00973094162 0.990951657 0.282256246 0.867460251
      0.900241017 0.0230180975</_>
    <_>
      0.830168724 0.711441457 0.51438719 0.0741910711 0.364317596
      0.830303371 0.0163941383 0.989999115 0.394319654 0.777904749
      0.892677188 0.0272661764</_>
    <_>
      0.742852092 0.622896791 0.485895604 0.107318684 0.318628311
      0.751512945 0.0174323358 0.986072063 0.324488074 0.792129159
      0.886726499 0.0283692349</_>
    <_>
      0.82038933 0.654987216 0.534614086 0.0538260862 0.33634463
      0.820481479 0.0207291003 0.988792062 0.434569001 0.72517103
      0.912346542 0.0247978065</_>
    <_>
      0.686182976 0.553591847 0.357488453 0.217088073 0.483266056
      0.708124161 0.0174667686 0.986940265 0.262160152 0.923456371
      0.880989671 0.0298946984</_>
    <_>
      0.635513484 0.608031511 0.574909091 0.223148957 0.207807973
      0.677072644 0.0066235587 0.994238019 0.325473815 0.77588737
      0.935298681 0.0154848658</_>
    <_>
      0.525413752 0.35483858 0.239537373 0.096168153 0.492132336
      0.529177129 0.0148946987 0.988829672 0.206347272 1.0662806
      0.787636518 0.0474795811</_>
    <_>
      0.770216346 0.566377342 0.498816639 0.0411736257 0.333036095
      0.770248413 0.0197501592 0.98631686 0.29827866 0.857268274
      0.86115849 0.0338084549</_>
    <_>
      0.815989137 0.748775661 0.643276632 0.0722366124 0.213631704
      0.816022992 0.0172045156 0.989852965 0.427249402 0.729255021
      0.912000954 0.02345852</_>
    <_>
      0.748627007 0.562982857 0.501192331 0.0430241115 0.355519325
      0.748672545 0.0140550928 0.994028389 0.388751984 0.814363897
      0.912512541 0.0233664326</_>
    <_>
      0.793567657 0.506628215 0.44860515 0.0322371908 0.415352941
      0.793587387 0.018859705 0.989026308 0.311774671 0.832220972
      0.912314594 0.0240030438</_>
    <_>
      0.738467276 0.567802429 0.526154459 0.275044054 0.293973923
      0.758657694 0.0114954356 0.990204751 0.271830589 0.863008618
      0.897199392 0.0244574789</_>
    <_>
      0.827886939 0.727521241 0.589329064 0.0728074983 0.283189535
      0.828128576 0.0178291164 0.989442766 0.468539417 0.710835934
      0.883553386 0.0297445543</_>
    <_>
      0.809289575 0.696993709 0.627650023 0.0638419464 0.223598972
      0.809477329 0.0107082799 0.993950963 0.39386943 0.774993122
      0.926904261 0.0187279787</_>
    <_>
      0.84959203 0.711321175 0.52889967 0.0715015382 0.347690314
      0.849618137 0.0159368999 0.989660501 0.39352718 0.719586253
      0.924635291 0.0205797572</_>
    <_>
      0.75150609 0.577645302 0.542517245 0.126903072 0.305819273
      0.76175046 0.0222753845 0.989543438 0.409547716 0.799982548
      0.872355998 0.033606261</_>
    <_>
      0.805394888 0.703864455 0.501247764 0.0776357204 0.359565556
      0.805512726 0.0186815336 0.987424254 0.357905328 0.784326375
      0.886536956 0.0289217643</_>
    <_>
      0.647259355 0.53702116 0.465508789 0.193686888 0.320893049
      0.649586558 0.0176817738 0.990802646 0.306717128 0.883639812
      0.8759377 0.0309417043</_>
    <_>
      0.757665813 0.596738636 0.537853479 0.0504768752 0.303254902
      0.770174563 0.0189882293 0.988845408 0.388315439 0.739915729
      0.901108146 0.0259789396</_>
    <_>
      0.602838635 0.60050559 0.612373292 0.337183893 0.187401056
      0.672267497 0.00951553509 0.992027342 0.275846392 0.875351489
      0.884161055 0.0262171682</_>
    <_>
      0.74225527 0.585040987 0.53628546 0.148830563 0.305155486
      0.758984983 0.0197233353 0.990050077 0.363235563 0.832831085
      0.904770017 0.0264273696</_>
    <_>
      0.493847698 0.48611936 0.510080934 0.583679199 0.106341362
      0.51721853 0.0156758483 0.994207382 0.355666131 0.806710601
      0.912098348 0.0238629077</_>
    <_>
      0.625738263 0.627119064 0.421732843 0.142088071 0.418916792
      0.629725039 0.0127542438 0.991018116 0.285856277 0.841481924
      0.949222505 0.0153447306</_>
    <_>
      0.738880455 0.599790931 0.3860448 0.0944461077 0.462099373
      0.755793095 0.0129292123 0.990787506 0.341241091 0.77222383
      0.907649577 0.0234625246</_>
    <_>
      0.680779994 0.579900801 0.454290062 0.0523156263 0.392928809
      0.680789351 0.0189153589 0.992561042 0.365599871 0.835011482
      0.90746218 0.0254023857</_>
    <_>
      0.775759935 0.591693342 0.572879612 0.0407748073 0.270467341
      0.775846481 0.0116387736 0.994528472 0.38477093 0.79335618
      0.930497527 0.018371636</_>
    <_>
      0.385171503 0.481102198 0.281617969 0.239191487 0.495474666
      0.488442332 0.0206153914 0.984595239 0.228699714 0.985251665
      0.879992425 0.0321768895</_>
    <_>
      0.721458495 0.586152375 0.521481097 0.312534004 0.286346585
      0.723574817 0.0109048691 0.993455827 0.272034705 0.875779986
      0.910274446 0.0216607936</_>
    <_>
      0.828853726 0.620169938 0.434044242 0.0671892688 0.427852392
      0.828853726 0.0148002086 0.986632705 0.332072049 0.758265793
      0.887239099 0.0271760896</_>
    <_>
      0.866233528 0.739096582 0.627525389 0.070145756 0.252494812
      0.866280019 0.0155821592 0.989787579 0.447373688 0.625183463
      0.942247391 0.0168601852</_>
    <_>
      0.691308856 0.498723865 0.384300292 0.0810687467 0.419006974
      0.693643153 0.00999839883 0.990596354 0.279447734 0.869898975
      0.899076402 0.0233544204</_>
    <_>
      0.762515783 0.644959986 0.459143817 0.0914717987 0.377925545
      0.772162914 0.0168529786 0.989774406 0.32523948 0.834908545
      0.91027981 0.0240190588</_>
    <_>
      0.856596291 0.667923391 0.532644868 0.108814858 0.349523872
      0.856880188 0.0127790682 0.991802633 0.453092545 0.610498846
      0.952129662 0.0147161279</_>
    <_>
      0.727275372 0.534670889 0.482032031 0.0556519926 0.349760443
      0.730291486 0.0209773388 0.989277184 0.358151555 0.794822812
      0.895848751 0.0277686585</_>
    <_>
      0.814185858 0.588134527 0.457918257 0.258414924 0.410806268
      0.81561929 0.0106454194 0.99281311 0.401272297 0.683534801
      0.941438079 0.0159393009</_>
    <_>
      0.738669693 0.602898061 0.447134405 0.0812751353 0.383212268
      0.748784304 0.0199995991 0.988889098 0.320570678 0.85692513
      0.902870119 0.0267717</_>
    <_>
      0.750641525 0.677599847 0.622913063 0.138676643 0.1840197
      0.75646472 0.0131906634 0.991907299 0.401828408 0.782822847
      0.90104562 0.0245375559</_>
    <_>
      0.824793041 0.63931042 0.429932117 0.0771372542 0.439900249
      0.824898303 0.0178699549 0.986247361 0.462982118 0.620017767
      0.923683465 0.0211643185</_>
    <_>
      0.818883657 0.658340216 0.542404294 0.064394109 0.314110488
      0.818923354 0.0154127963 0.990083277 0.312249303 0.835080266
      0.89943403 0.0258428082</_>
    <_>
      0.834558845 0.653916538 0.487279058 0.0526810065 0.378511876
      0.834591627 0.0248346422 0.985902786 0.384743899 0.773501217
      0.880430341 0.0328255109</_>
    <_>
      0.750721097 0.681105733 0.540076256 0.0895261988 0.254227072
      0.75100863 0.0193097368 0.987687826 0.304048926 0.87299186
      0.879329085 0.0305092894</_>
    <_>
      0.834982336 0.629041672 0.47545144 0.0642437488 0.389835089
      0.834982455 0.0130965728 0.989690185 0.282234102 0.82581228
      0.900544345 0.0243233498</_>
    <_>
      0.805316985 0.623416007 0.437375277 0.0810196996 0.42844522
      0.818055868 0.0161619149 0.988244295 0.323190421 0.806972921
      0.891743183 0.0269578788</_>
    <_>
      0.848984957 0.707749188 0.580056489 0.0532043874 0.292548746
      0.849019766 0.0137532027 0.991044164 0.461042851 0.613236129
      0.928991973 0.0192985274</_>
    <_>
      0.742891073 0.585155487 0.536851704 0.148043662 0.304941893
      0.759373069 0.0201077033 0.98987484 0.364361793 0.832228065
      0.904550135 0.0266235583</_>
    <_>
      0.605132818 0.629164159 0.285677642 0.166418985 0.535806298
      0.635866642 0.0310281869 0.973713934 0.217044726 1.03777575
      0.793375552 0.0549407415</_>
    <_>
      0.748157442 0.613883495 0.528448939 0.21380873 0.295610577
      0.748263121 0.015560138 0.991480649 0.311999142 0.846687973
      0.928935289 0.0197329428</_>
    <_>
      0.869062483 0.741790235 0.507251799 0.0686598718 0.378286779
      0.869081438 0.0164586008 0.988945484 0.442688197 0.604797363
      0.941087723 0.017382687</_>
    <_>
      0.805119872 0.6384992 0.492101282 0.0641931519 0.36433503
      0.805142224 0.0227666553 0.987083018 0.267312586 0.918007255
      0.862614334 0.0349175222</_>
    <_>
      0.793419778 0.616577983 0.444626361 0.209977761 0.411415577
      0.794206679 0.0150276264 0.989260495 0.268129677 0.870278656
      0.90101701 0.0247857943</_>
    <_>
      0.655299067 0.540307164 0.513124943 0.197909802 0.289642334
      0.671319723 0.0191051401 0.991763532 0.381769121 0.800493777
      0.902707338 0.0265034437</_>
    <_>
      0.719327092 0.551496089 0.4616234 0.168767273 0.35183832
      0.721030772 0.0201269221 0.988476455 0.286868602 0.914000154
      0.878462017 0.0314121544</_>
    <_>
      0.788894176 0.686993003 0.550899267 0.0668143705 0.29776293
      0.788915813 0.0163793247 0.989665508 0.365621984 0.760056734
      0.928182125 0.0200132132</_>
    <_>
      0.62499243 0.627172768 0.422050685 0.143266037 0.418907166
      0.629337311 0.0121832956 0.991473317 0.287573427 0.835262239
      0.950338662 0.0150364349</_>
    <_>
      0.785346329 0.626137018 0.52974838 0.0671807453 0.315136611
      0.785520792 0.00950912852 0.994217873 0.304548621 0.853690147
      0.917889059 0.020023223</_>
    <_>
      0.683518708 0.622509658 0.558202982 0.247960731 0.212147355
      0.708639443 0.0179172009 0.985313058 0.241236374 0.948307037
      0.80433321 0.0446348488</_>
    <_>
      0.694211185 0.559166074 0.485103965 0.0912214592 0.359792888
      0.715481639 0.0201797727 0.991160929 0.381139904 0.800515234
      0.909334719 0.0259228852</_>
    <_>
      0.672302723 0.464520186 0.432500899 0.205247417 0.382082611
      0.672329545 0.0210986547 0.987949908 0.315619498 0.834381878
      0.896297991 0.0282150861</_>
    <_>
      0.755037487 0.651626647 0.549205065 0.0871693864 0.275120288
      0.755217373 0.0209733341 0.9866817 0.335939229 0.856401026
      0.846365869 0.038094569</_>
    <_>
      0.743712962 0.533258677 0.45150888 0.0482564718 0.394441605
      0.743793666 0.0163408872 0.991359293 0.304879248 0.893516719
      0.898858428 0.0263593048</_>
    <_>
      0.558292329 0.402606666 0.416978985 0.642995119 0.374358416
      0.560861349 0.0181826558 0.99206996 0.270969361 0.908447921
      0.908685684 0.0246016178</_>
    <_>
      0.813424051 0.557353199 0.383861423 0.105504401 0.469115853
      0.813548326 0.0210121721 0.985419452 0.372322798 0.757087648
      0.873273194 0.0326793715</_>
    <_>
      0.679768145 0.617253482 0.59418571 0.0711306185 0.183103785
      0.680242896 0.0183632281 0.993126154 0.466938764 0.739914775
      0.905849934 0.0259729344</_>
    <_>
      0.680146992 0.615459621 0.430844456 0.164835662 0.35117203
      0.681456506 0.0104536358 0.992495954 0.258072972 0.895337224
      0.913682699 0.0208019707</_>
    <_>
      0.726858497 0.523489177 0.48207283 0.195503935 0.370696157
      0.741426229 0.0108560221 0.99440676 0.246052742 0.961958528
      0.876763642 0.0280108899</_>
    <_>
      0.777850211 0.611511886 0.564315021 0.147060126 0.290167153
      0.785594404 0.0173278339 0.99093765 0.389084071 0.781871617
      0.911052644 0.0236747283</_>
    <_>
      0.667527258 0.448994368 0.251392603 0.0719850585 0.538658679
      0.668441832 0.00710722292 0.993903399 0.291814506 0.871666729
      0.909082472 0.0202974863</_>
    <_>
      0.735437155 0.58531332 0.488369733 0.19663994 0.332440794
      0.735564232 0.0158432089 0.990910411 0.283491611 0.869809985
      0.928053677 0.0197869949</_>
    <_>
      0.813883841 0.699050248 0.574749053 0.136920154 0.266362876
      0.81446296 0.0126337288 0.990971863 0.339925885 0.764667451
      0.91978097 0.0205957722</_>
    <_>
      0.732021093 0.536501408 0.359176159 0.0996009633 0.437418729
      0.733543754 0.00703515392 0.991671622 0.355181068 0.702186823
      0.945784211 0.0136390934</_>
    <_>
      0.837341905 0.680004716 0.542985082 0.056189768 0.327896386
      0.837368846 0.0191123486 0.988053977 0.355464429 0.806773424
      0.890005708 0.0283772424</_>
    <_>
      0.769353926 0.71038866 0.63343358 0.14102304 0.176830888
      0.770170152 0.0272609703 0.984265804 0.356960267 0.865561187
      0.844071388 0.0411975496</_>
    <_>
      0.819687009 0.781873822 0.548177838 0.0924502388 0.317333966
      0.819887102 0.0184473097 0.989986181 0.451046556 0.674864888
      0.92738831 0.0217368677</_>
    <_>
      0.672300696 0.614298284 0.45406279 0.157243505 0.318812668
      0.673075497 0.0138320792 0.989141464 0.291996151 0.841280758
      0.912936628 0.022363469</_>
    <_>
      0.68869561 0.523312747 0.483461112 0.0522987954 0.323557854
      0.688731611 0.0217596889 0.98927319 0.349632561 0.833220184
      0.878222227 0.0318926163</_>
    <_>
      0.78518641 0.658554435 0.472914934 0.0758393779 0.383047819
      0.785339057 0.0195295475 0.986919701 0.330698222 0.806369007
      0.900721848 0.026595531</_>
    <_>
      0.787613094 0.654287875 0.537480533 0.149608597 0.283777893
      0.790618598 0.0214177612 0.984951615 0.313609719 0.834154963
      0.875698268 0.0319847055</_>
    <_>
      0.712034523 0.56140542 0.504659772 0.089186728 0.344006419
      0.731174111 0.0182254966 0.992193103 0.393615991 0.79124558
      0.914427459 0.0238428898</_>
    <_>
      0.723571301 0.59368223 0.483230084 0.0691534653 0.334749609
      0.723611951 0.0202458352 0.986941755 0.285403639 0.901990056
      0.860431552 0.0344851054</_>
    <_>
      0.817077279 0.624877453 0.47632575 0.0785967857 0.386286706
      0.817098975 0.0169026274 0.988503516 0.34014985 0.756722391
      0.927672863 0.0200832803</_>
    <_>
      0.623650134 0.623384893 0.418542564 0.142982259 0.415564746
      0.626965165 0.0118685942 0.991471708 0.277491778 0.854567468
      0.948176086 0.0153847691</_>
    <_>
      0.736961484 0.619076014 0.345742971 0.133177221 0.500243664
      0.762814343 0.00777706597 0.993623853 0.297473431 0.791015029
      0.943723679 0.0144498721</_>
    <_>
      0.83489573 0.68207556 0.545980811 0.0942148119 0.328666776
      0.835076928 0.0153447306 0.99035877 0.404206961 0.711527407
      0.93662256 0.0184116755</_>
    <_>
      0.679027081 0.551353812 0.524949491 0.0452998765 0.304614186
      0.682827055 0.0214846246 0.992099285 0.444709331 0.728981495
      0.916233182 0.0252842735</_>
    <_>
      0.796965659 0.604387403 0.526959598 0.0597042851 0.331057489
      0.797014415 0.0202390291 0.988291442 0.347491443 0.840388119
      0.876018882 0.0312840343</_>
    <_>
      0.777156949 0.624380946 0.419869512 0.0856208354 0.43067947
      0.779903352 0.0148198269 0.990573049 0.348155826 0.803839505
      0.901380837 0.0252282191</_>
    <_>
      0.731327593 0.58159554 0.496316344 0.218951628 0.32325992
      0.733959138 0.022427531 0.987823367 0.31660834 0.900014162
      0.871215463 0.0339025483</_>
    <_>
      0.795351088 0.630933166 0.588839531 0.043643374 0.263093352
      0.79543215 0.0174195226 0.990408063 0.440209538 0.696217299
      0.898396432 0.0265594963</_>
    <_>
      0.789669156 0.530984104 0.478695929 0.0702181682 0.381076187
      0.789696515 0.0192404706 0.988865614 0.322083205 0.846735477
      0.879052579 0.0307475179</_>
    <_>
      0.754138529 0.632873595 0.547168314 0.266058683 0.280030608
      0.754581511 0.0160858426 0.991487265 0.326375961 0.828138947
      0.928447485 0.0197950024</_>
    <_>
      0.860280812 0.656923532 0.542007983 0.0759814307 0.344539464
      0.860628724 0.014243274 0.991317928 0.445264131 0.651287198
      0.929571569 0.0191664007</_>
    <_>
      0.723856986 0.501695216 0.474289179 0.112458371 0.348894715
      0.732193112 0.0197257362 0.987988353 0.292903334 0.889170706
      0.879820108 0.0311559103</_>
    <_>
      0.866358042 0.723053813 0.570133448 0.0603202283 0.318569064
      0.866398811 0.017454356 0.989159346 0.4400433 0.712143362
      0.905965805 0.0245755929</_>
    <_>
      0.841426492 0.655867219 0.507882237 0.0730336979 0.366568029
      0.841442764 0.0219706912 0.98483336 0.311826825 0.838405967
      0.853049219 0.0368593857</_>
    <_>
      0.791434467 0.653032124 0.571482956 0.0489924364 0.267152488
      0.791486621 0.0162231736 0.990338087 0.374179989 0.783279181
      0.910592139 0.02341648</_>
    <_>
      0.644196272 0.50564903 0.44761318 0.0406371802 0.326161236
      0.644219816 0.0199375395 0.988892853 0.278087854 0.913122714
      0.886494637 0.0296124276</_>
    <_>
      0.74346137 0.615452647 0.479323775 0.106415637 0.373333007
      0.783132374 0.0170031227 0.990015686 0.330890864 0.83679986
      0.910721242 0.0244734939</_>
    <_>
      0.805490971 0.770097017 0.708735108 0.0979296193 0.139357299
      0.808674634 0.0211515054 0.989628255 0.614652872 0.593334973
      0.920369685 0.0247157272</_>
    <_>
      0.704823315 0.561404467 0.402540624 0.0671508536 0.44015941
      0.704874694 0.0216387734 0.988755584 0.307384372 0.891147316
      0.890012622 0.0296344496</_>
    <_>
      0.790475249 0.563340485 0.459958196 0.0397884995 0.400500119
      0.790500641 0.0216095448 0.986473262 0.342017412 0.80731678
      0.864719927 0.0341768116</_>
    <_>
      0.718064547 0.498529732 0.451416582 0.0412901044 0.388730496
      0.718084753 0.0173738785 0.990995586 0.312963367 0.83309269
      0.924489379 0.0210822392</_>
    <_>
      0.746509075 0.498704016 0.391563565 0.0724645928 0.448542237
      0.746776581 0.0180745516 0.986109436 0.268575579 0.895786524
      0.868128181 0.0324491523</_>
    <_>
      0.565472305 0.629467964 0.211026207 0.209379986 0.682610631
      0.635500193 0.00889053475 0.983590484 0.275673002 0.869347155
      0.86110127 0.0303191058</_>
    <_>
      0.76827848 0.63888377 0.395810276 0.103998706 0.455976456
      0.789337218 0.0205337126 0.98524189 0.313124269 0.845816851
      0.888331234 0.0299827829</_>
    <_>
      0.844794035 0.671284437 0.564585388 0.0518067516 0.311418235
      0.844824731 0.0175188184 0.988968849 0.364133447 0.792372108
      0.908580244 0.0245295484</_>
    <_>
      0.739707589 0.532852292 0.538181186 0.480826944 0.295735866
      0.739717126 0.026978299 0.985956669 0.276493311 0.983843863
      0.832549036 0.0438681133</_>
    <_>
      0.758470118 0.621320188 0.562581599 0.0576088838 0.23710078
      0.758557737 0.0107202912 0.995052159 0.349441141 0.805869997
      0.922946513 0.0198730789</_>
    <_>
      0.788377464 0.616414845 0.511548936 0.075411886 0.320511788
      0.78838551 0.00870755967 0.993732572 0.311657608 0.783095777
      0.947829962 0.0141095454</_>
    <_>
      0.693641603 0.625692487 0.573000312 0.0610006116 0.195168152
      0.693690062 0.0316131487 0.983193457 0.329567552 0.938191235
      0.817084491 0.0503263138</_>
    <_>
      0.808505952 0.659958661 0.477659732 0.0911916718 0.368232459
      0.809197247 0.0164109543 0.987613559 0.291676313 0.847349763
      0.877970099 0.029492313</_>
    <_>
      0.821509719 0.712464571 0.471551269 0.100895293 0.384974837
      0.821517646 0.0104468288 0.992132843 0.399015307 0.677991033
      0.935642421 0.0170523711</_>
    <_>
      0.604902744 0.528509974 0.481166124 0.119779043 0.314457029
      0.605508268 0.0107975658 0.995923877 0.329637736 0.821190357
      0.911291242 0.0221172329</_>
    <_>
      0.825015247 0.673909962 0.644611061 0.0799846798 0.219421521
      0.825048923 0.014380605 0.992368102 0.474260569 0.686317563
      0.934082866 0.0187960435</_>
    <_>
      0.719296992 0.534631848 0.421360344 0.0622419082 0.411306322
      0.719300091 0.0089770183 0.99423939 0.309569031 0.855999768
      0.915879607 0.020113308</_>
    <_>
      0.830682993 0.625415146 0.471424192 0.0637061968 0.39889729
      0.830752909 0.0164153595 0.989022791 0.323576093 0.804799378
      0.911358178 0.0232683383</_></support_vectors>
  <decision_functions>
    <_>
      <sv_count>62</sv_count>
      <rho>-12.56058117833377</rho>
      <alpha>
        312.5 312.5 312.5 7.3984355158309238 312.5 312.5 312.5 312.5
        178.4519424473053 312.5 312.5 312.5 312.5 312.5 312.5 312.5
        312.5 312.5 312.5 312.5 312.5 312.5 23.401017040123044 312.5
        312.5 312.5 232.96760086797201 312.5 312.5 257.59647771297193
        53.604456023897271 -312.5 -312.5 -191.80844296825236 -312.5
        -312.5 -312.5 -312.5 -290.49472122795089 -312.5 -312.5 -312.5
        -312.5 -312.5 -312.5 -58.707101816149574 -312.5 -312.5 -312.5
        -312.5 -312.5 -312.5 -312.5 -100.01599503807525 -312.5 -312.5
        -279.59281471096511 -92.546810311137392 -52.754043535569714
        -312.5 -312.5 -312.5</alpha>
      <index>
        0 141 111 196 4 8 64 184 10 66 36 14 39 68 173 19 171 91 93 73
        168 47 74 75 23 158 151 130 54 146 143 2 38 189 190 5 9 83 94 97
        99 102 104 51 53 109 117 25 61 128 134 138 140 144 149 31 32 161
        167 172 175 35</index></_>
    <_>
      <sv_count>7</sv_count>
      <rho>-2.0566299166467141</rho>
      <alpha>
        5.2057033352014566 38.747236645710231 105.20458730066768
        28.464305694566693 13.451831476082081 26.381442400422102
        -217.45510685265029</alpha>
      <index>
        194 108 60 182 19 147 164</index></_>
    <_>
      <sv_count>92</sv_count>
      <rho>14.920911135193959</rho>
      <alpha>
        312.5 312.5 312.5 312.5 312.5 312.5 291.75956341025312 312.5
        312.5 312.5 265.12601790321617 312.5 312.5 247.67205399412222
        40.682106524196243 45.542511850950547 312.5 309.55799901758752
        312.5 312.5 312.5 312.5 312.5 3.8824704073178733 312.5 312.5
        312.5 312.5 94.329504440204119 188.14035475063787 312.5
        239.03819624622218 98.522026891962426 312.5 38.669930755277022
        312.5 312.5 312.5 312.5 312.5 312.5 312.5 288.009060608992 312.5
        312.5 -312.5 -294.40712682420127 -312.5 -312.5
        -183.72089786925901 -312.5 -312.5 -312.5 -234.43874838005524
        -312.5 -312.5 -312.5 -312.5 -312.5 -312.5 -312.5
        -109.45590949795893 -312.5 -128.43092917282468 -312.5
        -256.34195236947625 -279.56075366013619 -298.44250741698642
        -312.5 -312.5 -132.03008948221924 -312.5 -312.5
        -71.49578276752635 -213.22257528099698 -59.510829456868784
        -312.5 -310.29014651777265 -312.5 -312.5 -312.5
        -161.12952663819578 -266.29627263514868 -114.28894450374743
        -90.709666014268279 -312.5 -312.5 -148.66121922831246 -312.5
        -312.5 -48.497919084984176 -312.5</alpha>
      <index>
        58 141 111 196 194 192 4 60 188 135 6 14 67 179 178 17 176 173
        19 171 91 21 43 170 45 73 133 162 159 96 23 24 105 157 156 154
        151 147 52 77 29 55 56 100 142 1 13 15 16 160 127 26 27 80 120
        98 30 121 40 122 42 44 101 155 49 148 78 57 92 124 89 70 71 153
        177 88 62 181 183 20 86 185 113 63 152 114 84 193 82 195 65 81</index></_>
    <_>
      <sv_count>32</sv_count>
      <rho>-12.82259758050524</rho>
      <alpha>
        50.131569553450234 312.5 312.5 312.5 312.5 312.5 312.5
        149.75298029658188 185.11089288769247 312.5 312.5 312.5 312.5
        286.89261971412043 236.02405764047853 312.5 -312.5 -312.5
        -63.098798993637715 -312.5 -297.95879127731638
        -66.716989713748916 -312.5 -312.5 -312.5 -312.5
        -167.63754010762082 -312.5 -312.5 -312.5 -312.5 -312.5</alpha>
      <index>
        136 197 194 4 85 188 6 184 68 176 19 133 159 154 55 100 150 166
        169 11 22 174 41 46 180 87 69 115 191 119 123 132</index></_>
    <_>
      <sv_count>11</sv_count>
      <rho>3.0633697887400939</rho>
      <alpha>
        59.972720481184673 6.7656597470592654 13.084215555272928
        24.561919165334064 1.436544080308507 2.6331451890358459
        -6.0038495624055956 -16.783932396734389 -26.871354170858556
        -43.00522303865084 -15.789845049545898</alpha>
      <index>
        60 6 37 105 156 56 50 48 33 3 129</index></_>
    <_>
      <sv_count>5</sv_count>
      <rho>-2.6479546002042311</rho>
      <alpha>
        24.031925219964517 19.599940181594373 8.8874489692538834
        19.930053167167802 -72.449367537980592</alpha>
      <index>
        138 140 144 32 137</index></_>
    <_>
      <sv_count>29</sv_count>
      <rho>3.4950521339066674</rho>
      <alpha>
        220.96769833094729 312.5 172.85409413263298 114.0468015246267
        25.507853284727673 312.5 287.22961047576484 2.4713039856932077
        312.5 31.45533982089032 312.5 312.5 312.5 312.5
        -32.342276737589458 -312.5 -312.5 -154.75078560207351
        -210.66939072706887 -312.5 -0.11203960529630411
        -312.0564720775044 -213.51735127152244 -28.574187826504634
        -33.142780656578914 -312.5 -312.5 -252.94439938403215
        -241.42301766711259</alpha>
      <index>
        189 190 5 12 83 97 102 104 51 25 134 138 140 35 1 95 120 40 49
        148 59 70 71 153 181 183 20 195 65</index></_>
    <_>
      <sv_count>11</sv_count>
      <rho>-2.8170844410067755</rho>
      <alpha>
        103.15182738719365 312.5 82.293439346249798 42.194795655528736
        312.5 7.5362960904807155 -114.75081011817622 -178.73522080869392
        -77.578901588475077 -312.5 -176.61142596410767</alpha>
      <index>
        83 94 97 102 138 140 22 87 69 191 132</index></_>
    <_>
      <sv_count>9</sv_count>
      <rho>0.55815747391917714</rho>
      <alpha>
        8.6930286170205413 12.308756181006757 5.6240492824752106
        12.13413278784452 18.920228222209502 10.070541772742621
        -31.112257757445562 -18.42068453028801 -18.217794575565598</alpha>
      <index>
        189 79 97 134 140 144 48 33 3</index></_>
    <_>
      <sv_count>5</sv_count>
      <rho>2.1716961879789887</rho>
      <alpha>
        149.85676652242071 13.821869231957818 -65.017179601611474
        -9.414804777327344 -89.246651375439782</alpha>
      <index>
        164 7 88 63 195</index></_>
    <_>
      <sv_count>4</sv_count>
      <rho>0.59596952373558532</rho>
      <alpha>
        66.935209817525504 -12.629768754073179 -12.732689452060807
        -41.572751611391531</alpha>
      <index>
        106 150 165 119</index></_>
    <_>
      <sv_count>7</sv_count>
      <rho>3.6932923267747251</rho>
      <alpha>
        35.702551565102148 17.942724540285877 -12.91751484410312
        -14.471996520632478 -8.4404850221760039 -7.0352038094202696
        -10.780075909056151</alpha>
      <index>
        72 34 110 33 186 3 129</index></_>
    <_>
      <sv_count>47</sv_count>
      <rho>-11.744106715402751</rho>
      <alpha>
        312.5 312.5 312.5 312.5 312.5 312.5 312.5 312.5 312.5
        110.18026403381864 257.17438881918133 312.5 312.5 312.5 312.5
        122.16037014333257 312.5 89.025445381684506 177.64846389400037
        132.98408716142964 312.5 312.5 312.5 -11.167966448963265 -312.5
        -299.13295992686164 -312.5 -312.5 -312.5 -151.09642069714209
        -38.08691653076437 -312.5 -293.88253428306388 -312.5 -312.5
        -312.5 -262.95282408480517 -312.5 -119.47895628955729 -312.5
        -312.5 -312.5 -312.5 -312.5 -312.5 -312.5 -25.874441172289306</alpha>
      <index>
        16 127 98 121 122 49 125 153 112 177 88 62 183 20 185 113 63 114
        84 193 82 65 76 145 150 131 163 166 11 18 107 22 174 41 46 180
        69 115 116 118 191 119 123 126 28 132 198</index></_>
    <_>
      <sv_count>10</sv_count>
      <rho>1.2499212665513517</rho>
      <alpha>
        10.403126220342946 23.589222190006598 26.142857805148996
        37.921391964329899 11.223689403171671 -15.621929270956581
        -8.2147069365787324 -27.612816831409987 -18.042800265011643
        -39.788034279043195</alpha>
      <index>
        139 103 90 88 181 50 48 33 3 129</index></_>
    <_>
      <sv_count>6</sv_count>
      <rho>2.9368199708466296</rho>
      <alpha>
        0.3041690241964819 2.7225366378382616 46.162295236594559
        -20.72946206346089 -7.7913427359634539 -20.668196099204984</alpha>
      <index>
        150 180 187 33 186 129</index></_></decision_functions></opencv_ml_svm>
</opencv_storage>
